-4.397241321269033665e-01,-1.909633600992066471e+00,-1.322833889174049649e+00,-9.904824578075839270e-01,-1.150362384605050581e+00,3.493552290623467282e-01,4.185230044367646007e-01,6.273191006633518918e-02,-1.572942015159945750e-01,-7.712387514490169904e-01,6.430687481148725793e-01,-1.647656717146548822e+00
-1.615605614548891455e-01,-4.233306434550033193e-01,-1.016379365607691238e-01,-1.434590364464513490e+00,-6.907640925814088062e-01,1.217307867887599676e-01,5.155975453840789813e-01,-7.840548559953716135e-01,9.082431771339414261e-01,2.165769671441747923e-01,-8.681055848836550792e-01,-6.841358438284308452e-01
1.914321422425660613e+00,9.302504990439348642e-01,-1.304711828644224081e+00,-8.525339410920893535e-01,-2.789808542284360482e-01,5.286066480981691518e-01,5.078724851056486411e-01,-9.813871965598752745e-01,7.784027904053435476e-01,-1.331716614370989982e+00,1.046614285201382000e+00,1.234678157036524782e-01
7.867558059052949249e-01,-1.969394659335064746e-01,-8.286355291187533778e-01,1.015166644828960463e+00,-5.941139178889112693e-02,-1.111561019131636630e-01,1.176872578289818838e+00,-8.073691657581063552e-01,-4.717320579747488196e-01,-6.059129492537423944e-01,-1.074645555024737797e+00,5.008372646084162660e-01
-1.277027149578934817e-01,-8.369619386579196796e-01,-1.322779345164979858e+00,1.426378184062439436e+00,7.424945236263235104e-01,4.072611487021969567e-02,-3.699811233948595568e-01,-7.980782708533777914e-01,1.383215218791477241e+00,1.260236700682501265e+00,-6.100594837308628282e-01,7.168639213102946384e-01
-1.409399920611582036e-01,2.094518681356471124e+00,5.434373230828138945e-01,-1.425250754688514254e+00,-8.956880105469582354e-01,2.765428334896994356e-01,-5.172850565669457890e-01,-5.658374319725486545e-01,-5.269957219527539038e-01,-6.557045495700801752e-01,-1.406429648859736758e+00,-2.342278856804329845e-01
5.580818347541410818e-01,-1.372365108789874721e+00,9.747483646015447922e-02,-1.379944546062165933e-01,1.703383993292349463e-01,1.175361218222678472e+00,-1.868158090066635857e-01,1.057947537867029775e+00,6.186693830482005163e-01,-6.893630917289885751e-01,1.172132896564936244e+00,-1.002106797551081785e+00
2.426979225038625732e+00,-1.318800113146252895e-01,2.221489328411936803e+00,-6.408840255557554100e-01,2.528616162125491354e-02,3.226207442403249970e-01,7.826020676389482400e-01,5.342478242826835810e-01,-1.503074886094775797e+00,1.821312896361217959e-01,1.927947029710711968e+00,-1.608530821266595412e+00
1.991006208634060970e+00,7.988560548494293423e-01,-1.115716360923842965e+00,-9.851348287684567051e-01,-1.058753665959008439e+00,-2.316541403570671342e-01,5.637197599739647291e-01,-3.343219484499870275e-01,-4.465339395919143417e-01,1.323644662257320803e+00,-1.096107805460814877e+00,-8.151309134761018926e-01
1.663248317972830514e-01,1.269518830587862412e+00,-1.088612105472449576e-01,8.965076568263459222e-01,5.685482037925837506e-01,9.912721193947501841e-02,-2.787320785946894586e-01,-2.100320588771802388e+00,5.654784036613424991e-01,2.162804645665846515e+00,-7.036160936962154722e-01,-4.285304882229165058e-01
-6.172621303596025344e-01,-9.682508259403366235e-02,-7.493703161398298507e-01,-2.293576923003856294e+00,-6.411855129159105271e-01,-1.283891636314653750e+00,9.895065895683454738e-01,-3.221061342357905422e-01,-4.473122688568647032e-01,7.160342701975817015e-01,-1.606225185126267219e+00,-3.490186996024729482e-01
-1.654101051578100057e+00,1.174421853353568412e+00,1.350619207340675532e+00,1.185952831019386311e+00,-1.220471156794837198e+00,3.932393759223349466e-02,1.914865426306215368e-01,-6.828761375298515457e-01,7.722212748321716225e-02,-1.439847707953295197e+00,2.405881151859031453e-01,-1.226258393606652897e-01
-5.764325963983127910e-01,2.466383568495785772e-01,1.474998575723212857e-01,6.280835529295387687e-01,-1.403115886375969845e+00,1.612900949357771729e+00,1.307237597735450230e+00,-1.733965142004946669e+00,-1.172725480297982736e+00,8.453824538029509617e-01,3.819241654869548475e-01,-5.533978474607863240e-02
-9.608477974569889016e-03,1.401124766150904533e+00,6.996284332766145031e-01,-1.714693502167744299e+00,2.110080904646678412e+00,3.350254011867519921e+00,-1.454728402009371369e+00,1.613417414523078852e+00,-3.860488184222490848e-01,-1.645317332401561750e+00,4.068173129828066004e-01,8.344878605196863475e-02
9.651567332155350787e-01,9.361374834939268919e-01,-6.760543242293038935e-01,2.976196603509110528e+00,-6.372144600121445457e-01,-1.951743839179158613e+00,-1.242358276523069405e+00,-5.978612958663003241e-01,-7.377125351818362153e-01,3.215557856773495482e-01,-1.933778203335388690e-01,1.340063049686796237e+00
3.075990353492092932e-01,-1.075991384473289070e-01,-7.024719605006002343e-01,1.572734753959821319e+00,-3.934859625701317420e-01,1.289449061463974422e+00,-1.001568925089162621e+00,-2.065376317719359811e+00,-3.964781444065856308e-01,-8.926993078774168866e-02,3.023439311337341007e+00,-1.451249540534899740e+00
5.592978831821233676e-01,-1.386847097683794605e-01,1.097320514658582269e+00,1.119952962757494230e+00,7.479902717846762528e-01,-3.199053336845006368e-01,-6.730998537789709690e-01,-1.046218463519963615e+00,3.775934257598625998e-02,-5.393622659748857906e-01,-1.331910348627384222e+00,-1.175923822338305752e-01
-1.109834563330933804e-01,-9.343788399420449586e-02,1.926184077559483510e-01,1.214518095879350446e+00,-7.918390425631446350e-01,1.569089424164309854e+00,-1.280673784561994433e+00,1.259174903985486704e+00,-1.225974121597471350e-01,-5.190822554978000714e-01,3.381372732865712272e-01,-1.628497600271938683e-01
-1.322685994412559629e-01,-1.220594871191971326e-01,1.686869875691834886e-01,5.645274048471999873e-01,-3.316007861350349639e-01,-2.411038555707643471e+00,-2.182454506868422239e+00,4.424259421045738105e-01,1.589354770918775195e+00,4.313526169748210237e-01,4.804846879853660324e-01,1.786899048346669794e+00
1.031850365408180314e+00,-3.948194606522667516e-01,-5.866823805235863443e-01,6.064259008737238332e-01,1.833422309861064692e-01,6.990660331172089403e-01,1.063462049820354860e+00,6.858298683130709117e-01,-1.627119516739489624e+00,4.252539130538877110e-01,1.272935238630616084e+00,1.353590299673952169e+00
3.576674218689600560e-01,5.056199249914061777e-01,1.384416990148772952e-01,9.184495902666360845e-01,9.702257059305757769e-01,-3.599609313763488250e-01,-2.139483619926090818e-01,-9.967971512239178766e-01,-8.743946193676435108e-01,9.174239813370891339e-01,7.812989089823781930e-01,1.280817550460853660e+00
-6.546474055996428509e-01,-1.079765381014569092e+00,1.097487506531572343e+00,-1.278927024633054410e+00,9.579834340558918138e-01,7.122780860987698581e-02,6.052083434184232086e-02,-6.069194397575001787e-01,-9.854599281695269886e-01,2.014101995519701760e-01,1.338114414657862072e+00,-9.194108698273344427e-01
-5.811806901623080002e-01,-2.415023280813430429e+00,-1.598405487485860865e+00,-1.414802590362444379e+00,-2.707227019590404682e-01,1.330016422909918061e+00,-4.664294963386462212e-01,-2.084672140647668925e+00,7.181389848218355798e-01,1.363610712638274602e+00,1.149047507860948780e+00,8.157791542433705523e-01
-9.625091007846515653e-03,-7.391834805167744049e-01,-3.263089195516591934e-01,-1.307435944029564201e+00,-1.545818965208966278e-01,-5.848220675784692180e-01,1.458275320701715450e-01,1.230562076377530456e-01,1.997672076542328812e+00,-1.735460759649875451e+00,2.356930360808708880e+00,-4.721132850781077361e-01
1.953441318734937537e+00,-1.007242725174256170e+00,-1.373544760569321621e+00,-1.636441551089216073e-01,1.002970619070868041e+00,-4.966255337891360977e-01,3.553020855272931433e-01,-7.640715001570210774e-01,-9.471540777964880808e-01,-1.248320839271775728e+00,-9.803398403903278435e-01,7.507384645423384462e-02
3.472394654247641377e-01,7.215081038254222978e-01,-9.483149340424702756e-02,1.213189032281799307e+00,6.651270004491114385e-01,-5.185047816060847081e-01,-1.169379636332626982e+00,2.762817795274173927e-01,-1.161712823331454869e+00,1.704460864966201306e-01,1.042686131636508584e+00,-3.210119073836488757e-01
4.611946194690375034e-01,2.021237425238404661e+00,2.088399662617972385e+00,2.693045706053376342e-01,2.142437900822708463e-01,8.183626096966248875e-01,-5.894316489100637213e-01,-1.426734074644227857e+00,4.488549570149109602e-01,5.248027032077547949e-01,-3.651046796442571074e-02,-2.588272649993689223e-01
-6.413310352680628990e-01,7.793757178555313914e-01,-2.936740884262774576e-01,-1.960904217720885467e-01,-8.436322194638854466e-01,1.266176416488057566e+00,-1.297553476087308866e+00,9.863552355426517815e-02,8.301010661389095491e-01,3.744462090354914729e-01,4.144205418013962583e-01,-5.596305013068159084e-01
-1.313103096263898151e-01,2.340116690147385992e+00,1.059914864721801075e+00,4.022627076106218835e-01,-8.941597188857242084e-02,4.995873797741416933e-01,-8.431491557396962877e-01,8.707950216954438716e-01,1.504402926968540388e+00,8.934857478864581815e-01,-1.822121163945841449e+00,-8.432191205018653157e-01
1.530143156836511142e+00,-6.310919234499556829e-01,4.176803828260397208e-05,-9.007671498756734119e-01,1.255376998557130586e+00,-1.238009451365818248e-01,1.364704148811562101e+00,-1.895794816244873671e+00,-9.781495276034865016e-01,1.636196878122160303e-01,-5.570584306283835607e-01,-2.222473790791261283e+00
1.455640638874911685e+00,-1.155578296275925565e+00,7.240923105640427460e-02,-8.258733544043211916e-01,1.534094963584561322e+00,-7.010376556753205035e-01,-7.126655885097304965e-01,-2.415325077413640054e-01,-5.664750106531123430e-01,-1.197708507133063288e-01,-3.745638079151155653e-01,1.195644505824938614e-01
-8.281292015332998302e-01,-2.046670321378448940e-02,-8.656185419283485283e-02,6.122003808592731966e-01,-8.826865772639769236e-01,9.132315883785090405e-01,4.258730488482097010e-01,-6.300376907137235083e-01,9.652837635010728945e-02,1.133076810089958641e+00,1.884592869780712610e+00,-1.390358951176414948e+00
-1.809882480468185117e-01,-9.004573073956869678e-01,2.601027300533529374e+00,3.305071247492195052e-01,5.302933687012286734e-01,-2.065798690992375786e+00,1.789965054783906995e+00,1.165626170160531716e+00,3.825932745121193856e-01,-2.860911762274593872e-01,1.436731801787781981e-01,-7.004986543659834641e-01
2.629026834713731886e-01,7.930449484984415376e-01,1.658811828230355889e+00,8.358077642910818547e-03,-6.634824642764474145e-01,-2.516512833651218806e-01,7.794863847969690784e-01,-1.202747468565745992e+00,1.739899841315298568e-01,1.948854360262874508e+00,-1.175203727773408202e+00,-1.690288399294165078e+00
-1.777808169853023035e+00,-6.381061576515812961e-01,-1.274269800290373844e+00,1.272169163355480748e-01,1.277440365449661108e+00,-8.480374459511806906e-01,-1.259707097228803530e-01,1.113105229917772387e+00,-7.831116785292439875e-02,-4.217935732489498935e-01,3.086242747184817503e+00,-4.231551028996146102e-01
8.519510975555546484e-01,-1.011929548513757826e+00,-1.342235560713184839e+00,-2.457542585108991873e-01,3.974896611144236314e-01,1.469369588875027777e+00,-6.002666245759977759e-01,-2.407555746737582769e+00,-3.660062658023525151e-01,1.096745205109101562e+00,-1.060054970125259732e+00,-4.029034103315309867e-01
-2.096814222817362072e+00,-1.622418121257498402e+00,1.003551936574169010e-03,3.741606753756758219e-01,-6.470534234056201095e-01,-6.255228324955369734e-01,-3.039685733545261503e-01,-1.798782312326763777e-01,1.118420672442274499e+00,5.921123464160054500e-02,1.880848860725005567e+00,-1.781269809289923511e+00
1.967933877558493583e+00,8.111488305861411785e-01,-2.480276509243959648e-01,-1.583451084177929680e+00,-1.161525782873687462e-01,-1.461725835381342931e+00,1.038063986223341617e+00,-1.277085830019954127e+00,2.609492423510181291e-01,-2.218864551166638943e+00,2.023712824620138129e+00,1.032495540094035436e+00
4.167006386755495728e-01,-3.028387074046035576e-01,-5.208007210982745772e-01,4.902122339754011460e-01,1.982677836815974204e-01,-1.217796237085944783e-01,-1.303405187251633901e+00,8.273265122447038822e-01,8.115132413014274348e-01,-5.233938845055671196e-01,-7.311721458886089042e-01,-1.001540391278292974e+00
-1.505135191801006522e+00,-5.459595096030771533e-01,1.028249758853552603e-01,1.206670300007572250e+00,-8.519147001504497885e-01,-1.353523656070176662e+00,9.746794024806119117e-01,-1.627436812247596287e-01,6.412874006134358096e-01,2.820288110295157136e-01,7.422123917893808098e-01,1.897530201012883833e+00
-4.957707554728977284e-01,-9.493608711609226036e-01,9.499272803496431328e-01,1.859185639825942093e+00,-3.731047733589626381e-01,9.305690869935454579e-01,-1.014603069038306549e+00,-6.357868177982127778e-01,4.030585496695247016e-01,-1.408240653520539176e+00,1.133894559209009945e+00,-3.944890285007155994e-01
-4.268507758118073037e-01,1.286197988195147968e+00,-2.953364643611183116e+00,-6.768225276183543748e-01,9.962919362230951981e-01,8.248900595690455972e-01,-6.087666070932767903e-01,-1.096508668043467027e+00,5.164280241851550990e-01,7.056711636590063952e-01,8.802623249738894540e-01,-7.795741798839109782e-01
3.391845393766395600e-01,-5.582504256539494447e-02,1.880994199050850968e+00,3.626754526412994117e-01,1.211786671787271896e-01,-8.193445117343173267e-01,1.006582794624967470e+00,1.983689666886646330e-01,5.131960904246689603e-01,-7.073488273231529622e-01,-4.272485472054967648e-01,-1.777537220295750675e+00
3.869481385901290399e-02,-7.812430080464058402e-02,-1.255245064941536093e+00,-6.465338507933050538e-01,-1.866425004755194461e-01,-1.710432200720789497e+00,1.493852361153589769e-01,9.490299905075288978e-02,-7.419380007639439500e-02,-5.065587449396978803e-01,3.481116325213715057e-01,4.011885292668134761e-01
2.015243749043296451e-01,3.994649081226589460e-01,-2.105750956138266794e+00,-1.550703476213020071e-01,-3.833275706620092316e-01,8.850180694689561978e-02,3.173956155024150183e-01,1.291393400144091042e-01,-4.453130643473650618e-01,4.734907679400352509e-01,-1.072716883514190700e+00,-8.355497303181675939e-01
1.493534768897684328e+00,2.209991746715294358e-01,-1.029454865197957147e+00,-7.559948718253521882e-01,6.499617918110664819e-03,-9.959396497254175973e-01,7.073756721652689761e-01,-1.677050038262810627e+00,3.576469381579028967e-02,-1.340237873391841861e+00,4.078253609740757901e-01,7.852143387851926448e-01
1.174481199182242364e+00,-6.613533076840686364e-01,-1.934539917649445440e-01,-1.731222935882188674e+00,-1.043675601600997815e+00,-1.542725436627249425e-01,-1.547816630266641624e+00,3.173639446580450718e-01,-3.628510667436402604e-01,-2.114088174391536845e-01,8.876536477302827688e-01,-8.384475056890815514e-01
-4.205685835904382497e-01,-1.323275684046001599e+00,-1.507263858207146034e+00,-3.908438166962230342e-01,1.402097132366716403e+00,5.857563665184026824e-01,1.802988360954966840e+00,1.097794751642062749e-01,4.071677146988527674e-01,9.458197137372117425e-01,-3.930733365873291252e-01,1.804823603660230258e-01
-8.185956871028242654e-01,1.389808332227107535e+00,-3.971763922745990549e-01,2.941062467451780460e-01,6.611759824901725091e-01,-6.451125164561241077e-01,-8.247450912397739087e-01,-5.634349580722444184e-01,-6.570841865313105379e-02,-3.259628491574489972e-01,8.799727615355651400e-01,-3.211940080728784008e-01
9.683067379350086545e-01,1.153329164206910340e+00,-3.283514166914155985e-01,-1.384181585024921723e+00,-4.190735179767272056e-01,-4.201795465794928019e-01,-1.127310575632573419e+00,-1.702999573364983199e+00,-5.001183699887915557e-01,7.902503627510883144e-02,3.934398283293636944e-01,-1.548071465643308664e-01
-6.741644760282752280e-01,-5.954140454325062004e-01,7.811110693288111917e-02,-2.118188638807037005e-01,-5.313872689247636227e-01,-6.612711895840948095e-01,9.046025933500108085e-01,-1.356961473715997624e+00,-6.905296218005989584e-01,1.684372144062396270e-01,3.544762404164725211e-01,1.368142483310325730e+00
6.404442610887743914e-01,-1.162152929088672848e-01,-1.828433369868233349e+00,1.689865782548442441e+00,-1.103412548579624231e+00,-7.635022114696085049e-01,-8.245148034981824026e-01,1.792637204854678812e+00,-6.348669541245641201e-02,4.014564694292259706e-01,6.631060436656758261e-01,7.409948296248816124e-01
1.292695125947304291e+00,-5.576956195423139473e-01,1.128407847705145350e+00,-1.951211154201989151e-01,5.104870335305672358e-01,1.195275807460280948e+00,2.345136433820439736e-01,-1.233322889125338051e+00,-7.740518029981648118e-02,-8.960775322110656749e-01,1.793850407597453955e+00,-1.161584519400106430e+00
-4.335211063905673456e-01,1.488901276903684678e+00,5.270647985699600246e-01,8.940193820975690375e-01,3.049238408624274088e-01,2.059160373975417024e-03,-1.962363122473205435e+00,1.270427966990302693e+00,3.456444667763898249e-01,3.320092609985364485e-02,7.389291532930442052e-01,-1.722489717505339746e+00
5.929317149270815768e-02,-4.060674048377451162e-01,2.405254939938888115e-01,1.385735038686572107e+00,-9.884816512810891131e-01,-1.234855359311245682e+00,-1.493412416568211443e+00,3.124875217826845741e-01,2.045239266447964166e+00,4.327615976574538670e-01,3.486973678301758528e-01,-9.304187430069336129e-01
8.368579322484890337e-01,-4.405013766715824564e-01,1.292496420306230132e+00,1.081119908953089154e-01,-1.638180578270083787e+00,5.155002294394750439e-01,-2.750601847333065675e-01,3.673201702044860406e-01,1.647851667901581718e-01,6.362872097575570374e-01,1.446578985654239258e+00,-2.549727170100125617e-01
-3.796877204380256221e-01,5.692158653436265592e-01,7.916525852452975798e-01,1.250186025342592933e+00,-1.289980073922871950e+00,7.372847918521249211e-01,-1.325343363985639122e+00,-7.471890096273662296e-01,1.034354713942641890e+00,1.009903956728387842e+00,-1.739732155786202772e-02,-2.371361685715737133e-01
-4.781851854455489992e-01,4.847826700847756021e-01,-1.148376031965739896e+00,-3.000469805341910989e-01,-1.325351076262656358e+00,-8.094501606207519240e-01,5.438244809870235175e-01,-1.061693827761709841e+00,-1.778317379351808669e-01,9.007040618217314609e-01,3.456715352212949011e-01,-1.128625193507341445e-01
2.016873102454278255e-01,-1.340565529589106963e-01,2.098666947071755051e-01,-1.355232226396626549e-01,7.183162711798527500e-01,8.963519748733015380e-01,-2.270314397266071538e+00,-2.355255457970640287e-01,-4.922073891737940299e-01,-3.231694671918432515e-01,8.467573366945989610e-01,3.155541521250586623e-01
-5.636835175275776155e-01,-4.874392194535252104e-02,1.316117766080686868e+00,-1.002828123552431228e+00,-1.517494843299580287e+00,-1.307805759241314814e+00,-6.022650154511585141e-01,1.210870746480585680e+00,1.199314916736169412e+00,4.947098165029046452e-02,3.033825439966359450e-01,-1.131127563853961959e-01
-1.902111068483566814e-01,-8.651107692524004911e-01,5.152725538236976321e-01,1.744705677645100428e+00,-2.166807241706187437e+00,-8.715098813783037635e-01,-3.407312258307726993e-01,5.212921922707955402e-02,-2.266949043460997903e-01,-6.626712899507537502e-01,-9.806855682524637796e-01,-2.563863960136764319e+00
8.640563417899560505e-01,-9.258865680878114457e-01,3.656682957093370101e-01,3.117389323929684042e-01,-5.620224831912914443e-01,-9.069781656743562959e-01,-1.448966419933702232e+00,-5.577296560780047319e-01,9.401934544305907693e-01,2.987408743179597037e-01,-2.958699730753110990e-01,-9.260776201337824753e-01
2.290512014494083537e-01,4.463748579397232574e-01,1.590988866227912302e-01,-1.041659536066984609e-01,-9.867067372699424022e-01,-9.279067307660723296e-01,3.061173481815638864e-01,3.041942738414913361e-01,1.276232643633072428e+00,1.619900219274747755e-01,1.243565124020480805e+00,-1.084948340463633754e+00
1.183727003438654224e+00,-6.791592459968475159e-01,2.118630735557877967e-02,-1.658201280540344269e-01,1.510108819772631450e-01,2.791552589554590624e-01,4.608308051786911830e-01,-7.390579950864154535e-01,-7.941323286539423432e-01,1.207764746578326109e+00,1.723378758979016157e-01,1.367638135926493581e-01
2.968320803832172339e-01,1.514636604702800593e+00,-2.082624882076340167e-01,-1.014204622803408729e+00,1.644564823429209399e+00,6.428752285581145198e-01,1.099768181664027900e+00,-8.522732611975180061e-01,-1.250328885655270228e-01,-2.214282321877166781e-01,-3.063075761367015648e-01,6.933951665338492498e-01
-2.065485175138807254e-03,-8.427426364884589294e-01,-1.401266609725818180e+00,-7.885295782115315788e-01,-3.519357450565715473e-01,-1.761463920978213915e+00,-1.116633209262683391e+00,2.770055379455717282e-02,-6.426138229770730348e-01,6.363380208690201378e-01,-1.131336054369711963e+00,-9.109186786266594282e-01
6.392216783258146684e-01,-7.581935251059322978e-01,1.292127770942703036e+00,5.146138325080348297e-01,6.346219099329164504e-01,2.458877924170031204e-01,-1.246191899255874175e-01,3.568129787952057930e-01,5.119670782510227225e-02,1.182842134828539837e+00,-7.418706164971197170e-01,-4.348825701888826556e-01
-6.229721803943805147e-01,-3.797837485848277739e-01,-3.773989385945408226e-01,-7.708466651247395177e-04,-1.243513118730638078e+00,-1.098519716302410965e+00,7.575955235915068364e-01,5.168498362580882244e-01,7.855907415999424659e-01,2.042079971972680097e-01,6.092194081444959330e-01,-5.338469226722954986e-01
-7.388506889241629183e-02,-1.421232945194042530e-01,1.810404447264454486e+00,-2.472779514633822451e-01,1.140161035315330751e-01,-4.653303586547862247e-01,6.764487729893484680e-01,-1.109755578001724086e+00,3.000606815849536924e-01,1.447605814160376481e+00,-1.439806407574305114e+00,-3.959027679081043583e-01
6.831058993052756545e-01,3.872827305697510436e-01,-2.487297116742842040e-01,9.088229899525404609e-02,-3.328587105330246931e+00,5.979146319764151452e-01,7.244968659517171394e-01,-4.270001239484706723e-02,-5.924262819791559220e-01,4.626242124897014807e-01,1.107812815040398080e+00,-2.393668445157881020e-01
-6.928093247932544108e-01,-7.162288750569597573e-01,8.011475647471832939e-01,-5.017616355962968289e-01,-1.735840531999277569e-01,-7.482052205304897674e-01,-1.918681075191736030e+00,-1.013945262441784401e+00,-7.600430089149838864e-01,-3.483039597539263621e-01,-8.387502667699622827e-02,-6.728694711846755494e-03
-1.754372893970140845e-02,-8.008258006220548841e-01,-1.526478087222144842e+00,3.182514249080513336e-02,-2.727352757246551906e+00,-4.586687395781923193e-01,-1.516036081095096577e+00,-2.311598188975609869e+00,1.970332802417537721e+00,1.678770228609957893e-01,5.918829644234189225e-01,8.769284911071083544e-01
1.529693389403083525e+00,-2.858428341037036122e-02,-6.361648022134274161e-01,-1.262335031468779567e+00,-4.456296869029206520e-01,-1.804739478345041448e+00,7.917634251451660665e-01,-2.202429508790666901e+00,-7.936991342899770707e-01,-2.427278935840045948e-01,8.001479670130688948e-01,-3.106514684018185646e-01
2.470882840980684336e-01,5.647767909978098633e-01,1.144622983342928751e-01,2.909584595802294227e-01,-3.181217903943691083e-01,-7.245368075641988037e-01,-5.587767077017161688e-01,-9.131556829830748123e-01,8.656043227529256479e-01,-6.023060825264295870e-01,-8.538436135472651234e-01,-3.330603225000707684e-02
2.215072629589020237e-01,4.793158347293181021e-01,2.090662514978990083e-01,1.239234017428432866e+00,-1.265823964783085565e+00,-8.781287813369532680e-01,4.435227805956827307e-01,-1.131420013559651938e+00,-2.292549369636699974e-01,-3.211766940272923754e-01,-1.373332626893520647e+00,-8.170182727943049728e-02
-7.053229914466184747e-01,-4.258834041124656689e-02,-1.420963865188104913e+00,4.550826106950846550e-01,-3.534947310921909835e-01,-1.189898676137584044e+00,-1.083094956475245674e+00,1.022758098882845662e-02,-1.028594187033583740e+00,2.757781495336079636e-01,3.045755698158302271e-01,-8.336246105481891489e-01
-3.391651318147351213e-02,-1.400331948374760493e+00,-1.116303228135680170e+00,2.161420553821412405e+00,2.759388307568350074e-01,-1.234320893016659149e+00,1.869978101581271368e-01,8.747172753172681725e-01,-7.525201016719982317e-01,-1.016803697066619661e+00,7.239180603988181195e-01,-9.427476580815434548e-02
8.392687785311888637e-01,7.999966547808112782e-02,-4.135515274826558341e-01,-3.240328512358602864e-01,6.576270626941958797e-02,1.819405005505629447e+00,2.271392095361568150e-02,5.205441020982475298e-01,1.215312690251299843e+00,-1.855560967989420273e+00,1.415838454076844721e+00,4.656364910689007874e-02
2.693276763721820233e-01,1.168702212083184921e+00,6.841176979438709504e-02,5.402453468318847429e-01,-5.926310927579070409e-01,4.760418149560364243e-01,-6.807368036632764907e-01,-2.029445738624875428e-01,9.198529884043255000e-01,-2.059912944318531558e+00,5.730074263600543061e-01,-3.365352787756217268e-01
-6.184372439554756129e-01,1.023298436276370404e+00,5.028300282026643142e-01,-9.148358500104314395e-02,1.499373395008959942e-01,-3.839814087952941879e-01,-5.281212476328791539e-01,-6.058342624891768086e-02,-1.575258992416336268e-01,1.459664331528282455e+00,-1.342266139301438177e-01,1.335396494722834282e+00
7.430997023534517965e-01,4.198916154729440131e-02,6.909659317401738443e-01,-4.210627197015634482e-01,8.710056233192232933e-02,-5.029238226083884156e-01,-5.990008289109651773e-01,-8.970254398726049683e-01,3.769613440781022229e-01,-1.883435242376733376e-01,-5.835008978039473160e-01,-3.556115434044413992e-01
-7.740480741263181530e-01,-3.320582473395725653e-01,9.710682761627094095e-01,1.465380766787633737e+00,5.114444342923905040e-01,-5.253082790608747804e-02,5.525629006344745520e-01,-9.466785700364028777e-01,8.443361298056987208e-01,-8.681986967858258408e-01,1.741853639567103595e-02,-3.589071279513950663e-01
3.554350890375135852e-01,8.679235237430902306e-01,-1.592597980003131353e+00,4.270296599062594067e-01,1.612661531005731508e+00,5.893996881877446858e-01,1.770310542327031111e+00,-4.147784970093014167e-01,-1.523491373438473850e+00,1.101084921175689901e+00,8.345222096627959996e-01,6.247629006690944703e-02
2.216683449738213740e-01,-6.488114599669793092e-01,7.701167958472193709e-01,-4.737659327233295636e-01,-1.110344615541713820e+00,8.149690971756430313e-01,-1.602156035976344484e+00,6.889073963562787339e-01,-4.803401836368751954e-01,4.857792735450189858e-01,1.477482947046302675e+00,-7.587774213519871136e-01
1.106350236261888220e+00,-3.643006974105281182e-02,-2.287803463791811875e+00,-1.347331083188657574e+00,9.129601851388541300e-01,1.894681342850061290e+00,4.870425845707033741e-01,-5.264206385592397064e-01,-2.462271265249263430e-01,-4.920179256353984787e-01,-8.273714953574877740e-01,8.258764288693596356e-01
-2.211873959100085496e-01,1.510115825768144848e+00,7.260555789338213328e-01,2.109115807209403393e+00,-6.555839455932201965e-01,-3.351791926255800469e-01,3.659083585904954194e-01,1.755045501139494091e+00,-1.050726401799656706e+00,1.154186893649244094e+00,-5.622519421192865297e-01,1.800972669517091895e-01
-3.996523201046511264e-01,2.366119565727592411e-01,-1.024368675539285345e+00,6.178965167476635489e-01,5.185558702848258594e-01,1.311159676174473709e+00,-6.092645815282741184e-01,8.271912736816310063e-02,8.309698673888926690e-01,-2.345892454415765271e-01,-9.416541267541468363e-01,-5.266255305814795395e-01
-6.714362371616883207e-01,-9.809297939226929719e-01,-6.514861111514320680e-01,-3.353354808914157936e-01,-1.341289424358161009e+00,4.156702403217373519e-03,7.200868903085611006e-01,1.186140975625350924e+00,1.461605858679643433e+00,-7.304248779253945667e-01,-3.185954864144222021e-01,-1.750067707815109230e+00
3.291842895713907868e+00,-6.380827195530426321e-01,-1.052624818278559582e+00,-1.425526848787189493e+00,-4.263650528239565363e-01,1.296233668741198164e+00,-1.447956708503816303e+00,1.306985411539079323e+00,6.054278231336889249e-01,1.524861567515442440e+00,9.181871211146481748e-01,4.311104100070269340e-01
1.585889876248782082e+00,-8.620035002169408322e-01,9.576661741238980952e-01,4.954615577903158652e-01,2.264116192759148660e+00,5.919782942376684565e-01,1.242429714516855244e+00,-9.142537902719669596e-01,8.204071070649714414e-01,-4.282608736906893254e-01,1.006970413768491363e-01,-1.755356744081198184e-01
1.559960698155877346e+00,1.601132391467111171e+00,-1.168232068978069416e+00,1.007109987660500749e+00,-1.270642056824673904e+00,-7.659977356135559967e-01,1.865956545423057999e+00,5.842608805448523679e-01,-3.232125011803062553e-01,1.326636160549306276e-01,1.239138825827284185e+00,-2.339323207271642169e-01
-6.992795903921860123e-01,-5.413972133386540930e-01,1.386490799327034562e+00,-1.332486555207958556e+00,9.261787582596626711e-01,4.670844551802750821e-01,-8.561339454899413726e-01,-1.481099792310293983e+00,3.554762987357527604e-01,-2.010845215097219474e-01,-1.799048381732061552e-02,-2.757519542864635409e-01
-1.531718038752498234e+00,-6.310346498652742442e-01,2.547191331733524300e-01,-5.291969467407909855e-01,-5.001901061114362168e-01,3.625152875653298717e-02,-1.338894972096067171e-01,-2.753074753792889684e+00,-2.850244954676462231e-02,-5.923187902703333507e-02,7.255673187457399864e-01,3.169774305245146029e-01
8.434111689641476950e-01,-3.050774819818760086e-01,-9.552295355634138341e-01,-1.028982236591206023e+00,-3.134195594408133889e+00,6.461670166697328632e-01,4.853508428521750573e-01,-9.477285351376555367e-01,1.089448073054571225e-01,-5.071155293312900048e-01,1.398181115992640056e+00,-5.822897967451176604e-02
9.349396787967003686e-01,7.935423853042907760e-01,6.493840061987226076e-01,-9.614468347138873661e-01,-7.522328074483281002e-01,4.612047544613382954e-01,2.130570526714612445e+00,-2.131883347206229740e+00,-8.551931668183732071e-01,-9.721025993872790816e-02,6.456592541174256406e-01,-3.374462168052412281e-01
2.052578604107822002e+00,3.670829622233671707e-01,-4.316530683487084796e-01,1.581351293811421033e-01,-1.127184834029837379e+00,9.338771137475966322e-01,1.466460959108623507e+00,-2.671413691596778772e+00,3.665082869516840813e-01,-1.031211139693772455e-02,2.180218118094741087e+00,-5.561628660009829694e-01
1.565727469318745735e+00,-1.819382777797597939e-01,-1.104067874175477471e+00,-5.319546996439191711e-01,3.161622479697756560e-01,4.792026013860065659e-01,8.301500371326585581e-01,-7.250801984635806274e-01,4.222542912104278456e-01,-1.826352572912973704e+00,3.345191879262586210e-01,1.000176042113164326e-01
-1.170707321991298067e-01,4.399111396686983810e-01,4.117412243814838058e-01,9.829204970750168302e-01,1.113805403669624550e+00,1.057235223147007908e+00,7.392824324903916056e-01,-2.618645299925862258e+00,2.995071916847537596e-01,-1.031027250134303852e+00,-7.616540964016276227e-01,5.644429009012749132e-01
1.823687537910249068e+00,2.298734632068725858e+00,1.344125471898188318e+00,-9.781513068637640584e-01,3.610753352860764931e-01,-3.507890365147716683e-01,9.815309190970192277e-02,-1.518428158040760811e+00,-6.729512778740215362e-01,6.518627489608507242e-01,6.637484048718798046e-01,-1.178968707212970868e+00
8.524822269332578140e-01,3.409764703503559979e-01,-6.167334585573928107e-01,-1.454904370747968523e+00,4.055004505441546503e-02,6.429519724625646360e-01,3.094659398908374270e-01,-7.994396549527904572e-01,6.288742032609524468e-01,-1.032737527473697847e+00,1.032152568119110603e+00,-2.922550642731988613e-01
2.593959199697346008e-01,-7.520097573183384121e-01,1.418324025340002639e-02,1.445656216509860759e+00,-1.277481886891780105e+00,8.947443200630562643e-01,1.693760741403928849e+00,-1.668012478084831773e+00,4.352443456767429164e-01,3.353109860682142451e-01,-1.713444792061142308e-01,1.052117060714361063e+00
5.979207656679823568e-01,-3.683856645949281083e-01,4.334568786574260479e-01,1.033486259515338235e+00,-2.801958564088348133e-02,1.237653709899185550e+00,1.069263654539708952e+00,3.319537833881819888e-01,5.011503386701926521e-01,1.111434726483693902e+00,4.850763967809126331e-01,1.098523380496705532e-01
1.101238764643192480e+00,1.087199664732338839e-01,-6.959316028290013501e-01,-9.394564623412716975e-02,-1.880450639892909503e+00,-5.094408274155510785e-01,-1.593274968784541779e+00,-2.112610183274613807e+00,1.523650763495594918e+00,3.762565963173546413e-01,8.762232371412446152e-01,-5.712010695481815059e-01
1.012521833227717272e+00,1.357328722862179315e+00,-2.826096634251231143e-01,8.517493865307287360e-01,-1.115499041542722836e+00,1.621544750824668868e-01,4.456220527335011394e-02,4.917096437172351342e-01,-1.057816457247907488e-01,3.681035435920762544e-01,2.278264930446836922e-01,3.381650601568155223e-01
1.507448168952627343e+00,-1.350720644431868234e+00,1.039540284649570046e+00,5.843952449674629790e-01,-1.313568606059081656e+00,2.002263587085450602e+00,5.760635097070905264e-01,-1.111201034098499685e+00,5.237639099584089353e-01,1.149838171361653671e+00,1.207477324288201981e+00,-3.359237323726417812e-01
1.293163624958214353e+00,-3.286317307115712016e-01,6.263248918233055296e-01,7.187160367877957201e-01,3.480353780455547885e-01,3.176021137945728712e-01,-2.167742252409000370e-01,-3.636091924637370743e-01,-6.439161177990436746e-01,-4.399293342317648348e-01,8.822831202698596664e-01,2.808139581589291223e-01
-1.936498630524882802e+00,4.435649543465482181e-02,-4.063114471528043725e-01,-3.368512625852324582e-01,-5.186118235883038219e-01,7.376463429564946717e-01,1.615222785875228162e+00,2.444132915495996539e+00,1.014155285103166104e+00,-8.209887049212932775e-01,-2.432970659821104054e+00,-7.264335952590212919e-01
6.745644469794884746e-01,-2.576126614431795137e-01,9.046611256180280003e-02,-9.425284954181287755e-01,-8.204692320784652271e-01,-3.918283488651404523e-01,3.317552823679577600e-01,-2.663415236058970237e-01,-1.156932771203690313e+00,-4.411274260118194790e-01,-5.370229649169793174e-01,-2.142867936327184641e-01
8.159343916344065084e-01,-1.775501966789342578e+00,9.629875075144039842e-01,7.199688169276183825e-01,1.431200558058439931e+00,-4.978002565687439929e-01,-8.088332190945725086e-01,9.524856135144385005e-01,-1.084578728742612297e-01,-1.863050245467606336e+00,-1.529710359446331269e+00,-9.930177370528632252e-01
3.239044518849031884e-01,-1.043898702038307702e+00,3.446879942741784553e-01,5.144937194485378618e-02,2.421090965181810495e-01,-7.806809849909288612e-01,1.097208286310083380e+00,1.252603590889260543e+00,3.328985691480353948e-01,6.923819891050639885e-01,5.727939488050375338e-01,-3.850828321192101833e-01
1.156814549746855159e-01,1.858712651348148892e+00,-6.054227448478064488e-01,-7.721301401838086553e-01,-1.436081954739592881e+00,9.191211170907546135e-01,3.639586830924847471e-01,1.634234934884701285e-01,-9.236913412404677004e-01,-2.545216072416774722e+00,-1.366233414784594258e+00,-9.107170492628791081e-01
-2.815543354624593791e-02,2.420059917405443350e+00,2.340388027213291811e-01,-1.225355743186798074e+00,1.157807899459293299e+00,-6.267391726555258114e-01,-3.783838314346069653e-01,-9.916669042050687555e-01,7.827449278029452451e-01,4.758871990324322621e-01,-1.021360495306750549e+00,-2.175043883035107761e+00
7.314631977578373023e-01,-1.738009389730646559e+00,1.567767442600939143e+00,1.118405312965211618e+00,2.851212818699360718e-01,9.916672059732054567e-01,1.014022801837024569e-03,-4.722454124344335757e-01,-2.248446906214052465e-01,-1.676784071722012603e+00,1.383892070735170954e+00,5.559882650414005312e-01
3.443995455472882439e-01,-1.734098792572573711e+00,-3.409287705909991861e-01,2.481855338839646041e+00,-2.779269052632136194e-01,-8.062743407880244018e-01,9.007180495222331107e-01,-8.969280117658400275e-01,-1.293552849865409748e-01,-2.449409629827506429e-01,4.333342070300468252e-01,-1.065274851738445827e+00
-9.915460591074082286e-01,4.566179544056475081e-01,7.302600763299876840e-01,-7.169717713536620796e-01,5.289990526656671577e-01,-1.222367069595742928e+00,-2.264018871913269670e+00,-1.998697843190789802e+00,1.414897152231469946e+00,-1.015152045602695507e-01,4.952839297980585753e-01,-4.647547278104920132e-02
6.925409682986104487e-01,1.213343605254572771e-01,-2.372254645614118473e+00,1.350271801947268369e+00,1.340450463025644856e+00,7.880785094625052389e-01,-3.187639704958266651e-01,-8.233269927853280601e-01,1.817944566448527199e+00,-2.808528908418667647e-01,-6.872326310038270325e-01,1.697588532912394532e+00
-4.655133187717519494e-01,7.588771414038023577e-01,9.258961308746632701e-02,7.475285180179347400e-02,-1.112926888532611569e+00,-1.311768434376836545e+00,7.965255438065935722e-01,1.710991477140100026e+00,1.633288637013005085e+00,9.690572660547012163e-01,4.217506261901114439e-01,-1.188978570917357924e+00
-7.321694602985193701e-01,-2.772357973346322169e-01,-4.300917355382098961e-01,1.365081927875837486e-01,-1.368344277080586757e-01,-8.538229568815876025e-01,-4.948578039243289872e-02,-1.366650342450708822e+00,-2.462496555864848613e+00,-1.119213890360416963e+00,-6.723462103808870438e-01,5.634116011887211339e-01
-1.377336925156772862e+00,1.769701323549471628e+00,-8.284682765275979133e-01,3.422553403770644542e-01,-4.677297276663205938e-01,1.329064144197269759e-01,2.706418488132721567e+00,-1.130450311565318833e+00,-7.108783923977894936e-01,9.827750717091343624e-02,4.952748177187669132e-01,2.784576858754704842e-01
1.048591698688547291e+00,2.895458182307633077e-01,-1.085336821165786975e-01,-1.134438201679010216e+00,-3.763584808266413062e-01,4.327726904892946758e-01,8.938812647114569021e-01,1.853089488872881496e+00,-1.195067046775351305e-01,-4.389163541847256877e-01,6.490964146422202319e-01,6.114771321320815467e-01
5.401811396438320756e-01,3.339306838198956573e-01,-8.843022773935030889e-01,-2.909812096908645507e-01,1.688586304287023276e+00,-4.445675083562906638e-01,4.319715415576595441e-01,-1.384943249720873348e+00,-1.223272144884011842e-01,6.530118681202292663e-01,3.825432376103767296e-01,-1.057889140850427484e-01
-7.548550838197038981e-01,-8.448640955128025043e-01,-8.497961027436279347e-01,-7.729386468810997002e-01,2.095629456500975873e+00,1.947871922940943024e-01,2.522386676425184548e-01,-2.123768090624627458e+00,-1.579135445824844941e-01,-9.791156303364885183e-01,1.572970800107011735e+00,-2.058877536747501402e+00
1.811861992368282825e+00,-5.001918704917396319e-02,-1.607868684430101974e-02,-3.480414148018415865e-01,1.334232323961162869e+00,-1.368526133811256429e-01,4.022629574148697262e-01,-1.255120952263749201e+00,-1.306700668775155894e+00,3.889794569080391451e-01,-1.515512347422185435e+00,-8.383238453698993453e-01
7.221532668239204478e-01,-4.827299992968157594e-01,3.284813102168146481e-01,-2.104500094567149926e-01,8.907738052026217268e-01,-3.188010689561779909e-01,-9.035006909632097016e-02,-8.886534759647919390e-01,2.731343054224576461e-01,1.393372715698566910e+00,4.831031940250925250e-02,-4.825268092912205486e-01
1.544709778723761251e-01,3.975829900327798039e-01,7.369937956576019245e-01,-9.509438851379395929e-01,2.689303633413004935e-01,7.755662113136954083e-01,1.861485078421837525e+00,-1.658618440569593178e+00,-8.685175267050264658e-01,-1.436539364839703126e+00,4.611465810815125466e-02,7.747176703602721703e-01
-2.651986972378238550e-01,-8.314254926509218047e-01,-5.592009657446812554e-01,-3.814446104972093327e-02,-5.591335827247536638e-01,5.154320158320206957e-01,1.252684000131454756e+00,-9.016840541071479143e-01,-8.337573924755576904e-01,-7.486448432466500380e-01,8.044479212013434521e-01,-8.952580185089598075e-01
-9.362855398956763109e-01,-3.022214805347082089e-01,8.991652214943343102e-01,1.469866140240841279e+00,1.023901817025392846e+00,-8.133400526072264575e-03,3.864990689417986958e-01,-4.666254003774269465e-01,-1.165912605778848476e+00,-1.231156395203827136e+00,-1.363796072615751420e+00,8.407540324446381996e-01
1.557033971806851547e+00,7.612613867751153451e-01,-4.575482421644143649e-01,-1.123961327433862900e+00,1.005188852252257153e-01,-1.104584054635517343e-01,-1.387548916396650123e+00,-3.069914826901970706e+00,1.998180429971037064e-01,7.667630417792986597e-01,9.295768169264138070e-01,-1.401836042941433623e-02
5.432933525978026479e-01,-1.574803759214494114e+00,-3.134349878732429207e-01,-7.066817917207136590e-01,-5.148077548621992072e-01,6.537246553960666118e-01,-1.175771995456883046e+00,-4.144384907313593963e-02,-3.058977904771680301e-01,6.310207587145411079e-01,-6.736547771565113418e-01,4.252844993972579313e-01
2.520924311486912317e-01,-1.789715089518023050e-01,-4.674905708711013519e-01,4.430653942765201414e-01,-9.396084935587060150e-01,-3.850811108765968965e-02,4.620978298446517529e-01,-1.509237194462748732e+00,-1.131162824520857590e+00,-9.552638289299919538e-01,3.987210745107096499e-01,-1.145807619786650133e-01
3.632133791667602196e-01,9.324719358140051151e-01,5.503989655133619818e-01,7.371624834532293224e-01,-2.988772289416881112e-01,-1.031926903967715026e+00,1.688162745509297347e-02,-1.380133141163236710e+00,-7.327271393246767017e-01,-5.045142046178600070e-01,9.020315365083005910e-01,1.236128586573812971e+00
-1.235251475933647702e+00,-6.632381349764693290e-01,-2.253346488709430662e-01,4.977395588681352567e-01,-2.577351140860149048e-01,3.115648334908251438e-01,-2.503958781461836369e-01,9.995971986826990285e-01,-6.361264586943785604e-01,1.197394242089883765e+00,-3.244194885904102543e-01,-6.838974573352732955e-01
1.111648550721839213e+00,-1.924409726487679384e+00,8.692611764052555756e-01,8.419844068233808265e-01,-1.085422595486946529e+00,-1.279076196993021108e+00,-1.019883778919320916e+00,-1.614972360909328608e-01,-5.528250849648398413e-01,-6.343719531474089068e-01,-3.440911078363295683e-01,-1.107128867385688831e-01
5.254015746494976324e-02,1.289300131900257940e+00,6.680204575260400013e-01,1.245066027195962377e+00,-1.157580840822771018e+00,-5.497484263806172722e-01,1.044167307519977828e-01,9.421037721006131349e-01,1.495377312428824434e-01,1.520906629959632550e+00,1.658055963532474752e+00,8.884891024693500894e-01
-5.256893537575583197e-01,-5.602420209519930472e-01,-4.251332753839466294e-01,-9.230784255162034421e-03,-1.011789564184261581e+00,-6.901789573626263552e-01,-1.075790120026473007e+00,-3.250647711291715924e-01,-1.014225695118787379e-01,-8.843916281097519150e-01,7.496664317533610067e-01,-1.180214630000665066e+00
1.278641917373196435e+00,1.050464487647416068e+00,2.239993587229865302e+00,2.422148271219041415e+00,-3.289732488266333688e-01,-8.270457882793946780e-01,-4.529843194060145795e-01,9.614428656847353594e-01,-2.664214176067760231e+00,5.340636197659884843e-01,-5.855554175978703313e-01,1.043680520280910462e-01
-2.927358078746234993e-01,-6.340075252916728132e-01,1.211384371207799626e+00,-9.419374290130361205e-01,1.502989714459215476e+00,-7.839047405388512857e-01,1.589592174982774164e+00,1.038643279225334393e+00,2.061980447791857129e-01,4.246051964792468131e-02,-4.100993821000212813e-01,-9.940800115563643846e-01
2.914847015608512115e-01,-9.827326344204880826e-01,3.164618518689888416e-01,-1.125671664714244402e+00,3.016924267317330419e-02,-3.713681611541089916e-02,-1.279557497081107886e+00,1.291773164166337140e-01,-3.080228553558850974e-02,-2.412215334248307474e+00,-4.007750410189023782e-01,-9.066387144654894370e-02
-2.824986642042723317e-01,4.364805762617985918e-01,-1.191609681333422710e+00,4.418950083741889079e-02,-1.769244827156327249e+00,1.761291725045882051e-01,-6.175715459330244350e-01,-8.601956309239919829e-01,-1.258396558015069666e-01,8.553608541254148490e-01,-1.934827555325883353e+00,1.782577167566181398e-01
6.955526993216643028e-01,4.731942252269514260e-01,-9.229612894863884476e-01,2.104573091947108468e-02,1.299229760105299336e+00,-1.229560493180533509e+00,1.262171824795980113e+00,3.591308710548217209e-01,4.007858825933845459e-01,1.037503951039601358e+00,1.095389279517456682e+00,-2.151648848432788363e-01
-1.022849786732871857e+00,4.538996452846958407e-01,-9.272167040287997430e-01,2.430168607257484403e+00,-1.050879194736528549e-01,2.369802394858369354e-01,5.803015295279254637e-01,2.435078433645354312e-01,6.917713453368458110e-01,1.027040172861966694e+00,2.580150124004547130e-01,-2.692485820277511488e-01
7.097502577941237900e-02,-1.149646382680360041e-01,-1.817955403100833589e+00,-1.047783565016390493e-02,1.670186414349706050e+00,-1.607578822419231557e+00,3.279063878552851419e-01,1.733384293817867405e+00,-1.544096806071593442e-01,3.786329466661063070e-01,2.138072590083262836e-01,5.538196914907604906e-01
5.375106331940077142e-01,-1.874550164172293920e-01,7.479115025137380579e-01,-6.339385573743257229e-02,6.854444512395753142e-01,-1.141441483351320896e+00,-2.215496342041193556e-01,-7.910187386641405194e-01,2.211369219062084834e-01,-8.190028921538450302e-02,-1.139800838293487439e+00,-6.204355990985678249e-01
-3.822941832521830618e-01,5.947939834844253593e-01,1.361244969142233918e+00,-1.185685595398575876e+00,2.896296326707097357e-01,-1.660064311503797851e+00,-4.403367448193908351e-01,2.703540569480160638e+00,-1.638864985896021365e-01,-5.638399804271991833e-01,-9.312931228117253823e-01,5.057555776429304428e-01
7.781288870839667693e-01,1.656112632213682323e+00,1.745484555483877154e+00,1.045691433672592680e-01,4.016862046396445923e-02,2.428033116133199609e+00,-9.052471486440450965e-01,-9.276833760524950678e-01,5.841233508149542564e-01,3.477491277274693537e-01,-1.687861589584731536e+00,-1.658286545257402045e+00
8.241484267801036934e-01,9.415813359319833431e-01,1.932627943594649456e-01,6.500269850104299918e-01,9.421219280532651119e-01,8.318757334736611234e-03,-6.582404250688094205e-01,2.191071401038543254e+00,-3.081009822104723850e-01,-2.988781580355131529e-01,1.521110700142238370e+00,-2.014339245264147760e+00
2.890318994420842391e-01,4.916581932353119785e-03,-4.022771193468477890e-01,1.371057233927817975e+00,1.325606591494058017e+00,1.725030403075312746e+00,-4.500897655986991763e-01,-1.008343054346266365e+00,-6.011739293091585834e-01,-6.546249376724018465e-02,7.724747332437843506e-01,-4.706627456335891191e-01
6.471827417815725347e-01,2.032482581713314307e+00,1.830674426639710362e+00,-6.994452710366020343e-01,9.753239886531925862e-01,-1.096050018397362491e+00,-2.233134223922820238e-01,-3.832210736197857320e-02,1.925891735349666845e-01,-9.635497666968958486e-01,-1.488748385145373554e+00,6.225865952530481445e-02
-1.235792895766228749e+00,-6.759384982212982562e-01,-9.994782015625666705e-02,2.709665559766342713e-01,1.935632859112538795e-01,2.345667848894486818e-01,-6.855583537493519231e-01,1.136645377119986922e+00,-3.635775218201988124e-01,-3.290951792010773924e-01,-1.486669606608695737e+00,-2.181629938628038556e-01
1.044003339787964002e+00,1.627218411142003607e+00,-1.395104112247150807e+00,-6.918749609715770799e-01,8.030779089224094891e-01,2.677520436770898904e+00,1.401728233834101056e+00,1.109450600879003712e+00,-6.943193052299779788e-01,-1.284921655169922516e+00,1.295415078188052238e+00,1.237685332990216214e+00
7.457840220228225681e-01,2.864383792571386644e-01,1.158154435231621759e+00,-2.302255895128831664e+00,1.504016574081038504e+00,5.708284259008949979e-01,-8.992503040605063225e-01,-2.363909488749611487e+00,1.338724728563188471e+00,-7.681000722734010466e-02,6.908419164682496616e-01,-3.759294545507179119e-01
1.162886348138774562e+00,1.791731355113034496e+00,-1.894708558980536528e-01,-8.433102263751088845e-01,5.576828567771950906e-01,1.356943718245016584e+00,-9.061500730114070701e-02,6.964196205899896297e-01,-6.176910230962204089e-03,-1.970668425072249486e+00,2.395408634876012299e-01,-5.262045003200979676e-02
1.974689100744728254e+00,2.923108606207429072e-01,6.247919057370120849e-02,-2.272013167316523918e-01,2.801402674391168524e-01,5.833117650531145504e-01,2.456244590436658659e-01,-1.641676503342997862e+00,1.579570634269212182e+00,2.337584893559007670e-01,-3.034784380465997411e-01,7.386685599945361780e-01
8.016870873266455089e-01,1.067726311468927491e+00,-6.049992858079181884e-02,-2.537561244871928245e+00,1.998843868681989155e+00,2.066087969632032006e+00,6.020615997271949738e-01,-1.521126368047227562e-01,9.666593339785080341e-02,-1.449169789882697845e+00,-9.591188444673422187e-02,1.738852838064566475e+00
-9.572890184682226744e-01,7.793329553260021081e-01,-4.553216602140040120e-02,-1.512716275007549571e+00,-4.157711946802922776e-01,1.617334342282262583e+00,1.113698627636799277e+00,-7.271966967439410512e-01,1.003850038400355027e+00,5.624241108169443226e-01,2.333614884831987923e-01,-4.815302864612328038e-01
3.706883790251926936e-01,-2.825111601104238757e-01,7.945582498650816117e-01,-1.089739814271856844e+00,5.307875526303145186e-01,1.127120718254153608e+00,8.577570560446113879e-01,1.900939818239195944e-02,7.439830002900719164e-01,1.276052404841770127e-01,-1.623959122660874055e+00,-1.663143783696524602e-01
-4.900020550212205173e-01,-1.579180995065324888e-01,6.897308189605723394e-02,-1.017944712553697784e+00,8.131205976176731909e-01,3.699561250693708669e-01,-2.049476154641916570e-01,6.461312243066733574e-01,1.494532729885184263e+00,-6.611464641125368580e-01,1.139953182979597690e+00,-3.310662939921518721e-01
5.546241345259853572e-01,-8.791542729122400757e-02,-7.256299362057658069e-03,3.241325210242435029e-01,-6.277352540632118449e-01,2.709102180580115760e-01,2.567600149763080153e-01,-1.902983770875720904e+00,6.569972925488163362e-01,-1.466436161229258683e+00,-1.243465185990036276e-01,-4.837155059543428171e-01
4.682949721609201976e-01,-8.108965937509831079e-01,1.142060758400562787e-01,-6.326878454221902537e-01,8.688357899641374615e-01,1.579071355889434258e+00,-1.176034266094371672e+00,-1.587562109400228794e+00,9.794206985486600958e-01,8.530042333266351084e-01,5.010002524510392963e-01,-2.930365441841756846e-01
-9.669299191308707853e-01,-1.800585221220597942e+00,5.333896280161323222e-01,1.240241225014819398e-01,-8.005977116686320560e-02,3.732957261045247721e-01,-1.089314743566866195e+00,5.677159601611375672e-01,1.593897418900231067e+00,-1.180020248372193103e+00,1.360795965696959264e-01,5.194675972731014335e-01
1.714562840379961317e+00,2.039060842892430170e+00,-1.366057969926769644e+00,3.565767482294387447e-01,-4.270151400845416390e-02,1.819341861781431202e+00,3.604233786556226837e-01,-2.200464090206503964e-01,3.032640271869800341e-01,1.295666943995454234e+00,1.304533871970960934e+00,-8.712258974555086022e-01
6.883539390266300018e-01,-5.066874995695656025e-01,1.930142176911430751e-01,1.450556151933188653e+00,-1.285772662079533335e+00,4.419410365783652539e-01,-1.954676048260612253e+00,5.866205799569680635e-02,6.866391613927899096e-01,3.122084292519733406e-01,-6.687339722199616698e-01,-2.203836371780335812e-01
1.252573438842710329e+00,-1.586146037675740139e+00,1.427377274148009301e+00,2.306800600145925972e-01,-7.763734656950310731e-01,7.476259894354649882e-01,-1.798177560887205706e+00,1.532216713111253403e+00,1.219930496584844093e+00,2.704136423203476358e+00,1.157662556297654355e+00,1.937590994908300335e+00
7.606359889908104188e-02,-7.078283956743744443e-02,-2.116044752328201661e-01,1.976956585399045396e+00,-2.506916927427865982e+00,7.990575694362412884e-01,1.445486873065203737e+00,1.073209048224795570e+00,8.344569704050179837e-01,1.812646304004690956e+00,6.555499045538083491e-01,-1.495507583196271917e-01
3.252354225634366824e-01,-8.195370487435506002e-01,4.688843490895354682e-01,-1.610636651801090391e+00,-1.568670432037436946e+00,8.415738254490890968e-01,-1.265102691680905389e+00,7.122699958295063416e-01,8.113530233187228324e-01,1.324001459533095948e-01,6.646236516058670052e-01,8.214476803036399044e-01
1.409254412704618487e+00,-6.007889127039628407e-02,-5.777412787729839794e-01,3.841527009518638236e-01,-8.329354869349409052e-01,-4.727929231398842608e-02,6.913854738093245800e-01,-9.537789316503553216e-01,-1.055923755009223475e-01,1.114687477202970234e+00,-1.543109567823308881e+00,-7.293585187011415449e-01
-5.544807705869542191e-01,4.390305255870118328e-01,1.301057507051136541e-01,1.449533599838642162e-01,-1.700722497919098519e-01,-1.401966224556701057e+00,-1.383285803188328611e+00,9.424719261703321527e-01,-7.166947745842392470e-01,2.076370140596691893e+00,-1.370931866399194732e+00,4.907054116556770068e-02
4.260983744506968152e-01,-1.209758351909499208e+00,-1.337316987546037561e+00,-1.252650475241981753e-01,2.746776854060790085e-01,3.387917809247292800e-01,8.429505021293045575e-01,-1.982256826439777672e-02,9.549485148019735137e-01,1.089965602035001258e+00,6.344862743760909529e-02,-4.236301703120186057e-01
1.267760144552217971e+00,-8.637267537284103458e-01,1.592769378016197335e+00,-5.329580853812176944e-01,1.569727209340525953e-01,1.140503096106248115e+00,8.418195533743244585e-01,1.595704353235624762e+00,-1.978962226722385420e+00,-7.331351456083652629e-02,-2.499457920993281013e-01,-4.390530447757176047e-01
-4.269399723986164880e-02,6.198234903841328691e-01,-1.110067730614453296e+00,6.536168252733793871e-01,-9.310846247226576278e-01,-6.604039439231298436e-01,-1.674740863872116847e+00,-4.058189198842659939e-02,-1.619703769290454121e+00,1.056502345262611442e+00,-2.786247685832414778e-01,7.284117966365448726e-01
-3.420738938445094801e-01,-1.248954418510290262e-03,-2.579282814734633611e-01,-1.253278474086258809e+00,2.683413683918037806e-01,-8.477878937341055965e-02,8.097499126863385577e-01,-2.830193188981579566e-01,-4.424131488783831778e-01,-9.163823801784132250e-01,3.800745493313754664e-01,1.211129220786568983e-01
8.403272636048880750e-01,-1.210060552094124331e+00,-2.200570605516100064e-01,1.341116979653200758e+00,1.073553056016434137e+00,1.112088776553175756e-01,4.005980543768983826e-01,4.147895740643128826e-01,9.204792537830795984e-01,8.863137263740761274e-01,2.322986875924564654e+00,9.014315550283259482e-01
-2.692980313303980910e-01,5.528844590190611780e-02,2.038388818361588084e-01,-3.731186585429268621e-01,3.735786286038915160e-01,-4.647402465971178231e-01,9.746896763612733494e-01,9.948302434152381801e-01,3.684839502772861430e-01,1.725959666185209185e-01,-1.208595254151536291e-01,1.237249091605887807e+00
-1.220364738157241558e+00,-8.056665462302645686e-01,3.143244942175535406e-01,-6.352592653906451170e-02,-4.437771711991324586e-01,-1.120657404358305076e+00,-7.133351279816166901e-01,-1.603939992286843808e+00,-1.429339988302621434e+00,-2.116509938862936924e+00,6.643263326165510518e-02,2.327553441569249593e+00
1.772725744902178824e-01,-2.264075865683592870e+00,1.957873116554930196e-02,-3.025635488015060215e+00,2.286145405220589844e+00,6.049753540404364527e-01,-1.860353709039769043e+00,7.001436843023348677e-01,-4.141785457417616195e-03,5.335943006921622933e-01,2.870825646344756343e+00,-1.466908119139838984e+00
-1.074218010798355938e-01,1.101291621843251800e+00,-5.330660593358597099e-01,-3.167032649989820037e+00,7.403527826710025739e-01,-5.114294544056323666e-01,-8.894552330680984831e-01,-2.681029671085249366e-01,-1.532136614816099085e+00,-4.901438826962013495e-01,2.554152924539386804e-01,3.434109499833821189e-01
1.245806175262863302e+00,-6.385660596182732851e-01,7.634450538848331913e-01,-7.069766137464962297e-01,2.230286606859002152e+00,8.174498047269283807e-02,-3.215719775298845340e-01,5.130616899369914996e-02,-5.407093390178639020e-02,-9.808262193176227051e-01,1.816695345008813689e+00,-6.688454257566822658e-01
3.209810138778367294e-01,1.424705091788354361e+00,1.514926208073012759e-02,8.242737075767082866e-02,9.030862679011628646e-01,4.048243610824754368e-01,-4.953045706854701247e-01,1.675004057570798621e-01,5.918231148943731146e-01,-5.920691220375530195e-01,1.743247626827736929e-01,-6.300341273133592823e-01
-1.135771626683220077e-02,-2.540903014550806582e-01,5.306673342034787799e-01,-6.790257306293923101e-01,5.758568437221232017e-01,-6.597432054141019186e-01,6.901877845737013351e-01,-2.025265532407771185e-01,-6.336999761626611605e-01,-1.222906698159511585e+00,1.068505820890526953e-01,2.909297684015784147e-01
1.900120820043725289e-01,-1.316825045631606406e+00,9.672165847029898234e-02,-1.057252901065492523e+00,6.452610897039604554e-01,-9.265349690792834547e-01,1.326465213733134751e+00,2.171423646807259678e-03,3.599093189740170118e-01,-1.752164918694518070e+00,2.026318693518610325e-01,-2.783565394060033560e-01
-6.964037255491829503e-01,-7.109430685326872945e-01,-3.653620818205480236e-01,-1.083194854333393797e+00,5.169445637507826818e-01,1.232557320856127125e+00,1.177947978827851072e+00,1.196035725767467944e-01,8.500509105275066979e-01,-9.233276004291146588e-01,-1.655367036500257627e-01,9.845475236313622203e-01
1.264579380585269641e+00,1.851745620132872583e+00,1.506871945656282241e+00,8.457657601365355937e-01,3.112622869465332398e-01,1.408832859220609905e-02,1.115020476584593689e+00,-1.997555229986817671e-01,-2.563441560764256888e-01,-1.267844384674663150e-01,1.244649829718300849e+00,4.734174348929305332e-01
-1.052247941086740690e+00,-4.490153177564764064e-01,-8.313961627547336031e-01,-4.536230629963359795e-01,1.931557770276393526e+00,-1.924959345903909658e-01,1.033478427431469449e+00,2.013596746604164878e-01,6.381025996184012117e-01,-8.545088976494780164e-01,-1.931085020971201327e-01,6.081845347670409296e-01
-4.204996387172169059e-01,9.573637866152813203e-01,-2.932701108403788504e-01,6.012638192724489850e-01,3.966658534762469018e-02,8.325523571861036531e-01,1.037854293675491535e+00,6.870188068765925582e-01,3.528722302555435952e-01,-1.512789537499590775e+00,2.127220202543020022e+00,1.036243169458115565e+00
-7.324910990155439894e-01,8.920141717509106893e-01,-1.786687398533339244e-01,-1.369743936333400969e+00,7.341215832424378140e-01,1.052396221205017079e+00,9.782322323806840192e-01,-1.909290846327242219e+00,-9.906895957663056640e-01,5.982426122672048763e-01,3.582106040600777419e+00,2.831282111220040365e-01
4.207903238922079681e-02,-1.021371570695956743e+00,3.770957433378982482e-01,-3.544172204710718810e-01,6.967594277068256403e-01,-2.868011671440221996e-02,5.926928405865552474e-01,1.160435429731140777e+00,2.483667299686347363e-01,-1.055316519825667321e+00,9.705141523518412416e-01,8.837235077796120608e-01
-1.466998430377402629e+00,1.238154723052278250e+00,-4.444603406826428404e-01,6.227954016438580487e-01,-6.243856154593559887e-02,4.536300366294463982e-01,6.592540390063196254e-01,4.091184208356748453e-01,1.075696093653315311e+00,-3.678454301259639903e-01,-1.028170338665071570e+00,1.019109052907977375e+00
-2.346229371682753140e+00,-1.157944770832937537e-01,7.076088614003170907e-01,8.018365219492304408e-02,2.912501398081505100e-01,1.475806820853797330e+00,1.341857240362293036e+00,-6.298898471280791611e-01,-5.107711935246037616e-01,-4.252433422927995865e-01,-7.402410238306085244e-01,9.410950339908050744e-01
-8.815602124633549197e-01,1.074757914875512865e+00,3.154281273151715026e-01,-1.617463063993926475e+00,8.742606810466029277e-01,5.356295587872773600e-01,2.010134127171230370e-02,-3.664919087757072952e-02,-7.961662681234169536e-01,9.296659461317239304e-01,7.209685123956649511e-01,1.047537230933087982e-01
-1.139600689944138656e+00,-5.116568050880655472e-01,2.001919356569814845e-01,3.075808312463376160e-01,-9.814035640727183582e-03,1.082409171881526078e+00,7.478400676402047198e-01,7.364623033411277220e-02,5.748337257731740424e-01,3.994513473862865705e-01,-9.993918125293047572e-01,4.488289573303129720e-01
-8.084668550233078399e-01,9.887852403801948853e-01,1.038096434652232558e+00,1.347571235659613675e+00,-1.003230595039202422e+00,-4.246006349308383832e-01,-1.564599259224862093e+00,-1.301517333080992322e-01,2.084896265794924375e+00,-6.840876727666925783e-01,5.907946355917809145e-01,-1.379404907607937603e-01
-2.147926991136005492e-01,-8.618582998412713803e-01,1.022866175649181697e+00,1.282066274569140241e+00,-2.565090732182764288e+00,-2.031614342949460195e+00,-1.089225459090531478e+00,1.860209948789173229e-01,1.035706645105497259e+00,-5.886500379872332267e-02,-3.563341931033717908e-02,-3.255597940191173323e-01
1.394529232405216090e+00,2.003974833927421262e+00,3.793562731065192040e-01,6.666801982893075795e-01,7.903321764321274978e-01,-1.513939336959471693e-01,1.918937900959454546e-01,-2.620284963765082131e-01,-3.027237612709431924e-01,-2.080864767360149248e+00,4.269820433104202367e-02,7.242255204080190190e-01
-1.062250146786336114e+00,-4.842135678259000195e-03,4.522819355884653003e-01,-8.590464009282071656e-01,-1.195697421240366598e+00,1.111863689499065888e+00,-6.768450770198461974e-01,-9.407056575830206047e-01,4.764065269275872261e-01,-8.505463694113023498e-01,1.313165412848721791e+00,1.999775600890361105e+00
2.424870643546609209e-02,-5.091677996581505106e-01,-5.904718283665172374e-01,-5.183694054033046728e-01,-1.451810900361628853e+00,3.035042688232225672e-01,1.748554851431462831e+00,-2.700486434724072571e-01,3.649189288473478343e-01,1.431083256748640897e-01,-9.360013786800066571e-01,9.607205926839403887e-01
-6.769843304469645717e-02,4.799615859154270914e-01,-2.887255210977898168e-01,9.823921331630202092e-01,3.821388531856636517e-01,6.303748235888035900e-01,1.815945071355559159e-01,1.547126153746789745e+00,9.465352910193653990e-01,7.239432151668536708e-01,-2.690255152649332904e-01,-2.660654870932256388e-01
-5.461424639220309463e-02,8.286245264458249604e-01,-7.920727392091709840e-01,-1.223679358577046683e+00,1.387360790961433166e+00,9.214436524962071884e-01,-9.024215400167994172e-01,-2.238708780351096050e-01,-1.063777767128955665e+00,-1.855519053959487630e-01,1.224924090114581254e+00,1.227490598656773457e+00
-5.841946553377906914e-01,7.794376934184396033e-01,7.167221180360899835e-01,2.481341860792120324e-01,-8.467911306459938725e-01,1.599511848904851874e+00,7.844690967019856132e-01,4.229173039573166371e-01,-4.424727569469529831e-01,1.535222633904926859e+00,4.586202589770519422e-01,-1.323123358057548105e+00
5.347374038252597495e-03,8.195492163141803177e-01,3.449423904052622419e-02,7.001634953934350314e-01,4.664528882890188743e-01,-1.014064534276883256e+00,-8.301440343561676816e-01,6.654063710659491315e-01,-9.748478381890056665e-01,1.091850000229439122e+00,-7.279297931094711460e-01,-6.111603949311427142e-01
1.818075843912550227e-01,-8.219050884871910156e-01,5.606100700060123732e-01,-2.483363076472857311e-01,2.218180068304875352e+00,-1.330343059877635015e-01,1.862020510628773495e-01,-1.102434682456340020e+00,-1.333278158603123931e+00,1.065702938009979395e+00,-3.552249856312890142e-01,-1.799563176197243264e+00
-8.178238084087185999e-01,2.229358166561407895e-01,1.303193561088424213e+00,-8.378748396679027710e-01,1.691497628346516180e+00,7.304133063916484758e-01,-4.749195972201885052e-01,2.163046256017699398e-01,7.755627733163165116e-01,-1.466725393060355209e+00,-3.623224298764947116e-01,-1.120472361580904103e-01
8.069924088812058249e-01,-7.346783971389824197e-01,7.870011695151851727e-01,-1.706698173500057203e-01,2.017221526311168578e+00,-9.544447263874084042e-01,-1.239313270091416452e+00,-1.412592003881606995e-01,1.053954208982887941e+00,5.728704346306991158e-03,-1.996846136818631323e-01,3.306342800173352470e-01
1.433336108476635617e+00,-3.343314136148037297e-01,3.764835867694655280e-01,-2.475393201084195582e-01,7.865776099727805892e-01,6.949192906393547586e-01,-1.189505959818099035e+00,7.921402204018793691e-01,-2.164767628857794945e-01,1.018412305045309552e+00,5.619094026898160399e-01,-1.053141523851532924e+00
-5.416063359443258618e-02,3.040191528626204898e-01,-1.852566192686919910e+00,-1.690906637689469028e+00,1.075083145223234560e+00,-5.913539008364453453e-01,1.015489464465135078e-01,2.509339037064550748e-01,7.365464468818540000e-01,-9.574337252020636013e-01,2.053483859667686318e+00,-6.178214464250814109e-02
1.783735256831604499e+00,-6.459393662791264035e-01,4.189831103066534168e-01,2.814432460295737126e-01,8.084467314573919039e-02,-8.655110199874269661e-01,-9.906935989708411938e-01,-9.719517870845009178e-01,5.219185892446152053e-01,-1.982514974738279978e+00,5.859123549924700747e-01,9.204216236044505672e-01
-3.759046473540081923e-01,1.125620975764073106e-01,-8.081470933815954050e-01,-4.371627039404377135e-01,-6.013883417092959899e-02,-8.113488528420786938e-01,-8.777214731789115820e-01,1.135684897996194431e+00,5.688542566532234224e-01,-3.468084741477900912e-01,1.214458226996705470e+00,3.028863520658173769e+00
2.362135832206850861e+00,1.417214809946393927e+00,9.034721766274843580e-01,-9.279119521254049208e-02,3.383777738276692593e-01,-5.114981531139914939e-01,9.818586789377991009e-01,-3.837681286028948313e-01,4.563807346077170674e-02,-4.938575586593471622e-01,-1.453759370539444706e+00,-9.721157263536113480e-02
-5.964936358219351531e-01,-1.322689133698924935e-01,-6.986594151778100503e-01,-5.219222191247520071e-01,-5.188723433193002110e-01,-7.434035667843295059e-01,-4.927664894542590490e-01,6.593075380320819745e-01,1.427751046374627686e+00,-7.239813843350949574e-01,-1.395078372220588614e+00,7.336996697902212761e-01
1.765224157668855154e-01,1.790174580931840620e-01,8.412634441308634026e-01,-1.055079833529851907e+00,7.650464087134949409e-01,-1.469351150083509083e-01,2.215638076466225570e+00,-7.677866476207059199e-01,-9.973918947381807953e-01,-1.056242468777240262e+00,2.005946406201444265e-01,1.290029796112735827e+00
3.567082366413131811e-01,2.314547265899854267e+00,4.347038069223699286e-01,-9.327938341490924490e-01,-5.451147662306070341e-02,1.245002860483367391e+00,1.479559260592660852e+00,5.454589499721511636e-01,-5.318093511653286809e-01,-1.001851190061087582e+00,1.525264885165286688e-01,8.486123854834410896e-01
-4.854043067783038179e-01,-2.597663198640524085e-01,3.622259763711861008e-02,-1.645282669464184222e-01,-4.152106421309678663e-01,-6.352427634962095615e-01,1.446982756814002791e+00,-2.353832249147050915e-01,-6.070049708694253560e-02,-1.107109654181453573e+00,1.125114263724086960e+00,1.002554139702922953e+00
4.916833501823453800e-01,-5.112259388909485835e-01,1.210131875474696361e+00,4.035565159009289748e-02,8.109938793759650100e-01,8.584299894353949467e-01,2.335141837669182596e+00,3.577665288723146930e-01,9.457825757364921038e-02,-5.716265926228732974e-01,-1.175113146930393260e+00,2.029057959607350470e-01
3.119789611051192457e-01,-5.633407820359307427e-01,-2.731167427131390157e-01,-1.619238895709276926e+00,-5.307700230765104443e-01,5.183393243619146551e-01,1.478310534941529308e+00,1.307378927720353579e+00,8.785974254135462402e-01,-1.717292536774734701e+00,-3.340163177569846487e-02,4.166225851028992899e-01
-9.553209946382821283e-01,-5.032049267569216333e-01,1.843387946410010234e-02,1.118860248379597078e+00,5.533238269283614619e-01,-3.931106406983727042e-01,1.095205887201821104e+00,1.559433561961749426e+00,-7.951214369915853286e-01,-3.732372741564444762e-01,-8.894480374077116114e-01,7.386303464910669581e-01
-1.618980350576004534e+00,1.590154305714220229e+00,3.265564455796668430e-01,-4.403959649153301598e-02,1.794523567242259643e-01,-1.007039650236793316e+00,1.577638531707390435e+00,-8.186558929190824729e-01,-5.762078808699804267e-01,-5.427604191291958424e-02,1.012589311000104297e+00,5.142199758565931811e-01
1.844974926482555899e+00,5.161878872052410028e-01,3.489138545954974524e-01,1.746587127694539665e-01,8.679963426497023793e-01,9.763802297668729979e-01,-3.775419943282583568e-01,2.390144570996100282e-01,-1.931222172344642551e+00,1.025704812754395068e+00,1.446401837897652864e+00,3.610801926575164522e-01
-5.855510789063215205e-01,1.916512046135275593e+00,1.077181018310092026e-01,4.437458789568640150e-01,-6.550962601380742045e-01,-1.454747536640413452e+00,9.377201527802635217e-02,-4.626577888213783130e-01,1.096280719324665087e+00,-2.534710194535669259e-01,-1.744000177471729252e-01,1.462866269377820272e+00
6.293709131593420159e-01,8.374979073546523489e-01,7.235330037702034645e-01,2.158050280400724830e-01,1.608945682576176373e-01,4.063599960410867462e-01,5.920381497877054144e-01,1.193905659042627576e+00,-5.348258842700371885e-01,-1.230789054742262412e+00,-7.832185692869373383e-01,1.703657998647505056e-01
8.940916725108166707e-01,-1.393668457172833719e+00,-1.540479961476667770e+00,-8.053800573831673693e-02,-1.394089103104273253e+00,-6.763080121542000001e-01,9.459128137190383478e-01,-1.417585072574416127e+00,2.178554005561135765e-01,-9.792892916624665878e-01,1.488495642346440384e+00,6.744497592135553221e-01
-9.376566065190760080e-01,1.239180803028218314e+00,3.263401812894395349e-01,-2.049645373096858902e-01,-1.447893314658665886e+00,-6.145827486926895844e-01,-3.282834243484663350e+00,1.573820230944970477e+00,1.336636058674256944e+00,4.590440541914749817e-01,2.683867084314953688e-01,1.386647505315221407e+00
2.189624403981191847e+00,7.133814514248640881e-01,1.721276425636671492e+00,5.834472293041262914e-01,-2.714126438526565099e+00,-1.490046816759056147e+00,-2.785140813956770156e-01,5.158217818138393085e-01,3.619998982062115012e+00,-3.581478707936553985e-01,1.057939096434847626e+00,1.048949294991715409e+00
1.086416488714524231e+00,5.394681485883656702e-01,-6.806247563393632571e-01,5.677152401121049463e-02,6.501029069605503141e-02,-6.816872225581767086e-01,-5.635040180484819361e-01,4.262540222644474741e-01,1.641894983356740667e+00,1.017094771141677789e+00,4.131410523628546438e-01,3.028563485678364420e-01
9.315921070258055270e-01,-2.877803496983654119e-01,-1.653140813987729496e+00,5.301610116447529331e-01,-2.182237271059996431e+00,9.195834219379579455e-01,3.973486633291173874e-03,8.389468882426709406e-01,1.702044682040501744e+00,1.129920165202360938e+00,-8.960072482876477173e-02,-1.157015300269860214e+00
-4.759834629379206677e-02,1.511839455946592248e-01,-9.153257312887931318e-01,-6.367682200627191591e-01,-1.364870602012857592e+00,-2.385314144077448351e+00,9.691624215963757782e-01,-2.393912888393381344e-01,-1.193424919518693561e-01,-5.619947486768742673e-01,1.345713796062792511e+00,-4.923413340013573780e-01
-1.130766653579896364e+00,7.798129035637549888e-01,-8.265988304540530240e-01,-1.079328284554098349e+00,1.097845006277470281e+00,-1.456908514241642916e+00,-2.143117862296413101e-01,-7.908761622630637866e-01,7.275940537395195751e-01,-1.161169247720732489e+00,2.192575635242669740e+00,-2.643190962356628537e-02
-1.036525347481069614e+00,6.064107280170423220e-01,-4.667184545862904099e-01,-1.244936225246673134e+00,7.988734404241594200e-01,6.121291194410041214e-01,8.589019414309462253e-01,-9.965466705989992624e-01,1.434986311458102293e+00,-7.699030265164862330e-01,-6.688344548660899447e-01,9.694507105619819542e-01
-7.098618341572887624e-01,-3.456731692673311596e-01,-3.002508795445365530e-01,1.436770234112812794e+00,1.958519638898640780e+00,7.497460425251326610e-01,5.516311263962454525e-01,2.596041722574889299e+00,1.012889235000780541e+00,5.214015050878330060e-01,1.058396917937004744e+00,-6.724730550671339513e-01
6.508543838242978330e-01,8.251536913911911020e-01,-7.786326440120426851e-01,2.007197841682078820e+00,-5.549070574365981834e-01,-4.474741070432073919e-01,1.663118870785292414e+00,9.576180615219347103e-02,-1.320716821694645216e-01,1.792381609939904141e+00,-1.126417694812011705e+00,1.668054068985092231e+00
-1.007197026601331036e+00,-6.985846778456545891e-01,-1.031508465647265504e+00,-1.291839778054278520e+00,1.128293549154043118e+00,-1.825405349601052052e+00,6.900159814415356141e-02,-8.533420626925761754e-01,-1.017869913576096019e+00,9.079754395962250646e-01,1.108786364768005628e+00,3.027350021511767894e-02
3.410493955718933989e-01,2.545814439062808798e+00,1.448899502127998007e+00,-3.584287349975991965e-01,-4.111418301003533782e-01,-9.086012774988733165e-01,-5.179236064385937810e-02,-5.168288237314997424e-01,-8.272649854292131455e-02,1.264940901323885702e+00,9.573261652683702216e-01,7.372997477462130966e-01
6.938898939957178769e-01,1.155028958858440813e+00,-1.221671240139404979e+00,-2.423440930324318732e-01,1.526010976505826289e+00,-1.150538866942972874e-02,1.558754794832613699e+00,-5.090837749451880834e-01,-6.688582875506643433e-01,7.261455697199794557e-01,2.331034343337524406e-01,-3.256034834006842349e-01
1.563486746393972782e+00,9.618048496121087698e-01,1.110339735120693838e+00,-9.578850002608209069e-01,2.118896693416969068e+00,-1.922356334216153373e+00,-8.942391424077243967e-01,-6.349291950603273005e-01,3.956323446630924390e-01,-5.170986743765970672e-01,2.914459662463291800e-01,9.789860091154747312e-01
4.774131425063669054e-01,-8.826678485903255433e-01,-7.926967026304357899e-01,-3.058467196297789958e-01,4.045592649780127004e-01,-9.583030577408296891e-01,8.463237368271580019e-01,-1.595931942237419632e-01,5.226723665529061646e-01,-3.097831105814721209e-01,-4.820436339258415276e-02,1.085228218895412988e+00
3.931193809728119049e-01,-8.916600713162572411e-01,-4.628469415685840804e-01,6.518603782107847966e-01,1.435932554968573527e+00,-5.062928613922766941e-01,-1.374228284541751943e+00,-1.094019636718483346e+00,-1.095592619960672892e-01,-2.661076526008852028e+00,1.618078336797917016e+00,1.426818857208909108e-01
3.020947182857133262e-01,-2.123026086278975988e-01,-2.529052854183598265e-01,1.047760255634848425e+00,1.130552933388822012e+00,7.357143299074225817e-01,4.658252106716608831e-01,2.844023470236215489e-01,3.485757900384144903e-01,-1.962662465410143220e+00,1.072019034936864262e-01,1.254852223476468076e+00
-4.607165017477801161e-01,1.453620681491577749e+00,-1.321612476979837636e-01,9.803323395262097950e-01,1.325751784514438425e+00,-4.551239331168722146e-01,3.318762484304866867e-01,1.044547868070900831e+00,3.984589248165390507e-01,1.793842161929162682e+00,9.028081764444072510e-01,-4.116772263563794332e-01
-9.734045766474033190e-01,9.031775717283218041e-01,5.085855510655134387e-02,-1.291626545819843042e+00,6.326791145119172732e-01,-1.106707233765688025e+00,1.262238073238419300e+00,5.845762613100720095e-01,1.319874161298822068e+00,-1.105297369957462195e+00,2.246135755344722096e+00,3.361740100651828822e-01
3.753745410853566722e-01,1.257820700547648940e+00,-2.193725155478887523e-01,-7.494166078488994076e-01,1.029476650612681343e+00,-5.764743697706804504e-01,4.015451097361968369e-01,-4.124182815688509640e-01,2.009256391187247692e-01,5.789288795481969951e-02,-6.202328105947007009e-01,4.769205277517797881e-01
1.140113942179728612e+00,7.812223614060935795e-01,8.517642371343441265e-01,-5.844418517418825676e-01,1.833696773446578554e+00,5.960747438904867579e-01,2.261817091057789053e+00,5.126034139620869734e-01,1.293306593331485788e-01,9.902632602382686888e-02,-5.819653418178820647e-01,1.559803549395874178e+00
1.748339824772827608e-02,7.307444188224270221e-01,-9.719516579476875640e-01,-1.428469486568405278e-01,5.998125195779242524e-01,-7.791598658039089464e-02,1.406105633296514501e+00,-6.842695809126418949e-01,-9.318471327521023195e-02,-7.716072170915642126e-01,1.535803487807368750e+00,1.199972569560826541e+00
2.418426095162071465e-01,7.183534558895555699e-01,8.639684239326305137e-01,-3.266970841879706655e-01,3.044641693858697873e-01,-7.441985965236448397e-01,1.727401358892820538e+00,2.667835767975605954e-01,8.025079264709387983e-02,-2.391592687770870973e-01,5.683055748718423006e-01,1.015677669293942431e+00
-4.209091167161970182e-01,1.564788208650113255e+00,1.728046359105775975e-01,6.745276557024325603e-01,1.099440868951769623e+00,-3.653787081954995020e-01,9.508954374335932824e-01,-6.792754621709164997e-01,-5.893633276339255156e-01,7.777446819322880733e-01,-1.025816383472506033e+00,7.402797346624824248e-01
-1.659825232899946323e+00,-2.487419663530242298e-01,3.239628394982488890e-01,3.062521798816729701e-01,1.209286034353651562e+00,3.008449415389606862e-01,3.042835497469378869e-01,6.526843760628018298e-01,-1.220600932800864347e-01,-3.586621386735993622e-01,7.470562807809941752e-01,7.703872913959746160e-01
-5.168272525050481292e-01,9.066719706123147482e-01,-1.292264872750512883e-01,-6.171015072498070575e-01,2.094337608492755631e-01,-1.345167053952483371e+00,-1.366207341051466628e-01,3.833401267016566805e-01,7.709048930293888047e-01,-1.500547538992187846e+00,5.980477622470229404e-01,1.774932982942118986e+00
5.791004410874176500e-01,-4.489968857750789577e-01,-5.895940689568558843e-04,-1.751032024735400539e+00,4.460325562120587284e-01,3.473517980534170380e-01,-3.517602114968874094e-01,-5.689477657665674704e-01,2.243076983096449484e-01,-5.033349271723467355e-01,-6.752123152845668913e-03,5.605801101981564560e-01
-5.007542206727724210e-01,-6.282064294898230816e-01,-2.437155631535407319e-01,1.277924675500791973e-01,-6.823185917026143299e-01,-1.117153756052414959e+00,5.147537266768553721e-01,-3.816764217826005834e-01,5.378778878987147127e-01,1.109462416911992655e+00,5.101136258610679958e-02,-6.322019716851738913e-01
1.208771656495061797e-01,5.225675562262287466e-01,2.681249148879662481e-01,9.478774683099684406e-01,2.952200168131161595e-01,-1.257563310797744194e+00,-2.011827659915466526e+00,-1.774536338822078063e-01,-2.180014596594030130e-01,-1.454710203230393128e+00,-3.520682663500185883e-01,3.070721144437406624e-01
1.383679350205228475e+00,2.057265944419050641e+00,5.082149102455478795e-01,6.084426112864135261e-01,-1.474559908997243207e+00,-7.904018311213117931e-01,1.567466643025897388e-01,-4.649684120367384987e-01,2.669946796253721111e+00,-1.761492469588900933e+00,-1.112583957576315896e+00,1.536648434076295922e-01
1.809957934438771954e+00,-1.094540664738832492e+00,2.311318566078326864e+00,1.427609771871625854e+00,-2.061458246862420296e+00,-1.654643644118683588e+00,1.364137514564748022e-01,-4.056665950077933958e-01,1.333527873477577952e+00,-2.051037303344480922e-01,1.106089277349979749e+00,2.686459343053140270e+00
-1.667460143406347628e+00,8.448838729970589156e-01,1.654466766300734637e+00,-5.368676068611675234e-01,-1.486648137224351629e+00,-2.100566921189169767e-01,-6.497309008306590972e-01,-3.391056083565625601e-01,7.163084446088771040e-01,-1.438028068140146276e+00,-9.805399433392208985e-01,1.620270817331538327e+00
-8.063883241601019769e-01,-1.455767968197587914e+00,-8.832136113795715504e-01,-4.206332831354046009e-01,2.764353198056170302e-01,9.227613152365459204e-01,9.790614702670192848e-01,-4.022016802193059126e-01,4.492644883401046285e-01,-6.869057255632050607e-01,-1.177624785350481207e-01,6.229202747411360930e-01
7.152426249154680837e-01,-1.013966029090488385e+00,-1.052119081089684771e+00,-5.512244752958045391e-01,7.411202647583474690e-01,5.492187241552203697e-02,9.600854424239211315e-01,-9.562471903008933349e-01,1.863363332909570236e+00,-4.988650535771749217e-02,3.308381640675739921e-01,-4.427921377809099224e-01
1.594282807810897928e+00,1.385545731267857850e+00,7.795808516922138331e-02,-2.691673088395571400e-01,1.201192673306549663e+00,7.148176342216557844e-01,2.067557586925561908e-01,-1.765618080404467993e-01,1.287181117726026613e+00,-4.740838135739753323e-01,-2.500863677495621107e-01,3.685851687745638761e-01
-4.317350041457940213e-01,-2.038286659026072867e-01,9.810973541491173622e-01,1.772895057214540770e+00,-6.184076835007290551e-01,4.106512447054310733e-01,-6.260200856473895348e-01,1.177690348211951177e+00,2.734159601879816437e-01,5.654198300227029073e-01,2.383506863415115085e+00,-1.017843578555586471e-02
-5.264476281570883431e-01,-1.142823210975079995e+00,-1.569667474398676710e+00,-1.722321401669638430e+00,-4.753052925207972845e-01,-6.833842686576092618e-01,6.217950415346273907e-01,1.028326523515035174e-01,7.673829179607049022e-01,-1.741716839670906514e-01,-5.715979259879664376e-01,1.521490461869850597e+00
8.457892854490861589e-01,2.383750715272101584e+00,-5.828817721371606919e-02,1.033229068505295833e+00,1.633840179620220656e+00,-1.926199614986287667e+00,7.266852000140712475e-02,1.018217062522220884e+00,-1.617113175019424531e-01,-1.050228609133370794e+00,-1.957232731059741493e-01,2.000740638668109805e-01
1.120944970509004879e+00,4.582640790255309571e-01,-6.135771695728535757e-01,1.890699161539116102e-01,1.302840909444687112e+00,1.070976020687966490e-01,4.082027148588588394e-01,2.490415037311881907e-01,-1.644906444411889712e+00,-1.010867798084256641e+00,-9.353298515911999678e-01,-1.208331755038160704e+00
-1.199484972464579302e+00,-1.537106334145569075e+00,6.990741067937068509e-01,-1.113081593513854717e+00,-1.102342904006959473e-01,4.235379300905054989e-01,9.150331710364765225e-01,7.844070521481258940e-01,-2.004398952312191451e+00,-7.330170128938783281e-01,1.762889944895522198e+00,-4.228743810570518430e-02
-4.126404248831889165e-01,5.416179760424773629e-03,9.691026390530831369e-01,-3.232048661466538908e-01,6.062083039305160570e-01,-1.017312566501629600e+00,9.316710258013425339e-01,1.630035181225994723e-01,8.697902219109580058e-01,-6.668142098407382479e-01,-5.002585538168857759e-01,-8.605454091965822894e-01
1.189715255021082330e+00,-1.471711797352496520e-01,6.992631010911616318e-01,6.996871747652043672e-01,-1.591304396468946614e+00,-9.880666271465718964e-01,1.354802712391030228e+00,2.377437287632403473e-01,-1.334555712188730592e+00,-1.605688907727902182e+00,2.201533486262306494e-01,3.148730826151687756e-01
-2.976603201084924155e-01,4.931525361546523767e-02,-8.657903677865445013e-01,1.773635887603944583e-01,-4.824788156293502994e-01,7.467092719526596811e-01,-6.906521714494924247e-01,-1.371995607100507497e+00,-3.427231567917897181e-01,-1.446110067278391087e+00,1.468442024105790500e+00,-2.706083550996651321e-01
-3.694458075636574690e-01,2.043183383146398580e-01,3.579474966508242040e-01,3.976272436626418494e-01,-8.178578035276783398e-01,-3.656840165111919227e-01,1.486020010685217496e+00,-2.847622079773619655e-02,-2.253266667648719801e-01,-7.438726162426766431e-01,6.420254731759613698e-01,3.774572637955432852e-01
5.493210632248188841e-01,1.310199909408378494e+00,1.140058955571227883e-01,8.865601220326149168e-01,1.257570904721538041e-01,-1.412582727529218818e-01,4.730095938142411249e-01,-2.911836329926476563e-01,1.680375928929126905e+00,-5.703859848849067715e-01,3.104842324761079575e-01,1.492747164292613782e+00
2.781603554762591690e-01,-1.924596854061590423e-01,-2.886472550064246578e-02,1.478748217819015887e+00,-9.800494384196480890e-01,-1.040940054215410360e+00,1.107240742572131564e+00,-7.404055612848712276e-01,7.460944643549016764e-01,-2.162106890181410890e+00,4.161234568782299498e-02,1.127162450761279855e+00
1.306701337725419299e+00,-1.025076966212628449e+00,-5.933038243264620037e-01,8.527161282512798479e-01,-5.321067370705445665e-01,1.400507146835974492e-01,2.771421839163777934e-01,1.128552779822237451e+00,1.435084708384679830e+00,6.113615709725861436e-01,9.883667367352351185e-01,1.392294801048135966e+00
-3.027578601275003611e-02,-1.944929667271644569e-01,1.299066999502144881e+00,2.222627805893663822e-01,1.032019365711468462e+00,-6.666877908015484966e-01,5.593652823925981954e-01,9.300524391046673112e-02,-2.139624138455022528e+00,-1.093385386946070348e+00,9.134010268891619155e-01,-2.301555536195002902e-02
-1.421176548942937101e+00,-6.401436913326380429e-01,-3.597915098492597830e-01,-1.687586990995157743e+00,2.177696318708834067e+00,-8.661950307963814932e-01,2.069203508531475055e+00,-3.737295762918836362e-01,4.983135224564678722e-01,9.899290632067589968e-01,5.238517159002056278e-01,-6.258552264815224475e-02
-6.506516072391221872e-01,4.494948752116428303e-01,-7.987915086678341048e-01,-1.233542217869230351e+00,2.535976036306946124e+00,-7.201734309686882440e-01,1.676871879037934887e+00,4.644797771486029458e-01,-8.862217871542353853e-01,5.483476676337520894e-01,7.334554475607255597e-01,6.095173005481089451e-02
-5.770029383798485068e-01,-1.107832920092092444e+00,8.022697969588681310e-01,-9.371674282379516274e-01,1.460311578638779473e+00,1.785334828162458976e-01,7.995210502948022491e-01,7.390230900016164783e-01,-8.214921274756307179e-01,6.179264672091338007e-01,7.258395785446778437e-01,7.306108289517109222e-01
-2.385739250504342213e+00,1.233209112542844821e+00,-1.038772449613508009e+00,-1.130453033325804713e+00,1.972343766302788515e+00,-2.316086809015563686e-01,-6.280364238151850964e-01,7.739736265649317382e-01,-7.135819505889488129e-03,-1.207614836448510642e+00,1.206698248823021791e+00,1.789314291182899641e-01
3.719489348592044942e-02,9.571910538361668719e-01,5.728399513674681254e-01,4.664899446143792039e-01,1.677676960209001811e+00,-6.403626144369157780e-01,-9.882474204909250659e-01,4.002252670342343333e-01,1.448669801399019852e-01,-1.433816379712920419e+00,-4.553215703217145666e-02,5.215176598919659678e-01
3.056859779133010435e-01,1.002631277207520766e+00,-1.366642281609119491e+00,-7.571023078479389712e-01,8.283796881365483866e-01,-6.874343102922605420e-01,2.760032041935622446e-02,-1.087315187418877782e+00,-8.718068477789949755e-01,-4.266531988483501792e-01,1.018843216061231294e+00,1.760564572779207193e+00
-7.526994270489875127e-01,4.312012229100096738e-01,6.369700622627890718e-01,-3.235736140868344379e-01,1.668874428418214428e+00,-2.102101436853260619e-01,-1.117550536959503793e+00,1.179066851469050103e+00,-9.902789067430164405e-01,1.588420649543668961e-01,1.543811112223942184e+00,2.528856036121523987e-01
7.053675804769974356e-01,-9.307582325183868521e-01,1.208884627270701451e+00,-2.685596273333444861e-01,1.931449113829001862e-01,-1.233404970973383419e+00,-1.623385813391093890e+00,-5.580476914010888967e-01,-2.820097827946335123e-01,-1.559358126936426281e+00,2.137838732992289673e-02,9.088002761045285149e-01
2.984917298833867916e-01,2.262021079859372730e+00,4.577008612156490686e-01,-7.996175334471037344e-01,-1.500966876533581740e+00,1.220372192620316765e-01,-6.193861916082173957e-01,-3.302330047711473648e-01,6.353899291030019603e-01,-2.932926803283900097e-01,-6.817092027764964923e-01,2.056115099492791920e+00
4.989981005476793463e-01,-1.069237763292385734e+00,-7.231402702763619628e-01,2.255468657745627326e+00,-2.171528934199628225e+00,-1.695973620859291042e+00,-5.933889763453781968e-02,-3.593573113588680035e-02,1.374445779743436846e+00,-1.289328382744618917e+00,5.857492469142167035e-01,3.340468676051045360e+00
-2.690580156464776329e-01,-3.295309004017195620e-01,1.477857447708506911e+00,2.077289544816851574e+00,-1.914786854456259624e-01,-1.769152807403597150e+00,-8.589815144696980598e-01,-1.549806622353091523e+00,-2.302490334245459735e-01,-4.099468796173353358e-01,6.941009583559956120e-01,1.962881648544200219e+00
9.846938415683019752e-01,-1.104478972167211026e+00,6.360526210131790537e-01,-5.566170991651181454e-01,-2.928430414955374150e+00,3.400714024108703742e-02,-1.573884045434360113e+00,1.894834785402207955e-01,1.226516250168810496e+00,2.982807558034524242e-01,-4.722072185783044995e-01,3.403746224573197532e-01
1.906211708237225411e+00,-1.437533719578332203e+00,9.509101584625165304e-02,8.128156710107138638e-02,8.448666097495070859e-02,5.398263189488173852e-01,1.725682092536067191e+00,3.768432863005602429e-01,-8.175101382314939880e-01,1.506202654896239057e+00,-2.514583870660890286e-01,-1.097986487162730951e+00
5.972909145601186243e-01,-1.323941318837368764e+00,2.361632548116237018e+00,1.240111479320485932e+00,-4.742186220369618566e-01,-3.824242377213847854e-01,-1.898469323687813848e+00,-1.331567806034041068e-01,-7.777746743899048854e-01,1.094909086930621021e-02,-6.962402549286714759e-01,-2.178830217108124412e+00
6.384299938657609363e-01,-5.065706916974169749e-01,4.667180874203617769e-02,-1.264164026413273634e+00,7.521204497166010805e-01,-8.885001724325249928e-01,-1.546623458655624894e+00,-2.011694264275020461e-01,-6.169513246255322603e-01,1.574196019988108208e+00,-1.837153823929761787e+00,-6.440297356949664653e-01
4.099003844077619418e-01,-8.831867238373768414e-01,6.056639660138405379e-01,3.228110488513150633e-01,-2.925466782059708559e-01,5.860524399268386420e-01,-2.454796429980107053e+00,-1.148555906302285573e-01,1.640634291398890943e+00,3.766535147331241395e-01,1.868461374838622513e-01,-5.803331777845708306e-01
1.537355964986828250e+00,5.316921008139985361e-02,1.059742306112503724e-01,4.107199565941067609e-01,2.361511951704396317e+00,-2.072112417108859184e+00,1.909576138215590912e+00,-8.587263813266982071e-01,-5.191178738037207641e-01,5.818223494274884500e-01,5.842570935980714308e-01,-2.470961055760037828e-01
7.185347858975167368e-01,2.100713682807508587e+00,-2.034211129535447860e-01,-1.791271174872471228e+00,2.184861012666468483e+00,1.015562101053269606e+00,2.267406719974480733e+00,-1.991735474394000782e+00,4.333399257488665390e-01,1.143150677056409936e+00,3.188876301294274462e-01,-1.322776356645769813e-01
-6.948696871104415029e-01,-1.130996292893091670e-01,-4.302699383835645319e-01,-2.523302091565479799e+00,-7.773029611325957822e-01,-8.211073880604092823e-01,1.410205776362700725e-01,7.106690354153031297e-01,2.762420306543125759e-01,-2.020447360003551296e+00,-1.914370050816359692e-01,2.132395296242213523e-01
-1.433729543595616329e+00,7.457839566650861229e-01,-3.013740763996068384e-01,3.590335034960424054e-01,7.590648461759029741e-01,-1.415724749154030571e+00,-3.861368064358338542e-02,-2.901072101608155596e-02,4.646717755223892521e-01,-2.426436967255507782e-01,9.431484505630601811e-01,-1.976203259501559117e-01
7.276141081858960025e-01,1.237795354294610295e+00,-1.016685292999016443e+00,2.397465240217935278e-01,4.690025383609675025e-02,-2.237791966625827383e-02,3.765778716603590537e-01,9.528629059526570744e-02,-8.238022052055016253e-01,7.803341275305150093e-01,1.197645465039620660e+00,1.824850535461356893e+00
9.598695602159480478e-01,4.795885082427337465e-01,-3.885571064673636332e-01,7.466359443425927278e-01,-8.972592655510885917e-01,1.323724847457625753e+00,5.363695042435652482e-02,6.134078279742901652e-01,1.141545255232536915e+00,-6.747759413598581890e-01,-7.628947194652264674e-01,1.177732293735997304e+00
1.060537489232983521e+00,2.600110365283991309e-01,8.454585600336950169e-01,2.670392333928616413e+00,-1.158982335835924138e+00,-1.128972683142078770e+00,6.892142802087770914e-02,8.407432986259865126e-01,1.627737834493442115e+00,1.292162518445700181e+00,-5.620135425922736516e-01,1.310855086690815852e-01
2.688100093356348697e-01,8.429788497163047678e-01,-7.390699537634259908e-01,1.208312739921963974e+00,-2.439077951111613629e+00,-1.320734943521175930e+00,-4.318221789902580016e-02,9.333680576929801465e-01,-1.482130025663807027e-01,-2.620994942902318825e-01,3.873000391154965416e-01,-3.865899700654110149e-01
9.929376903072545391e-01,-1.122017370672135916e+00,-3.554944214362913968e-01,8.660733049397023597e-01,-2.474285209372049543e+00,6.290570855901278513e-02,-1.067596800409290392e+00,8.332926087343145438e-01,2.254618996668191322e+00,-1.395358888738980729e+00,1.225578364091473915e+00,9.964914087319913794e-01
9.428803009703524973e-02,1.143526957096208108e+00,5.958446751786279361e-01,3.412279500733500726e+00,-1.761808236367212510e+00,-1.024500275846259162e-01,2.840243562637617680e-02,-2.216476239333631526e-01,-9.139713954136198248e-01,9.655670414247055078e-01,7.674244507167590212e-01,4.182724435001050622e-01
1.634211190337801378e+00,-1.206132074039251822e+00,-7.739634002911085497e-01,2.434634941485164905e+00,-1.217894943156285770e+00,3.314293291430241983e-01,-9.036381816369255526e-01,6.155623764670564713e-01,-1.006430638802533917e+00,-2.400729417134156218e+00,2.154218554892544102e-01,7.467719972455610922e-01
-9.058921121687621980e-01,2.294023524462123764e-01,3.597296955209847713e-01,3.771846593042257112e+00,-1.157042642074627370e+00,-1.039470068144900727e+00,2.372938534150877299e+00,1.009819196161219290e+00,2.261538702488601615e-01,3.583524462307217662e-01,-4.222186471153254184e-01,1.673343291134146815e+00
2.594986533495132086e+00,1.008512344410981143e+00,1.395841601328898229e-01,-1.740929426276390801e-01,1.437395885483404578e+00,-2.121323377378052211e+00,1.307525443088364492e+00,5.334953011614915752e-01,2.485440289338405051e-01,1.668114969222966870e+00,3.296715560136914136e-01,2.667498791118006474e-01
-1.909920113242777884e-01,1.453218672761445340e+00,-2.773170900285972795e-01,1.143796492717670477e+00,2.935310436554272595e+00,-9.705764507369735172e-01,-5.598746981086150099e-01,3.880773951744524441e-01,9.121321964914200220e-02,6.211520709176392430e-01,-1.393159512588055593e+00,9.323159267612616263e-01
8.200362347588763257e-01,1.364994499355725033e+00,-8.885416748323059499e-01,-1.862326848308868410e-01,3.197987993318012201e+00,-8.743907867457676453e-01,-1.826588535877067043e+00,7.312106612510702597e-01,-1.212012545670708707e+00,1.772930296082401436e-01,2.297403230848492350e-01,1.419699574093011396e+00
3.661515529715648337e-02,1.444152713674152544e+00,-7.917016372877000441e-01,6.993613508315240646e-01,7.115811267382262661e-01,-2.516543855344387293e+00,6.298968298390751341e-01,5.262510422518089648e-01,-3.317408405781378522e-01,-9.515031569312469573e-02,4.843726678775179817e-01,7.088854812626337321e-01
-4.244401471694685818e-02,7.731592458670105694e-01,-8.275849618568273947e-01,-7.756489256872767246e-01,1.818384830899260285e+00,1.396099625428534330e-01,1.289128985110480907e-01,1.025102214535166034e+00,-8.237240270089479788e-01,-4.094796967150532985e-01,-6.098386613662951650e-01,2.054213394011033422e+00
-8.573622457509171291e-01,-7.676520941701796552e-01,-3.620310606642460627e-01,-7.214507850635557551e-01,1.626547676736635584e+00,-8.657090291991186015e-02,-6.962141078619479284e-01,1.463917362909276321e+00,-3.811736855224900911e-01,-1.609409632297707171e+00,1.484387055848747528e+00,-1.097645799744122685e+00
-1.378081819399308738e+00,8.280038082075068528e-01,-7.435040492299697101e-01,-1.462209302048614656e+00,4.023050240575292702e-01,-1.097050818243994641e+00,-9.380088345175463527e-02,3.268426030788537107e-01,3.721053224740090981e-02,-1.167732727310546448e+00,-6.910358599254163847e-01,1.179153488612308509e+00
3.749289179980104247e-01,7.111970403602255741e-01,-9.864472805145318990e-01,-6.389896774342787023e-01,5.607453114325156029e-01,-1.014577940001879286e+00,7.246740307715116014e-01,6.518655668093285838e-02,-3.057614484700888480e-01,-1.516334623650945179e+00,-1.985947151091037366e+00,3.560650403821286059e-01
-1.056764910626633913e+00,-3.410413585512022117e-01,-5.590010906445935790e-01,-4.898908502706186829e-02,1.276603080389368206e+00,1.035440708894557416e+00,9.824338437134498836e-01,4.455758701115353215e-01,-3.505265717824507798e-01,-7.510052986148743059e-01,5.284261544573063407e-01,-1.442704492615330403e-01
-1.220538314771967059e+00,1.064007514661474696e-01,1.733152445981434309e-01,-1.422930330877100469e-01,-7.325838497174845809e-01,4.806234520424819134e-01,1.852590781720186430e-01,-6.653017146068117560e-01,1.201492641525745642e+00,4.035460986133340144e-01,1.703505727246957813e+00,-1.373631096601007906e+00
-8.834927912919409154e-01,-2.525837465993054920e+00,1.327964692145647829e+00,2.231490407869614501e+00,-1.241322682109088582e+00,9.871977779877086911e-01,5.412929676602414863e-01,-1.540185593087350480e+00,7.833838775577414149e-01,-5.202798448000423015e-01,-4.691759976465110227e-01,1.996896833989260989e+00
2.417189624143417648e-01,7.050916206002429965e-01,2.621362884038261232e+00,-8.826134944179152564e-01,-1.605474856216777546e+00,-1.529829879252445346e-01,1.044173162856004256e+00,-4.667661110290571846e-01,2.396629953523121692e+00,7.936273996897039162e-02,1.228904090971300045e-01,1.678926838077835049e+00
1.358664046257901825e+00,-5.475162052323323536e-01,-5.696375563143069032e-01,-5.750414325030170359e-02,6.921390623593935698e-02,-1.658181348374182740e+00,-2.935040288246947709e-02,6.184853902808314929e-01,1.475401200351133257e-01,3.138270880883117009e+00,-1.241127874508704432e+00,-1.664684700471377454e-01
-4.669873693223634548e-01,2.743383097340660881e-01,1.005399780499228291e+00,-1.535439994075120440e+00,6.983397436385395673e-01,-5.418735504544066606e-01,-3.526127153588256569e-01,9.047466431405334908e-02,-1.057141507807306757e+00,-4.134164654527900384e-01,8.363332123961950137e-02,-7.035329435597748038e-01
-1.567906436087137756e+00,-4.590824283826004382e-01,-3.181254097799287583e-01,2.245079732977861911e-02,-5.989822037739200855e-01,1.825659143031212794e+00,-2.892096327886400572e-02,6.248505294779506114e-01,6.802368208106379655e-01,-6.086488516932056503e-02,-8.537458652508279622e-01,-1.233217970986204115e+00
-4.203334842247057335e-01,1.051473951404490403e+00,-3.757805360953396234e-01,1.606530320134137657e+00,-1.648564575542286192e+00,-1.675733612401065498e-01,9.149250668485522375e-01,-3.079329853754187440e-01,-2.711875182455016353e-01,-5.638246798483722254e-03,-1.480925342054163929e+00,7.845751225844080357e-02
1.319824540244642019e+00,4.168820026984192961e-01,-1.210128676954637772e+00,-9.940613673752213275e-01,-1.364876332996714861e-02,-7.509361422996024826e-01,-1.987055712334597102e+00,3.828356302223926422e-01,1.668025696174906924e+00,-1.051585858294666782e-02,7.337331411788735602e-01,-4.120618729578762740e-01
6.542696726610165436e-01,-7.997858803298577568e-01,9.299916164694224108e-01,-1.340164874334326850e+00,1.301233020383401495e+00,-6.682473818184979653e-01,-5.975950959458055101e-01,1.308966158381192235e+00,1.012430975998300564e+00,-2.041476874766203320e+00,7.924622314965793501e-01,3.726360080133782615e-01
9.585390995827425265e-01,8.729487841183136698e-01,4.185242012767144693e-01,-1.231525791032010320e+00,2.476854453466159067e-01,-1.504593173561965536e+00,3.221049576795276814e-01,5.555823217763439237e-01,9.316845922162366733e-01,-1.983917973903860821e+00,-9.422782680580890080e-01,3.402574117649211360e-01
1.273062948452850784e-01,-1.625862213904280207e+00,-9.326228836160791458e-01,-7.825156142728084685e-01,-2.598035328565707847e+00,-7.928140385959406844e-01,1.695353942583485707e-02,-4.443372301741831398e-01,-1.390885310711375666e+00,2.523197959289111836e-01,7.689488606796954784e-01,5.271250093119427271e-01
-4.728282595333225258e-01,2.156203581270087710e+00,-7.971056871264412536e-01,3.271756632291836109e+00,-1.615593036547223083e+00,-1.478160547870120078e+00,3.878348865327117534e-01,-1.701833557902140692e-01,-5.401975678294482774e-01,7.555516407002688117e-01,2.329878440224223191e+00,2.260410753729127920e-01
-3.817373452436841671e-03,1.620067607731310089e+00,1.180909031141822163e-01,2.168973356138954589e+00,-2.920182618895143190e+00,-1.160802829365354283e+00,-3.661780132737710858e-01,1.274306624965648449e-01,-1.562352504575879264e+00,1.231993403705313461e-01,-8.441430174203025105e-01,6.240606898943564795e-01
-1.535667078129620888e+00,1.284951940369152501e+00,-5.403704692166593215e-01,-8.511074544634220640e-01,-3.178137554888685212e+00,1.384804457852279569e+00,8.417433278049292200e-01,4.918577559736228566e-01,1.315455523396479531e+00,3.924801321144429922e-01,8.896061743832583968e-01,2.038470370093185213e+00
3.005538200577061447e-01,-1.358423112829914084e-02,-3.619319330919854028e-01,1.559086901377204404e+00,-2.335435979337638024e+00,-8.446415482571524580e-02,-1.396149628149862543e-01,8.265835291690584175e-01,6.642638271922267634e-01,-4.381276670499419934e-01,-6.157387176686179853e-01,1.835800821694831386e+00
-2.639453757756681229e-01,2.323320153752154171e-01,-3.275829258527575005e-01,1.451170734781084048e+00,-1.637946015989212745e+00,5.111351010599570754e-01,-4.755536006062204696e-02,4.184953465806436346e-01,1.160160809286937100e+00,-3.330922803470166144e-02,5.719841156168852248e-01,4.997138008510436102e-01
-2.845244095004972329e-01,-6.172222106732756508e-01,-1.595858359366293666e-01,3.826577349191979671e-01,-3.060716440886093626e+00,-1.232187162209052333e+00,1.893950725678238689e-01,1.360852526333522494e+00,8.406673437118993286e-01,-1.597868659889017939e+00,1.627768547434417457e+00,1.269937670737591784e+00
-2.726565939418259740e-02,1.632345290689563022e+00,7.024805282278795415e-02,3.456908891181917465e+00,-2.343981115675767946e+00,-1.113532135745491036e+00,3.646669915839758080e-01,3.614431195294938726e-01,1.788998684973134079e+00,8.951297526038418662e-01,1.265715329359598407e+00,-7.536236315020584248e-03
3.127850993638668919e-01,-1.228380836648765406e+00,1.019949237605316972e+00,1.307101969235657579e+00,-2.673750963461992036e+00,-1.527267668762464004e+00,7.724207372241377323e-01,-1.329771811796258474e+00,-9.353875713102624001e-01,6.246257622693218714e-01,8.205370422148615672e-01,4.849386871370648944e-01
7.718104214466128266e-01,7.140390671818671597e-01,3.756336729210200120e-01,-7.608710456134548661e-01,-9.390248555569014055e-01,2.374443548192971543e-01,8.408759607366380617e-01,-4.822357487342891491e-01,-1.698614267812281309e+00,1.284889793044212913e+00,8.732594426901943985e-01,3.764653716950798201e-01
3.473473793813859789e+00,5.557655907477075941e-01,4.880176095422169569e-01,-7.569075256467759916e-01,-1.230300834750420735e+00,-2.176878482920275637e+00,2.346549373512839820e-01,2.224156793709789248e+00,-2.123498282968416362e+00,1.018389375455137191e+00,1.160322375594001088e+00,8.084305565178717679e-01
5.258023580699134891e-01,1.909051724587503551e-01,-1.894166235538125853e-01,2.622559159186524380e-01,2.018361214808924942e+00,1.298209526793532520e+00,1.990538179967642207e-01,1.993922511753846161e+00,-8.870968277258849399e-01,9.081181930749033793e-01,-4.811897063872466740e-01,-1.604847643594554674e+00
2.970654932853029201e-02,-1.475961521062652437e+00,9.455776293428838075e-01,-8.294524090795959426e-01,-9.596533727478516740e-01,-3.804742017980680679e-01,-2.514713757869298516e-01,5.891318247383143802e-01,-2.429973275273325406e+00,-1.579361919188627450e+00,-5.622201952787840851e-01,5.693169709035427184e-01
