-1.084776150065813738e+00,-6.050484171513558218e-01,1.263715008633442202e-02,7.585798321483477880e-01,7.723795161150951438e-01,-2.894077223711332136e-01,-1.327317011969464167e+00,-5.174385795454962134e-01,-6.184521338681858715e-01,-1.346192739150799511e+00,1.056406661054321017e+00,2.341379756991254890e+00
1.108372177882441134e+00,-3.820364580751934858e-01,-3.904504911028306435e-01,1.034330539906194835e+00,9.283760841855369650e-01,6.652845596011582874e-01,-1.685816558928765196e-01,8.522608388212036257e-01,1.425327004378854900e-01,-2.485569832025514292e-01,-2.814196861732252142e-01,-1.495422349163133990e+00
1.223794391857526559e-01,-3.065134805572735655e-01,5.113640300270969608e-01,1.073158448549415001e+00,-1.864627524687149318e+00,-3.369892376145451340e-01,-1.424676850263701500e+00,8.937060124869634636e-01,-1.891740716807920553e+00,-9.132671041058261219e-01,-1.250897912330745765e+00,-3.763639374906935231e-01
1.315936881317326002e+00,7.959573041254450754e-01,1.964193956134415442e-01,-4.809350278291243397e-01,-1.611659552126355754e-01,1.829099057131588824e+00,-1.404709428449823383e+00,4.209084052596449160e-02,8.391514136933256873e-01,3.305319087181988746e-01,4.410758658703749502e-01,2.577352484228100926e-01
1.842791656232773079e+00,3.059690668172431738e-01,-6.023115987938123528e-01,2.494267618265926800e-01,-9.356215137082740663e-01,4.007310633217061602e-01,-8.914712908376219991e-01,7.150794448307405959e-01,2.399372040212026380e-01,-1.157390744252088544e+00,-9.017474860762507705e-01,1.157540551899838954e+00
-4.846616684660002283e-01,2.240056383424590791e+00,3.514895571521179374e-01,-3.941152412061880161e-01,2.529779334640097632e-01,-3.372106928598390119e-01,-8.935633827478663971e-01,-9.756971841348757168e-01,-1.366283965128605837e+00,-2.975930958123070846e-01,2.074903704900966872e+00,-1.142070979381340390e+00
1.744456744536158954e+00,-8.376772776167901169e-01,-1.034368120338560043e-01,-2.003412618886980745e+00,8.867707431547092178e-02,-9.064991755965700060e-01,2.099381542272798495e-01,-1.963157206723046944e+00,-1.977177268559445478e-01,-7.826566644728358835e-01,1.503202012356297246e+00,1.010697172350669026e+00
2.383046276264664809e-01,1.016363162999249337e+00,1.332546288885581853e-01,-1.666819552208365640e-01,1.033451009300036111e-01,-5.735523258837650351e-01,-1.199817877422641121e+00,-4.743226216199865064e-01,-9.982963271203197930e-01,-1.193276542061473489e+00,-1.198579946328392820e+00,1.195595486107032368e+00
1.346849954740649613e+00,6.603393122810943261e-01,-2.970440286010064823e-01,7.359865867529260530e-01,-2.368315799717012893e-01,1.299200252777614528e+00,-8.865059846619351980e-01,6.987864534053184196e-01,-2.196124260153715646e-01,1.273106453250636427e-01,7.894692028730203592e-01,-2.009419248710228256e+00
-6.959633645229560406e-01,-1.552467928638941341e+00,2.223766933772434395e+00,1.618366896882273753e+00,-1.205515247553780700e+00,-3.736863755762349915e-02,-1.057969692843427900e+00,-3.391599538675249548e-01,-2.203372393494702930e+00,8.610549049694522505e-01,-5.809822671085527190e-01,6.418342537530075109e-01
6.273312340647163587e-01,2.019175198709539210e+00,1.366489572125205720e+00,-2.704682558218499816e-02,-4.444862785871969146e-01,-6.889553490457033247e-01,1.049654386657165483e+00,2.125594700455744057e+00,-7.142928014725167252e-01,2.226868419264402543e-01,-8.784322955344463502e-01,-9.662809778812256334e-02
2.432411100107039204e-01,-8.660857320159331962e-01,3.200994611539680901e-01,-2.859495299729928330e-01,2.057661391237604942e+00,-8.383873651122382420e-02,1.015676381128760575e+00,7.840089112878533273e-01,-1.182933305518978795e+00,-2.962140963505666136e-01,1.314354596812194131e+00,-4.430971860476153323e-01
-7.671311663653431756e-01,-2.279499171588131590e-01,2.593869733316259141e-01,5.610842134675151499e-02,-2.925474017208914423e-01,-9.506141449108317376e-01,-2.717217275455756087e-01,-3.830396166343355557e-01,-2.408349159845278864e-01,1.047395234492465077e+00,-3.189698990312498372e-01,1.367163946866688073e+00
-2.278012024669725522e-01,-3.326926212961159313e-01,2.138475480080743729e+00,-1.640225504536576118e+00,6.178072868728152756e-01,5.407583196462855124e-01,-1.335913510576425045e+00,1.195689791810578884e+00,-5.018962947058656088e-01,1.383875873504287979e+00,5.912496630361020467e-01,5.348279289928819374e-02
9.053932305097588396e-01,1.670014660772522197e-01,1.464055117471307677e+00,8.979199046796539907e-01,-7.641005366093371887e-01,1.780617032144122147e+00,4.928135589574848541e-01,-3.852157668684665082e-02,-1.108321486164886682e+00,-1.331178162764677708e+00,3.824351785693395067e-01,5.344326437254252188e-02
-1.130967492975293309e+00,-7.110434468833903843e-01,-7.817111925392830618e-02,-8.078490328812688581e-01,1.282900012770038733e+00,-2.465971976633274831e+00,-6.884878873992964464e-03,9.202694834522335832e-01,-8.126998011260046229e-02,5.395063780889876037e-01,-1.191679207020727160e+00,-7.991996353509351891e-01
1.123110163502249875e-01,-4.705037297790272133e-01,-6.395842937589393817e-02,-1.003345684272345828e+00,2.715701716159361290e+00,-1.978672605547293351e-01,5.206597524343777872e-01,5.945572135396963720e-01,-4.929071295820398046e-01,-8.724878325077485286e-01,4.429869015679415711e-01,2.550121920461618230e-01
-7.185367921472426422e-01,1.790624663993649335e-01,7.013289154423274496e-01,8.319162036302640839e-01,-9.279048852786444535e-01,1.075789048106694290e+00,-2.218368222334102802e-01,-1.848005510722167344e+00,-2.966275306309011373e-01,9.319816917751373442e-01,1.483469828391257295e+00,1.689059601503480890e+00
-4.928438247847050091e-01,9.292726863812277305e-01,1.288322238127666219e+00,-3.230737541296920812e-01,-2.239216950376330395e+00,1.087988697819497697e+00,1.198268072011610952e-01,-4.018170345613402694e-01,6.270431046304032474e-01,-1.642681295845112688e+00,-1.760169741428885049e+00,-1.680095703247625749e-01
3.082640693276346693e-03,1.076258027520797939e-01,-9.910580954281514865e-01,-2.741819500704972601e+00,-1.043825287677419000e+00,5.511268862263180024e-01,1.400206691905670153e+00,6.150395874790086648e-01,-1.593321673368947866e-01,-7.366320892191724479e-01,-2.379496567716298250e-01,-1.410273115504933283e+00
-7.549548594952874003e-01,-7.627044723657268044e-01,-6.523779045785486064e-01,-3.882448771658372766e-02,9.105088278845664407e-01,-4.095209015555761334e-01,2.518510968522129079e-01,-6.421354490090374068e-01,-1.312802391455317741e+00,-2.665460198128260516e-01,1.283397556631572234e-01,9.346081599451985245e-01
1.355150674327106897e+00,6.535230836422370460e-02,-6.750777967373402522e-01,1.114973504583789410e-01,-8.053705945400982946e-01,2.869349521140174275e-01,6.724737175270202316e-01,-5.893888493262490202e-01,8.288353924699012332e-01,5.604672860914655663e-01,-7.555697827229558294e-01,-3.864789932554215657e-01
-1.295544929521048383e+00,-3.792099551924623668e-01,-6.429270760127905326e-01,2.866735653802340855e-01,5.311534867358529421e-01,1.863466293363713888e-01,-1.567551597225927962e-01,-1.266168688074947646e+00,1.450054432613244737e+00,-1.337004378347297351e+00,6.579832680590167460e-01,1.113728622788395572e+00
-4.705930374939041316e-01,6.638720239137574364e-02,-1.004655675518817542e-01,1.631180777844368768e-01,-3.659430681768230942e-01,8.517388491686245233e-01,5.523476564721115784e-02,1.045932989546509040e+00,-5.977067166275490395e-01,-2.790482268726104387e-01,-2.083791487864040004e+00,9.630190853090917491e-01
-5.214932210191667306e-01,8.405674171051710220e-01,-9.486776105585279506e-01,3.081985049034586810e-01,1.498325724848301510e+00,1.667292609287874816e+00,7.532557626172582399e-01,1.151478075648010968e+00,-3.229365849073190797e-01,5.375286830563191787e-01,-1.525106460353839177e-01,5.843086178398729791e-01
-6.762166483298420738e-01,2.000755657932822285e+00,-1.138865784250310931e+00,-6.099306713933426438e-02,-6.376130520173102223e-01,-3.801198623655146491e-01,-1.188662882276750876e+00,-3.806444046366911582e+00,-8.987613786144944550e-01,5.198169384414145222e-01,6.712287646454877521e-01,2.536620868431984643e-01
1.801032777229867252e-02,-1.114564808950018887e-01,-7.510121040537250936e-01,-5.711791505754063580e-01,1.299588109793106794e+00,-1.440832170375499821e+00,9.613799715240513022e-01,1.113227547881821655e+00,1.883515768971423809e-01,2.522049138310231142e-01,5.298895572543070864e-01,-8.584006464983194862e-01
5.758285280495532010e-01,-1.190071271246071927e+00,-1.305951264534188194e+00,2.884498256819600370e-01,-1.570786585482084385e+00,-9.594951325309252210e-01,6.757004150120072827e-01,7.574683686798225901e-01,1.281624870828362850e+00,-3.998683092757331359e-01,3.784301823891773053e-01,-1.673142956907374357e+00
7.218517929922038112e-01,-2.566079134632436864e-01,-7.489487102524901296e-02,3.069122479189004271e-01,-3.006080104247773610e-01,1.978368362408380599e-01,4.091389036550166503e-02,1.050622226415361737e+00,-1.294160427864052831e-01,9.112459230868569238e-01,1.178363208117120475e+00,-2.274878075112628295e+00
-2.357594261888370291e+00,1.613227113813789637e-01,-1.481592574793338946e+00,1.661713376013622123e-01,-6.064815781584058652e-01,4.598236302458342389e-02,4.528155461086219580e-01,3.888047081951451212e-01,2.457378040973953737e-01,1.350684073176834143e+00,1.684335554572106153e+00,-9.444185189986302464e-02
-1.184228708656827722e+00,-5.643624294620168680e-01,4.596454178402597512e-01,7.008226307695217816e-01,8.315688470958114697e-01,1.903432948327449692e+00,-9.615815922765887924e-01,-8.011994624704467105e-01,5.595427883555496029e-01,4.239722210931966551e-01,-1.111800357008440043e+00,-6.125481137056396630e-01
-8.655778232859284715e-02,4.609746617969073812e-01,-8.286958781271055452e-01,1.005873166892425896e+00,9.088555822075448098e-01,-1.570893218195546615e+00,-1.157972679070108812e+00,1.193474726023577182e+00,-2.880036549105352006e-01,1.172538332076795475e+00,1.389972884708446099e-01,-9.660306379730720927e-01
5.598029465884932776e-01,1.091828155028998076e-01,1.440586045785456071e-01,-3.161267548374056546e-01,-1.356851202362748587e+00,-9.766848557004271791e-01,3.137630657442875282e-01,6.678684713849786236e-01,2.206579353578674851e+00,1.548693618267981548e-02,-1.253343841753840504e+00,-1.014605952614849316e-01
-6.607412943125404725e-01,1.171673181861737190e+00,3.744844178461020356e-01,-5.570819260052064514e-01,1.140609279766805068e-01,-2.788659506076162087e-01,4.152833629194455090e-01,4.374740460305278633e-01,-4.287896800943440390e-01,1.250147086116679240e+00,-1.216268292018024555e+00,1.266988589257976638e+00
-6.960974077759665146e-01,-1.308385494785388126e+00,-1.524022689038943279e-01,-1.424964741324058037e+00,9.391649808396356214e-01,-5.911375414028576802e-01,6.601663607401772604e-02,-2.109860211784415629e-01,6.347369463440708515e-01,3.067523045114042279e-01,-5.704737929283663911e-02,-2.928608479360759187e-01
-2.244904432422001328e+00,1.743433902237885524e+00,1.380055006033042986e-01,-6.956724567867447195e-01,-3.068118433863435413e-01,3.177409442147671736e-01,8.678297329743478580e-04,-4.399270719984461064e-01,1.515079466278669074e+00,-7.916217534506256315e-02,-1.053420206029624273e+00,-5.556106930531683474e-01
-6.790871802175085792e-02,5.112148464822368066e-01,-1.820595338101201333e-01,3.049513014281783341e-01,-1.785144770690720584e-01,5.710864280968963591e-01,-1.465045640707028085e-01,-1.688115221959995527e+00,1.228189605901828907e+00,2.240424209162949598e+00,-1.042750137048052084e+00,-1.093938567817393376e-01
1.083141829187831195e+00,-1.303827969645039025e-02,3.367085489135068777e-01,-1.118699715459397837e+00,-5.664525966677991242e-01,4.637450286992426118e-01,-8.232109878686846294e-01,-8.578827809583022823e-01,-1.705260940858958962e+00,9.717963557607847136e-01,9.725273545712765921e-01,2.756577160084608957e-01
1.742202202979007630e+00,-3.101279086967884124e-01,1.278297997545950970e+00,1.710485493842071325e-01,-9.216570224979644399e-01,9.963820124588946836e-01,1.080588451762125146e+00,-5.954159663258223878e-01,4.936914391324958018e-01,9.181574122504713165e-01,1.685862262108713816e-01,-1.538159627863086687e+00
-8.630572291387375028e-01,7.708275020702864966e-01,-2.583218834922987317e-01,1.341761592261441649e+00,7.389555699438122849e-01,1.218032528576885154e+00,-1.711433420693380114e-01,3.072573919240501050e-01,-9.329455028712007048e-01,9.008521190347119623e-01,9.985698205511827075e-01,1.114675410895976659e+00
9.035649138893577792e-01,-5.914364148339491534e-01,-2.914700406405649202e-01,9.566403126562621206e-02,-1.552106056509753751e+00,1.044598112479811158e+00,5.833843564989390496e-01,-1.033282871522249180e-01,3.213539373714395242e-01,2.846785519854418967e-01,3.272088618343892419e-01,8.124804202970518086e-01
1.128711699616597591e-01,3.486042478345530160e-01,7.434857844193007992e-01,4.661750443246525655e-01,-1.011181516045372014e-01,-1.316435821245544036e-01,1.436249168223203254e+00,-7.706175289290171371e-01,9.811664938387317791e-01,4.283267345857260655e-01,3.658135102014334894e-01,-9.263602790397479358e-01
-2.232728303294703842e+00,-1.177903381590012843e+00,4.548219019023276299e-01,-3.400267146105439564e-01,5.188738202687642742e-01,6.516446603875446220e-02,-5.641601075986613090e-01,1.996547701855891255e+00,-5.343100736319130739e-01,8.006461544690344212e-01,6.506677895093322395e-01,-1.427120515130796408e+00
1.455591975378348613e+00,3.610305443789638136e-02,3.832858345025647040e-01,1.230777454750008187e-01,1.039272352359841500e+00,1.214792455000111238e+00,1.212654788292661934e+00,1.999664655871686625e+00,8.204889558419539153e-01,1.296446663948986888e+00,3.076187188237951009e+00,-1.726152781915159862e+00
-3.195511145932554697e-01,8.667834682734871787e-01,2.244145319134412675e-01,9.969063903739791566e-02,-2.036754572668281471e-01,1.073556417907794991e+00,1.888484119849505927e+00,-1.659078572352033154e+00,1.504030289192705538e+00,3.885687069677903893e-01,-1.372638366351374817e+00,4.497123609695666789e-03
-2.062069491788778741e+00,-2.805378896037059588e-01,-1.234847253197969730e+00,1.862759059825226382e-01,6.794799780135672984e-01,-5.686990151933201121e-01,-1.358124871765086228e+00,2.940330026413294218e-01,-1.417484533206709862e-01,-2.976459983752097194e-01,-9.599079705833497567e-01,-1.681749396166600130e+00
6.350527716250961019e-01,1.335205071107070873e+00,-1.069059224623065241e+00,-1.473835973004603561e+00,-1.869228597287389881e+00,-4.742011116282141003e-01,1.271039318586288269e+00,-1.644730964521926297e-01,-5.893832276565056372e-01,1.917264409899034350e-01,2.451162008956149219e+00,3.018201367188537154e-01
-1.869997800795926368e+00,-1.125899131390050156e+00,1.218407284737529572e+00,3.178101833193926473e-01,6.670718567195764725e-01,9.781429936829122429e-01,3.038284208184255930e-01,-1.976386523621549429e-01,2.373191693812578273e-01,1.533620509758659489e+00,2.354122427072946888e-01,1.438915720893386041e+00
-4.637087472501220942e-02,-2.534836799100229077e-01,3.441428104188452020e-01,1.733818743288528252e-01,1.445411802610553131e+00,-1.407133355507809380e+00,-4.250703718890235794e-01,-5.962987666319446989e-01,-1.138262488315572973e+00,1.579863031572677157e+00,-2.125869970995886149e+00,2.249728441655712174e+00
-5.438016945544611458e-01,-1.995673425697516379e+00,7.105110230148526940e-01,-8.905453158320449925e-01,9.293214079068615741e-01,8.614424905265577470e-02,6.027486599056389727e-01,1.512549960941371285e+00,1.744451525002133963e+00,-1.083103712207785563e+00,-3.680931348299283368e-01,-1.041076905672237984e+00
2.189863928956654604e-01,9.395099220742028079e-01,-2.651209007737198239e-02,2.044221781715732877e+00,-2.515391214442191381e-01,1.960434381479703725e-01,-1.014176688327580234e+00,1.270498884636554582e+00,1.114386721889995879e+00,-5.664459297501408530e-01,4.770949485677090651e-01,-7.493171487402650044e-01
-1.001081971841664364e+00,2.554599507846024853e-01,4.080930847826378383e-01,1.092179488163393941e+00,-8.989834042894971899e-01,5.132605479307715823e-01,1.676604943921553126e+00,1.028310386788358066e+00,-5.064066853556776354e-02,6.496089915179269481e-01,-1.970454865626731777e-01,6.731190085554002167e-02
7.812693251652023108e-01,1.403519553754810856e+00,-1.554955128930959996e+00,-1.376188004141161825e+00,-1.213755481219812804e+00,3.283832626346280259e-01,-1.465114222356524165e-01,1.158889622257481156e+00,-6.131655351312158553e-01,3.006729850230626666e-01,1.064853838441232936e+00,-4.413398635567515882e-01
5.162262319861983251e-01,1.353328094185518582e+00,-2.153557625465185865e-01,5.266413333251620393e-02,-4.765257705250886544e-01,4.569699745025139759e-01,8.889575170188578346e-01,4.438806439608283805e-02,1.857842746295445546e-01,-2.698039892233113357e-01,-4.971813844042425323e-01,-5.451391707897544903e-01
-8.531321277869671205e-01,1.927250502741340021e-01,2.772909067061975485e-01,-1.287814154554828505e+00,8.232208110511483046e-01,-7.702433932667361871e-01,-2.553461906949617416e-02,-7.342622369869470367e-01,-4.156723275046964594e-01,-1.446634265356465388e-01,-1.563857963035024667e-01,-2.954631921241572257e-01
-2.811043198526661513e-01,7.704672824961716904e-01,1.344290646426941072e+00,-5.188386553356296726e-01,1.138704697272489505e-02,-6.238877253298891201e-01,-3.461479077867637422e-01,-8.520012869226863961e-01,4.045485854339587739e-01,2.546622839968851748e-01,-2.144383106198363975e-01,-1.216688350385821904e+00
-5.086557050491685716e-01,1.459091531812342635e-01,-4.355662493098206300e-01,-5.656206324471811930e-01,-9.724863785273566430e-01,-5.426733446165779018e-01,7.209279777846682169e-01,-1.361514045299986320e+00,7.648175439533889675e-01,1.173965908912299572e+00,4.801437827433345795e-01,2.480656751885663258e+00
9.637423580233154263e-01,1.278293806839997382e+00,4.686041280705229295e-01,-1.541641228760709748e+00,1.432370573540084235e+00,-2.080957778218346932e-01,1.100983604742798994e-01,1.376290587456052705e+00,-1.016108710697979811e+00,4.773781495086680260e-01,-9.775892390543796662e-01,-1.350872346823610570e+00
-1.617660775675680562e-01,1.943166912086104148e+00,3.724974982603280749e-01,5.499033628400337159e-01,1.526245283095472860e-01,-2.018328337741974732e+00,2.222257690918494621e-01,-6.712299545784116139e-01,-9.513673611336809222e-01,-1.144590071494211957e-02,3.903754268377437331e-01,9.271620743191185676e-01
1.616320070324296365e+00,-2.513293106850314373e+00,2.250705346925211681e-01,5.064640543159104613e-01,-6.727728368104451961e-01,-1.938861546702075556e+00,-5.957463305959460609e-01,1.589778328022644516e+00,5.503376719670208805e-01,-5.564834846865628071e-02,2.223341730932269389e+00,2.000242148564737241e-02
-5.038924374057999200e-01,1.739498288480201049e+00,-1.236861817314308110e-01,-1.766899700473268525e-02,-1.154618461276875285e+00,-1.023143880075973344e+00,-2.189308784399828234e+00,-4.182722129333418248e-01,-8.730938304456172805e-01,-2.269549164071438696e+00,-4.307165722526875573e-01,-1.720909624412218175e+00
-6.226650991354322207e-01,-2.649648929316458790e-01,-1.061707246822358508e+00,9.754699750037588712e-01,1.607206233900011216e-01,2.627320457243490281e+00,-6.146210436605660243e-01,-1.066910931148615349e+00,-3.526064947799854576e-01,-4.056441500611360218e-01,5.384329684344310030e-01,-1.937897295179133117e+00
-1.301469494060528254e+00,6.476015378623740659e-01,1.111189914709420856e+00,1.624251735025868726e+00,-2.717866589907549368e-01,7.841416756671995558e-02,4.865804580491251558e-02,-3.457855267706493319e-01,-4.824566883506072323e-01,1.325580928553779403e+00,7.224852586207186622e-01,-1.130664674918968826e+00
-8.297558783772999158e-01,7.834991333375356248e-01,1.488510007422553683e+00,6.274817236104331952e-01,6.407035329896469955e-01,-3.768978938291109859e-01,2.891593634204397745e+00,-1.323906014316346580e+00,5.968336467275541235e-01,1.282718602546092379e+00,-7.765449149004224338e-01,5.025599345274937013e-01
2.447306924266320072e-01,-1.018605918607018879e+00,3.205776548866414721e-01,-1.146040448503817394e-01,-6.662743306923958608e-02,-7.200081737729253639e-01,6.099740668606901117e-01,2.093143769522960718e-01,4.445026650331763696e-01,3.557102440700811719e-01,-1.236027002107931982e-01,5.953551725428724017e-01
-9.941124299404917597e-01,-1.818478657041751878e-01,8.079302641250629691e-01,-1.665925106650249399e+00,1.256317064154322649e+00,3.509298648395663967e-01,-9.561911920211620952e-01,-5.206602545994065689e-01,-2.953208031701844427e-01,1.867079801608716727e-01,5.519490590723397094e-01,-4.182705774881976701e+00
7.731966692729054236e-01,9.278820942139627270e-01,4.272533336164083262e-02,1.594296436892585600e+00,7.546447152602023256e-02,-7.283280658630942872e-01,-1.796821622662064577e+00,-1.484982775498061569e-01,1.317361460387435068e+00,1.408365536508955351e+00,-1.590970514556038440e+00,-1.497163609277536445e+00
-3.989533534314422258e-01,1.510854762427931375e+00,7.722470329623375429e-01,-1.228642487856707932e+00,-9.650047451258741971e-01,-1.268076546581516251e+00,9.221750761593043577e-02,1.014644437786718534e+00,1.856503709188771278e+00,2.858185899014887288e-01,6.576145613410501189e-01,1.242903796624021369e-03
-1.444631318477805459e+00,8.567471679723267508e-01,4.989090908431526583e-01,4.476937808918676209e-01,-1.304460294810917409e+00,-9.311992194419732582e-01,-7.553031465997069038e-02,-2.142415823237403316e+00,3.222880735823428489e-01,1.367818994230544760e+00,-5.220685272677278999e-01,-1.001458436594873325e+00
-1.103828182577148098e+00,5.375043133071378820e-01,-4.949726526549550476e-01,-4.189612174688673862e-01,-1.124669024222188174e+00,-4.810741546075188446e-01,8.989844987534902909e-01,-1.563711832284383707e+00,6.741743127568541327e-01,4.431351799056191254e-01,-9.337250534400957924e-02,-8.576507921739108253e-01
9.689703788147405877e-03,-9.617747198251764829e-01,7.818232528483676225e-02,-1.299351105601217915e+00,-1.759858984166603468e+00,-1.006443968136041534e+00,1.527052612038960755e-01,-2.277981535678048897e-01,9.209311738649719192e-01,-7.006350035789646880e-01,2.033602763389795953e+00,-9.655978792493645768e-01
1.292041951776507158e+00,-6.041342260761205507e-01,6.447444314323480530e-01,1.744847568379200853e-01,-3.145332570953267015e-01,5.456190457462412047e-02,3.562412004211291117e-01,1.263736807687053210e+00,6.789373085007288644e-01,1.687918803068004514e-01,-1.960805047180344263e-01,-8.041099513546753341e-01
-2.972380332970570027e-02,3.889757627672640883e-01,-1.619274824460567475e+00,-7.040106592357753268e-01,-3.246490331685741304e-01,-1.842676087011449582e+00,-2.604259799075343829e-02,-5.106004637648938783e-03,-2.033698294214573155e-01,1.307610711906801448e+00,-1.231591650824275519e-01,2.752064505070246914e-01
-6.088377006782832446e-01,3.973796990194652934e-02,1.401789800288474774e+00,4.187131897117446488e-01,-6.742612731387298552e-01,-5.732340641745662380e-01,9.613862368741440401e-01,2.193252337770733584e-01,-9.346215989998652995e-01,7.627967353315691090e-01,3.757689036054190357e-01,-9.117108521867132165e-01
5.879125950855020877e-01,4.736374723806348053e-01,7.599673187480788794e-01,-2.913463607721132331e-01,-1.954960257242827515e+00,-6.339804562587978420e-01,-7.497276860635553319e-01,-1.013529966735754635e-02,-5.254658897282269425e-01,1.073884887117668274e+00,-1.036566310304631422e+00,-1.464341106365196987e+00
-1.342767179145020640e+00,1.356416249522529593e+00,6.288035971807447444e-01,-1.547353110729661640e+00,-1.197444541419443453e+00,-1.179989967067288648e+00,-4.309571119441092946e-01,8.423377320564449100e-01,-1.202317624359422910e+00,8.361615474072330301e-01,-1.130895520828722578e+00,-5.915305544459594778e-01
-1.270603287379590052e+00,-1.342131986935997667e-01,-1.120495438992789472e+00,1.282793131639902606e+00,-1.597573170990593372e+00,-1.364008323161989278e+00,8.387496676888758218e-01,-2.853252926474993956e-01,1.451388664997639022e-01,-5.044751140337835338e-01,-1.141178312958990526e+00,-1.300429594583178305e+00
-2.101671074517500182e-01,1.409223495386493274e+00,-2.354399578372970703e-01,-1.328950086784310036e+00,-2.739952814273484138e-01,6.454047183359646889e-01,-4.254834863920733956e-01,2.205662486442917736e+00,-6.775587642357239204e-01,1.514167776623478234e+00,-2.625973214119520782e-01,-4.562711937394283157e-01
1.433545191925577278e+00,-4.252279751320173912e-02,1.007035083047048252e+00,3.373814675453787881e-01,1.933120004159291083e-01,-8.285376474270302882e-01,-1.364062467104960374e+00,-8.397193279576495861e-01,-1.268880209565258488e+00,-9.575985138108374095e-02,-8.996657459732380069e-01,-1.337391431778374606e+00
-1.485075140749725631e-01,2.055608699640739667e-01,8.702926112033645412e-01,-9.291187839699490691e-01,5.748559878340755436e-01,1.450174775052963438e+00,1.141322345645334302e+00,7.135803132105285329e-02,1.650735681634267829e-02,-1.058101613489589754e+00,-2.204913920749264067e-01,7.665349782401289502e-01
-1.058475442357714069e+00,-6.454866257069601376e-01,-1.380285479234129253e+00,-1.257982062277627489e-01,-6.458184025576509113e-02,1.749592836801474316e-01,1.101265933148694476e+00,-1.171515015138099969e+00,-8.491921666157586923e-01,-2.188776262923844307e+00,-3.863685930379378575e-01,-2.563955786938192816e+00
-2.793826781787733249e-01,-9.233852399974828984e-02,-4.929973527977608017e-01,-8.993643563169879673e-01,1.163016616680499160e+00,-1.048262782854599173e+00,1.797011318480038200e-01,9.089502759144961752e-01,-9.706275015884731072e-01,8.791494419351506551e-01,-1.700338040581938603e+00,8.493418150894066487e-01
1.283263777437508857e-01,6.065084316229855249e-02,-9.031893532747155007e-01,-1.762282621403445104e-01,-3.850167023020201196e-01,-6.034733580625215588e-01,2.455538237157644854e+00,1.718663340045741839e+00,-2.918964653703322587e-01,-5.048885967762192228e-01,7.695860564074804566e-01,-4.546698823700767167e-01
-2.372300266471810970e-01,-1.715940728615728661e+00,-1.444162907549929875e-02,1.100799937476553803e+00,-6.087282502035393228e-02,-1.483688172605075684e+00,-2.704974458389736158e-01,-2.568551599211768011e-01,4.521447582780308005e-01,3.904507068315533624e-01,-2.558622997480866079e+00,-7.155790264750981899e-01
1.235038132421075296e+00,-1.707804261737072837e-01,1.934305543653911830e+00,8.357744769909908333e-01,1.631049995397922503e+00,9.330714804261064366e-01,-2.992213805048015152e-01,-3.122575082944696878e-01,1.172258489906841783e+00,-7.235215665922395401e-01,-6.578670338316556787e-01,-1.818432049498157843e+00
-7.050742781647294510e-01,-3.143541264017442050e+00,5.007454898800054455e-01,3.307832053532813177e-01,-1.477927237539053085e+00,5.095556411269641650e-01,4.097612562895004418e-01,7.122359193593736926e-01,5.132267800391223656e-01,-3.034236211557943097e+00,-9.589289610987030699e-01,1.383919582619505650e+00
-1.388508089577472404e+00,-6.651501056227415720e-01,5.421532488351786805e-01,1.081945799236225136e+00,-5.011094963260962487e-01,1.239503197988057748e-01,4.142822951822008881e-01,-5.250474551817508884e-01,1.690143526339922486e+00,5.315439073137362413e-01,3.130513465839101506e-01,2.490089648707986658e+00
-4.286889680259785007e-01,-2.966491037113196394e-01,-7.139075738836616614e-01,-1.956523732583739517e-01,-5.523501586019686771e-01,1.528532469494282564e+00,-1.131086947629978967e-01,3.874671241395633570e-01,-5.712313757531342628e-02,5.358778941440319743e-01,-7.270628952745262774e-01,6.975493076641043899e-01
9.876848917650039583e-01,1.077607376112996951e+00,1.615914542951343735e+00,1.119308885689740851e+00,-1.750976843293176488e+00,-9.660884625664932779e-01,4.946479387881805301e-01,-6.529732814779598549e-01,-1.636258879106657071e-01,9.085387570254126466e-01,1.791423667516267138e+00,1.584749103226816003e-01
7.998561700748162417e-01,-2.416404165012552840e-01,-1.034459266450182158e+00,-1.394233505702682008e+00,2.650676758073880368e+00,-1.517106402135557641e-01,7.778435719497023282e-01,-8.742374929259507654e-01,3.281892048378266535e-01,4.333685260144917728e-01,1.147429886381882008e-01,1.249337320959665432e+00
-1.191064120449667474e+00,-7.110658105314466848e-01,6.235867196023506809e-01,-9.507640872285754163e-01,9.742201558041323484e-01,-1.841820520313864618e-01,-1.378457277245146884e+00,9.623407914575147215e-01,-4.138573652592121843e-01,-8.464152064347826299e-01,2.944581512454724326e+00,1.563161640491388393e+00
1.550041844216397957e-01,1.625896369203385372e-01,-1.866061478489683845e+00,-7.043446531092399931e-01,6.392143071316144232e-01,-1.961125168405616626e-01,-1.173309549087580284e-01,9.821813866262647519e-01,1.114961938419329002e+00,-1.059309820434696903e+00,2.753935914181857361e-02,-2.368093437782369026e+00
3.372767611887982353e-01,-1.803082595608568539e+00,9.069882005768375999e-01,5.769489575362620748e-01,-1.578189848366120529e+00,-9.201589652379335016e-01,4.619121822802257915e-02,1.946188374623643580e-01,-7.482817611982390815e-01,2.831296369752009934e+00,1.097018655198338521e-01,1.135691119670495963e+00
7.740074144762528752e-01,9.984035873464561783e-01,1.786900352755468879e-01,-7.043203518795427831e-01,1.929456231575107095e-01,-2.260305000263648889e+00,-2.132260709605398041e+00,1.135573051837805714e-01,-4.774830037190248150e-02,5.134472814547728081e-01,-2.769896648087741275e-01,-4.453142772023146317e-02
-1.604507083034883319e+00,-1.812207574590243730e+00,-6.421088854212101404e-01,1.142853290425044133e+00,1.316231519233660441e+00,9.220240196536888533e-02,2.711362683760591086e+00,-7.060692183028273172e-01,-1.462962135720668133e+00,1.638677942997555093e+00,-9.845736580839703489e-02,-1.637736333823511359e+00
-9.041761924859684774e-01,-9.557847534130370359e-01,-1.987885912649740128e+00,-1.117753467944708312e+00,-1.156316265422755452e+00,-7.271236115971942970e-01,2.706627674189065469e-01,-2.047986824164749642e+00,5.412410345131655198e-01,-7.378353215818347355e-01,2.432797784419660492e-01,-5.940190704279731948e-01
-1.592378634659001202e+00,-1.271177514536145914e+00,-9.868352102883589660e-01,-6.891933772759342713e-02,1.221083493380311635e+00,8.912714656881608466e-01,-1.026988444438730053e+00,-9.857527997260915331e-01,1.306448815278355546e+00,2.128287754117617059e+00,-7.540955756305128821e-01,-5.380941708726046935e-01
-1.973760032725689895e+00,1.015334311323931260e+00,-8.417852656185690341e-01,5.104888242193487274e-02,1.380778855327553234e-01,-5.986033981244373026e-01,-1.141224751018999450e+00,-1.018366115057474985e+00,-1.426004623694234974e+00,7.808850564220350954e-01,-2.106907307745258251e+00,1.868996076788687066e+00
-1.178083948125287606e+00,9.321845949798055475e-01,-2.617906426507001338e+00,-1.048127300387178718e+00,1.111914305807004233e+00,-1.274969862222130157e+00,-5.504767527582621334e-01,1.426691977003168577e-01,4.062461874310528964e-01,-1.356604334489346642e-01,-6.707505745833205468e-01,-2.093664648501249559e+00
-5.722798057228237756e-01,7.000070258336590356e-01,-7.211489278259865243e-02,-1.055780619454027125e+00,2.193578709930274595e+00,-5.467436512013332806e-01,7.938282952619206689e-01,-1.142190501778033607e+00,9.883942830400198609e-01,7.709954930675709805e-01,-4.254073404485015364e-01,9.186347262536010971e-01
-1.412663307834332249e+00,5.803378753648764654e-01,1.553857673833347386e+00,-1.464375125290875879e+00,2.463172306158966318e+00,-6.751349974625116268e-02,3.942574883255294260e-01,8.762643276947793339e-03,1.670900653182135764e-01,1.233762057945222645e+00,1.168913884124314073e+00,-4.272840044146537508e-01
-2.504883881872320028e+00,1.769046538704653226e+00,-3.312731269983740234e-01,2.260516897205873399e-01,-1.007758407958045055e+00,-9.001736503684507618e-01,1.209667676954159887e+00,3.161203266167846859e-01,1.070304593368256174e-01,8.997266697452095396e-01,-1.611494901738784735e-01,-3.394041390456235541e-01
-1.348236788659236352e+00,5.768338887479148580e-01,9.910847707981051968e-01,-2.765642749821125346e+00,3.437901162978701519e-01,9.829430017758510330e-01,-1.436552456411388068e+00,1.033603641924629377e-02,-5.445360343529936920e-01,5.867175843799062873e-01,-9.479236987235615253e-01,-6.312933018116554384e-01
1.430759523826271584e-01,9.482869695483197026e-01,-4.175696777842138330e-01,-4.573449769331713877e-01,-1.497608682284002901e+00,-1.382643397853809297e+00,-1.206459480107825166e-01,5.209434763587358352e-01,-9.047724390062515665e-02,3.892056650047024946e-01,8.318474316475061858e-01,-1.079256803913710705e+00
-6.767714748063843877e-02,7.267714291812334970e-01,1.374810329563076472e+00,5.841338341509672710e-02,-5.449900943098321404e-01,-2.852013832258276094e-01,-3.153659871601962039e-01,5.230249712729427847e-01,5.271100365868032211e-01,9.726529457278648705e-01,1.332363255078725883e+00,-1.490006572436979315e+00
-5.553230979343741769e-01,3.749765065088090932e-01,9.057343678673306364e-01,5.072801091231632364e-01,-7.846562771679960191e-01,-9.035235820513547456e-01,-1.535233349677287640e+00,-2.973502762707881386e-01,8.051090292462720344e-02,6.478837444590014594e-02,1.123074049142870345e-01,-8.263845799249859292e-01
1.064703746861732192e+00,-1.523124307698227875e-01,-9.172829193459588470e-01,-3.677756791079482279e-01,-1.699465557202528787e+00,1.754467903739110657e+00,8.211101811128771466e-01,6.219590697399479673e-01,9.244023496696904818e-01,4.734261477426087161e-01,-1.140306705387481301e-01,-8.054625432291029341e-01
-1.179920464543307901e+00,-5.816674130193677517e-01,4.570617767985647451e-01,-3.559580334213754971e-01,1.051613854231490564e+00,6.306060176130097450e-02,-4.941274969419610641e-01,-8.953475863575770521e-01,-1.932273666639921228e-01,2.540321607374395718e+00,-8.852828359900558053e-02,8.906897789960572798e-01
-3.619333393101005214e-01,-3.235132297442747662e-01,7.588738624363309260e-01,1.004714338551177866e+00,-2.437580703818263972e-01,1.708291175550307184e-01,-1.225391120020207003e+00,1.261295726765456537e+00,7.853109734814822662e-01,3.022659568246887501e-02,-6.327849139255909972e-01,4.560316900044152355e-01
-1.451783053798632706e+00,-1.529438154104545866e+00,8.964808532285581943e-01,3.687667099480725352e-01,7.920349135849009681e-01,-1.631985249998174903e-01,-1.889148809747448698e+00,9.282128288059481314e-01,2.706384326985268873e-01,6.375696539686659392e-01,-8.514336060981975152e-01,1.793219763863637128e+00
1.276428835107312976e+00,1.203489072441927377e+00,1.484817603462158297e+00,8.022946998006738051e-01,8.689450100677303945e-01,2.408131098259492231e-01,-1.738429931787883298e+00,7.068189148570701574e-01,4.057921196435008149e-01,-1.352040910440558685e-01,-4.387151979739060126e-01,3.860442073279053421e-01
-8.050717385936544401e-01,-1.505938479045617173e+00,-1.363251927535023000e+00,2.843983509830932954e-01,-1.252925651106082672e+00,2.539101823291506355e-01,1.719807906927536545e-01,-1.595954958634352661e+00,-1.624527206028471671e+00,8.302535389130259735e-02,-3.868030357596015101e-01,5.616531001436980697e-01
1.096256655153817344e-01,-4.529038102533385346e-01,-4.622972526033897744e-01,1.506247392230088300e+00,-7.335549603019595466e-01,1.085099140068246509e-01,6.261934178561090469e-01,-6.848300870626368164e-01,-8.906938929269540006e-01,-2.493652951279600460e-01,8.484138517129878876e-01,-3.518782751214750704e-01
-8.241626359328828588e-01,-6.496989468309494198e-01,3.890633384885263113e-01,-4.664651457995477868e-01,7.144819634505999995e-01,8.880746771318582811e-01,-1.111449016336394507e-01,1.163699879306400314e-01,-1.327249238317338875e+00,4.340608009929118882e-01,9.452008288374358358e-01,7.654288382875792385e-01
8.166800048516140720e-01,-1.822576766694736783e+00,6.826950549897843334e-01,-3.625821752743205173e-01,-1.991145715999742771e+00,2.383030190769712120e-01,-2.651864970106982966e+00,-1.466205941548343328e-01,-8.590067575801432209e-01,2.374958785970248787e+00,-1.550203217740017125e+00,-6.552293532516935137e-01
1.688804050333036377e+00,1.438540787190616677e-01,6.554312050764807829e-01,-5.551372560093732478e-01,8.837280578149728921e-03,-9.302770719974440272e-01,3.002889340860916412e-01,1.174611140001106113e+00,-1.277149960739919266e+00,3.454721494554141570e-01,4.470510545589858054e-01,1.720519239447272641e-01
-1.235832395091151836e+00,-1.312034181825953716e-01,-7.828712808697145809e-01,1.033661016139188815e+00,2.977968472454112780e-01,3.358230776200070711e-01,7.577956901575787496e-01,-7.792099875627328531e-01,-3.511205089387349210e-01,5.720179078572374953e-01,3.296621143869192250e-01,-1.187163526473278941e+00
-9.477657265505429196e-01,-7.254122537917213620e-01,2.766858660465959519e-01,2.355008889138041184e+00,3.029626622461532914e+00,-8.883765571406490591e-02,-1.154173057410039283e+00,9.060680653022988862e-01,1.861206632505539194e+00,-5.633016408385643770e-01,2.135434609016161112e+00,-1.486224603105238962e-01
3.071624160779269364e-01,3.289038184208439158e-02,-4.972636610670146950e-01,-9.035831175449401953e-02,1.971906163693491143e+00,5.632086330700336596e-01,-1.772631776719989727e+00,8.344768127245170142e-01,5.055035472896172166e-01,-1.054674922715818086e+00,9.617478834394030951e-01,7.945141649627894820e-01
-1.575890940292922648e+00,-8.332104892386431594e-01,-2.366957909116371161e-01,-1.948702609832192678e+00,1.127643995505182462e+00,1.658560426796511056e+00,7.776197782837322992e-01,1.007102025209073215e+00,-3.583304813079614126e-01,3.723907055131355226e-01,-2.786754690770921972e+00,-1.624200357483294166e+00
-1.062237924018642365e+00,-1.309205315049467799e+00,2.271469358137375993e-01,-3.601218190550484755e-01,1.042549955248601945e+00,-8.661349759863453679e-01,6.134849302790009729e-01,8.693723332427411021e-01,1.517164987329158388e+00,2.456076152125863832e+00,-7.829248185476647137e-01,4.171591465614333250e-01
-4.244616972592142323e-01,7.193156061816169400e-01,-1.313692103581110215e+00,2.474309606456192856e-01,3.899031246692412078e-01,-1.070973267764322667e+00,-1.294284221221161157e+00,1.065290107331863911e+00,-4.787379436249600273e-01,1.059122960498779520e+00,1.680189914414570662e+00,9.965917267816255531e-01
-1.690040561850537415e+00,-1.128334097037998029e+00,-2.221263806389595530e+00,-7.790768000888851352e-01,2.673720275535176327e+00,7.853455178163488704e-01,6.532721734998655494e-01,1.050885844609191988e+00,-6.253049355950809907e-02,6.834613978770135434e-01,3.216377842582071600e-01,8.368851450533062453e-01
-3.381984894274755460e-01,-2.530315775709171433e+00,-5.254965781457695551e-01,1.411184919402836413e-01,2.394421135773811660e+00,2.520718384584929583e-01,1.226335500686040803e+00,-4.522241272930944689e-01,1.390739497994851304e+00,-1.113311648440059809e+00,6.888826688783976637e-01,9.497085193772520917e-01
-1.192739455467433762e+00,-9.471507171970154904e-01,-1.906575618856153342e+00,-4.037936247647078147e-01,1.143956930295531693e+00,6.785819722417784083e-01,-1.127158184879947012e+00,-2.109066126471216551e-01,-5.672100257537434631e-01,-1.721512529124608948e+00,-3.539422410149125064e-01,4.409072094568773359e-01
-2.117366818766285519e+00,-1.885036135623572084e+00,-1.305978787266267371e+00,-2.578283823960983323e+00,1.523831623052116502e+00,1.021076317812876111e+00,-3.409557139778057189e-01,-5.167571314970309526e-01,-6.272404415946415401e-01,1.872542813827911434e+00,1.062723751885108703e+00,-6.622055367239142176e-02
1.880084002582053104e-01,-2.153784397032449949e+00,-1.344358044962862930e+00,-2.205172597848796379e+00,2.881265032968916562e-01,3.769554097888490052e-01,1.074031849710300524e+00,-1.249263520017577234e-01,6.940736666060871585e-01,4.241389673969730434e-01,-2.740453597062919022e-01,1.645629901892551095e+00
-6.359187509691512918e-01,-4.027121882195232039e-01,-7.062474612278132335e-01,-1.618177711956126474e+00,-2.159865942571682074e-01,1.105004773236614612e+00,-3.086538274928530279e-01,2.364978969784973795e-01,2.504845430860476729e-01,3.158474057522251965e-01,-4.975244985839878953e-01,-9.469165159213469574e-01
2.207056553810419486e-01,-1.722352555274579533e+00,1.300971401469534772e-01,-3.314748037527333491e+00,4.405771772185817503e-01,-7.708845326730308090e-01,6.898301387461238665e-01,1.039154708866115273e+00,-9.645530376320815905e-03,-6.495245256540538303e-01,9.096965847260438665e-01,3.012321037736780949e-01
-2.192931315919496971e+00,1.041661258712763161e+00,-2.118914804900507320e+00,-2.319008892148246570e+00,-8.902498549341247847e-01,-3.060511290985536426e-01,5.999688198878752043e-01,1.338298635014278704e+00,2.074077441428834323e-01,-1.593662804339573968e+00,-9.705582451657858434e-02,2.105941613493270137e-03
-5.476597535540159850e-02,2.907727858848387359e-01,-2.677728565491251378e-01,-3.640078794164455789e-01,9.590118371375163653e-01,4.032499660866699087e-01,-8.174607456476870038e-01,-3.968810253855126202e-01,-9.510179345851301758e-01,-1.297029334623439389e+00,-1.134470067479478317e+00,-1.035233873059767884e+00
-3.383438402726333671e-01,6.959855985726232097e-01,1.048471996133563788e+00,6.913748132373217503e-01,-1.645703904281849317e+00,-3.515109950825799912e-01,1.634468730654053736e+00,9.341107498270411202e-01,1.548720489862435823e+00,2.938170291316957727e-01,4.790468079316348993e-01,-6.412217431552333924e-01
1.422261376947262512e-01,2.186058357236878857e-01,7.488720687091280359e-01,-2.901456925826133015e-01,-1.650787942951211118e+00,1.039564481713425859e-01,-4.983945190858380947e-01,-4.755081607715651582e-01,-1.689484669515813886e+00,2.419408172036447979e+00,5.232330876523316743e-01,-2.612928844164482678e-01
6.509265316769944354e-01,-5.717229530241145774e-01,-1.023068316807622002e+00,6.159304961863396599e-01,-3.084254327444764798e-01,-6.023605376940209533e-02,1.094902162840804438e+00,4.944763933422299806e-01,-5.639155516148942893e-02,1.763537555569958393e+00,1.221340979606522881e+00,-2.412873478316666098e+00
-4.504726738874057501e-01,9.892663213681383017e-01,-3.141663418272790498e+00,1.199627375514579875e+00,-2.009846263242796027e+00,1.330640818277646797e+00,-1.054472344477177942e-01,6.717522518683479056e-03,-1.247202938642680614e+00,1.178727798584893405e+00,1.459225704881699004e+00,1.576174994855938927e+00
-4.503318861547700447e-01,-1.636549438451358141e+00,-2.703883742469914253e+00,1.050132507503718449e+00,-2.410036430503062821e+00,1.662864722806064455e-01,2.061628649642555100e-01,-1.163511255085169394e+00,6.428803017067952208e-01,-3.404635828905677730e-02,-7.732132624407203614e-02,-1.623609653974384059e+00
3.308711540496114267e-01,5.781955645402822030e-01,-4.298802013416024304e-01,7.405280537791833484e-02,6.614963113678393736e-01,1.751920837860437563e-01,-1.297651289966368360e-01,3.836434814730814158e-01,1.059294392356079584e+00,5.191385612823767870e-01,1.012847869673879631e+00,-1.261142201300110788e+00
-3.056182444062164327e-01,3.772959753352827517e-01,7.922049296513203887e-01,3.619966563591444642e-01,1.313689153850670643e-01,4.350603855661759334e-01,-1.158879063659891129e+00,-1.834594666267458818e+00,2.712546360300187032e-01,1.051797612027115303e+00,-9.284317172332551271e-01,7.687765550987976093e-01
-6.647429376027053083e-01,-3.834156842085418293e-01,-1.349415835218864768e+00,2.126525463474683297e-01,-1.948975099505821373e-01,-1.044203142399742879e+00,-3.371735981082847888e-01,-1.047664275573972237e+00,6.113883412077564250e-01,6.260441246459163001e-01,-1.111288823939425185e+00,7.605631881464028909e-01
2.193529321222492889e+00,-6.164518422398298503e-01,-1.480435339936210015e+00,-1.212369115693883836e+00,-1.404000317130220887e+00,2.204094720091535287e+00,1.166065652617006343e+00,-4.089216658603063159e-01,8.661881579356229821e-01,-4.560647931429114843e-01,-2.361830157941081643e-01,4.824111246983583956e-01
5.241921526502017759e-02,2.449728613332688099e+00,7.978413309617456983e-01,-2.149245641569274223e+00,-9.956768280568131235e-01,7.578922477911265165e-01,7.981467192774847064e-01,-3.848331055263777278e-01,-1.930265480304426129e+00,-1.588853687044682994e+00,-1.524493011451005131e+00,6.342160378252393871e-01
1.463201685069490887e+00,2.411682165499993147e+00,3.877141892146679925e-01,1.437350515477166524e-01,-1.403193007845358498e+00,1.510773404294965871e+00,-1.322225456085011297e+00,-5.121019958665201655e-01,-2.080620246867316558e-01,4.714584534953868422e-01,-6.028726285938689200e-01,-6.150989236568108476e-01
-7.091256837555915959e-01,-3.862348390559026123e-01,-2.286090183274798182e-01,2.195995782223928994e-01,2.208231397473389701e-01,-1.627211813040563948e+00,1.014689723793685161e+00,4.229013303125939149e-01,1.743606363868200448e+00,3.008011759516752148e-01,-1.321558274131221067e+00,1.688064476434360250e-01
1.138485211386660589e+00,9.787354995944809177e-01,-2.657689597288549477e-01,2.203371670376674363e+00,-3.631566618692792792e-02,-1.079477230944321020e+00,2.945368174844863463e-01,-1.399008923431489304e+00,3.535224020495414399e-02,8.339389548367582838e-01,-1.338109346255814458e+00,2.468777788832400955e+00
-7.169795641517900942e-02,-4.777668398384379844e-01,-1.124840444429314523e+00,1.730345421623957547e+00,9.845939777718587527e-01,2.389141090585765459e-01,4.060592567993465130e-01,1.744145811418538639e+00,1.059769687840786956e+00,-1.363178220960130416e+00,-1.792727975629860859e-01,-1.143622111897697247e+00
-7.666860862588625869e-01,5.195848048932396601e-01,1.981349464839665009e+00,4.554976094487430682e-01,4.853036001879871275e-01,9.449416866746234156e-01,4.534747133002608455e-01,-1.237671803736507981e+00,-1.779034451931350791e+00,-3.308550247073480111e-01,1.144880255468404329e+00,-7.389815428593238256e-01
-8.419828758656137113e-01,-1.304407142776481399e-01,-2.267139630547571727e+00,5.929941155147403498e-01,-3.071184900952593777e-01,9.450941727216634058e-01,6.333420729542705852e-01,-3.132463476794504764e-01,-7.918921226354009857e-01,4.468831315372773783e-01,-8.469956096948327851e-02,1.054478238065992279e-01
-1.372666594250699923e+00,-2.147907114653807570e-01,-3.603516879259488492e-01,7.588387738391271231e-01,2.143071216314511584e+00,6.155163774402051535e-01,-1.320011890332974946e+00,7.334100145143795935e-01,-3.583920859138759463e-01,-7.967232538997124358e-01,-3.055804412819451699e-01,1.178386938962272978e+00
-1.729102398316706646e+00,4.146691996899867227e-01,-1.493108136103133754e+00,-1.478441831108244564e+00,-2.072293483641156897e-01,1.051060326957142133e+00,1.806244161636721524e+00,-6.772564024365707036e-01,1.400796038263705245e-01,8.062382382113952861e-01,6.189975954856588025e-01,-2.852264258590144208e-01
-1.866812916099478858e+00,3.359861501993171573e-01,-3.497656477638623196e-01,3.277369953510438361e+00,1.929208673249387829e+00,-9.979197539503965597e-01,2.643217503719898498e-01,5.937167327524799365e-01,-1.224414289465592276e+00,9.058263113481439532e-01,-3.212647083924785041e-01,2.302592353216100118e+00
-3.416774907264400474e-01,-1.441400134713868963e+00,-1.071070133702809901e+00,2.919317542562434586e-01,3.659103869095674533e+00,2.032485658140751605e-01,7.850046686872585999e-01,-2.778789370701912897e-01,-1.781095243580705922e-01,-3.555515305308940555e+00,6.366284861971766018e-01,9.558633771966086323e-01
-1.337951900395076277e-01,1.597612260033930698e-01,-8.195778285956439868e-01,-1.444330633537432851e+00,1.586837365730628058e+00,4.496186839834750426e-01,-2.533268022121870078e-01,4.952256577961551276e-01,1.514336514481551488e+00,-1.614562979507779550e-01,1.222715993905096221e+00,5.451217523889378969e-01
-2.244731229703912145e+00,1.023331840449968055e+00,-1.244175006738918121e+00,-1.998377443684464572e+00,1.176477929597436356e+00,-1.876658087312413015e+00,1.156428739196499883e-01,2.408723715842500113e+00,-3.088202863690140965e-01,-1.406799764632465477e+00,3.779781764775005382e+00,1.203499070135764402e-03
-1.253712938672890465e+00,-2.151853009145260565e+00,-1.264816215881327421e+00,-1.688393578354281832e+00,3.280710157198275800e-02,1.893670964863611609e-03,1.286238118635940397e+00,5.474722979566813696e-02,2.456939993782882026e-01,5.826051824486091490e-01,2.311041242833478560e+00,-3.511262499854995167e-01
-1.680857431540672797e+00,-1.888051874363937815e-02,-1.234924012723614739e+00,-2.234998743604434512e+00,-3.158338435603635919e-01,-3.845713172864541063e-01,1.747626117392941492e+00,1.211219190979114999e-02,8.167801889092455303e-01,-3.020432745341948833e-01,7.599221171419023868e-01,-1.916344463294133993e-02
8.422368856998244668e-01,1.112796478005117384e+00,-2.223683402735425307e+00,-1.279475498353142449e+00,1.405888458939203334e+00,-1.595300365249141816e-01,2.034603717648451049e+00,-5.996717061393170844e-01,-3.729760508214104986e-01,-8.757788721356751793e-01,1.005082059551761331e+00,5.012086234265897833e-01
9.919883826523435977e-02,2.114449044349131057e+00,-1.844090554208524524e-01,-1.795095746388306823e+00,-8.833023670212387657e-01,5.770074397079173467e-01,2.120774291613225948e+00,2.231935284902681893e+00,2.264852743492807852e-01,7.879844710864550295e-02,8.368248523373472691e-01,5.217394576466417577e-01
-1.317770468434184661e+00,2.416266791584132378e-01,-1.024661523167178734e+00,-2.029339599651140968e+00,-1.283175794810815118e+00,3.112432594395366653e-02,4.845400802031888943e-01,-2.192092578052768914e-01,-3.455433474971715824e-01,1.683954451046816014e-01,1.519815225732084274e+00,-2.450443715939094602e-01
-1.885118786518432399e-01,4.882439844669433371e-01,-5.665995055795309820e-01,-1.669849210105673887e+00,4.869861197200451852e-01,-4.948876417963341545e-01,9.983913495820297135e-02,3.093876257974140787e-01,-1.296954067281702594e+00,7.907660950047088466e-01,2.339784802353257476e+00,3.833082028885896331e-01
2.983910152946911074e-02,-2.113300062805029134e-02,-5.679863650514188622e-01,-1.028039926837854834e+00,-6.157465206891220566e-01,1.541607453435918318e+00,-8.584352482910858617e-01,3.622150204105327731e-01,4.738041372818011521e-01,-5.875822818052738317e-01,-4.077191855036613188e-01,3.431239193354513883e-01
8.261387739177860068e-01,-8.563147396311012738e-01,4.222404591796697915e-01,-2.134139120310986903e-01,-1.288636784275953406e+00,-6.589886336557372326e-01,9.553893141173743775e-01,-8.144193149234691953e-01,-1.850680588403852189e+00,2.444307802042287481e+00,1.248161226704601612e+00,-1.412009654830709504e+00
-1.562630743271936407e+00,-6.701608019751260636e-01,-6.882133022944214584e-01,1.797418951995447323e+00,-2.194781709812987813e+00,-7.168451685318163458e-01,-1.351618366396970750e+00,1.578996947290902675e-01,9.319626922180425099e-01,4.156749186644087546e-01,-1.051260589626057840e+00,4.829832257143212848e-01
7.156749277960074984e-01,2.205621150127298868e+00,4.408693890914237024e-01,6.212672353854536977e-01,-1.715075289398859448e+00,1.648921389685597205e+00,-8.743312618150289595e-02,1.424425025193017946e-01,5.681866801294217506e-01,-2.750443249469373130e-01,-1.931367107363944069e-01,-1.138165022344568289e+00
9.809966363315762994e-01,-9.986703875267364250e-01,-1.183134033620672598e+00,1.490634329046804707e+00,-2.582964399685744539e+00,-1.852246784247324196e-01,2.158830379086594142e+00,-1.203915793697652781e+00,3.012179749920532168e-01,7.578016339293643933e-01,-8.493559020027141582e-02,-1.118159935068671729e+00
-1.736341533002751403e+00,-1.214325619051981775e+00,-1.655500259351311509e+00,2.881453547787623304e+00,-1.456963708997055865e-02,1.490067003476895469e+00,4.406104723199197326e-01,1.767093316620061083e+00,2.795152403918919060e-01,-3.141708855528642652e-01,-8.975439182989645992e-02,1.445479473061348274e+00
-4.182335798917201641e-01,1.369643714171798976e+00,-1.439328435600112366e+00,-1.743680840245580566e-01,3.192190085979923486e-02,3.929979379986829890e-01,2.833706624869404833e-01,-8.274530492400457016e-01,-3.483589400800010116e-01,4.279894854384507785e-01,-2.620507415914860028e-01,8.851324217853510923e-02
-1.444933910918502429e+00,-5.100395714935841429e-01,5.993617144917904316e-01,-8.703790891156131249e-01,3.418338190329867632e-01,1.749373326783219218e+00,7.706116401289542228e-01,9.066629753241477463e-01,-5.146641993196887643e-01,4.343438772019988514e-01,5.364324274634090228e-01,2.721875528852516490e-01
-7.873839958378479054e-01,1.036964198620714539e+00,6.945889438701109420e-01,1.315546455408130200e+00,2.936239494450479937e-01,-1.220869780007994176e+00,-2.763860944406721920e-01,2.906530620696347267e+00,3.186689926541728113e-01,-6.770212678305239651e-01,-6.566730425385608472e-01,3.961759789676092547e-01
6.549327187290056029e-01,-1.111964779675968656e-01,-2.408182528093172625e-01,1.128834590983839536e+00,8.138968966715221659e-03,4.741077629965836926e-01,7.793212124720246825e-01,1.613826338002737337e-01,-1.319935852664366083e+00,2.635348174230927598e-01,-1.229520721612030604e-01,-1.147246815745519788e+00
2.506995303871549785e-01,-4.089086914603958234e-01,-3.659334417183211507e-01,-2.969875829085030228e-01,3.616083200915808371e-01,8.245419457719397327e-01,-1.045057949816105003e+00,1.951546572797484336e+00,-1.981773258027592188e+00,2.022790455137542243e-01,-1.491487460333279280e+00,-1.260489295066433257e+00
4.885548352608733436e-01,1.340808852300743093e+00,-1.023592305708996841e-01,-2.335590354472598218e+00,-1.122926488556134972e+00,-3.864125624656797320e-01,-1.150974228030609892e+00,-8.541740823959363960e-01,2.653254736346368214e-01,1.852898943981117652e+00,-6.902255638903640467e-01,3.926204285963765805e-01
1.116851127336040195e+00,2.769387962665381120e-01,-1.742546883257679813e+00,1.478369320753487370e+00,6.947227047507997799e-01,-5.070410286359583463e-02,-1.547697589225092152e-01,-5.934308028414422148e-02,-3.075112477654122767e-01,-9.771410561041498077e-01,-1.630123642542348650e+00,-2.228060293659265070e-02
1.764187849981470602e-01,-8.313515053679344513e-01,-1.836342883174262530e+00,-7.122926195050816034e-02,2.685552259388458207e+00,-2.805561030817511070e-01,-1.056524724585953479e+00,-6.473201752126060970e-01,1.973556276422879119e+00,-1.065457591917330221e-01,-2.184352430506932008e-01,9.379489507312172014e-01
-9.255509159251871232e-01,1.787104465972290557e+00,-4.142617032621164763e-01,-7.427934244176714884e-01,2.684791360856236153e+00,-3.018209259739436656e-01,1.809573379119674419e-01,9.777405024962194657e-01,8.384228356826862738e-01,9.545510535449757139e-01,-1.158142098064446568e+00,9.204781975583734566e-01
-6.410613170893836310e-01,2.989608119356419458e-01,8.507971859848999507e-01,-2.028649633582607414e+00,2.792479066714035341e+00,1.114883929208970503e+00,-2.247469491969582567e-01,-5.876718273832937101e-01,-5.474025018105300733e-01,-1.108971861887394272e+00,-7.726911058881039684e-01,6.385074774523442631e-01
-2.330130824614589979e+00,1.450836464419216210e+00,-5.275754304093253078e-01,2.242591638919390729e+00,3.254823619184935346e+00,-5.903661473279293581e-01,2.558194702752684124e-01,5.018086891906267111e-01,7.225988748039402498e-02,-1.762915252741506789e-01,-1.181639301226027561e+00,5.831983405432968892e-01
-7.770681486463569820e-01,-1.254361966295095554e+00,1.228181631621113185e-01,5.065412671595296290e-01,1.921304539641464304e+00,-9.385765853516033763e-01,-5.391663961303286845e-01,-5.449226282436603341e-01,-8.980841011051061973e-02,-7.416824053194680244e-02,8.442379351785610497e-01,2.550135185341154687e-01
-2.854990256878723986e+00,-2.190918826534750952e-01,-1.793824934271094351e+00,-9.850305920916133662e-01,7.358015547771343812e-01,4.266217396216299695e-01,-8.279377215433598725e-01,4.724922494509420923e-01,7.523509899881581919e-01,1.218317067797150433e+00,6.667790098877898197e-01,-1.805645805137503057e+00
-2.066671725048008224e+00,-1.167019994592964238e+00,-1.053272693779469416e+00,1.707486207117179688e+00,4.676681815498487937e-01,-8.218329237400465725e-01,2.420290336359887107e+00,5.298987531920715810e-01,1.042169457576829883e+00,-2.237435042144006569e+00,4.341984071798287159e-01,3.937517880102030521e-01
9.022841532520359253e-01,-2.147350562110304839e+00,-1.928795323560066111e+00,-3.399308650139477028e-01,-2.617161721014298892e-01,-1.204592217926232604e-02,-3.789338052171623006e-01,4.643733819546232433e-01,1.069498964666103724e+00,-6.970839462363322969e-01,-1.369877219236369292e+00,1.861995215366427370e-01
-1.173483150108039164e+00,-2.424793003224728682e+00,2.144196090676109556e-01,-2.068495177462057910e+00,1.954027800414957161e+00,1.544566566721398138e+00,9.966871541407422708e-01,-1.823385258560845379e-01,3.261994326797248434e-01,-1.442346800263485385e+00,8.687659018123290444e-01,1.016917361234260381e-01
-9.769063031855479418e-01,-1.506026109126778589e+00,7.094769799952648226e-01,-1.448293157934976705e+00,7.823494348838262447e-01,7.561821677278293130e-01,7.377985058947474917e-01,-1.237921706952902490e+00,2.564629881067553852e-01,-1.859753443439301046e+00,7.748668118272173944e-01,-2.700698370185831698e-01
-1.367458580888546882e+00,-2.279634030960649760e+00,-1.772305322226664703e+00,4.691819019975633775e-01,5.242250883140330275e-01,1.308460383211291544e+00,-4.077388019796856500e-01,-1.000792607536412776e-01,-8.106654079919842770e-01,-1.669156912737876697e+00,2.090640558396454018e+00,8.604013690384867408e-01
-1.370215290908407324e+00,-2.593838263915644760e+00,-7.254539268039715827e-01,6.738183703242419664e-01,-1.252933148494779880e+00,9.999829148165095827e-01,1.745817130250821414e+00,1.535730243622723590e+00,1.767886738623376086e+00,-2.407492312189794870e+00,-9.889070013623509903e-01,5.142787489552258506e-01
-9.169564956824204360e-01,-2.398655920631101779e+00,-9.021046850553436913e-01,-1.236198436756881236e+00,2.122729298057568048e+00,-2.954740568986985449e-01,-1.717162939514963738e-01,-5.085612878150622684e-01,6.109606445388213736e-01,-1.964172290499791584e+00,9.598247277489474483e-01,5.983454767336954250e-01
-1.716734226500136851e+00,-1.615960185533280358e+00,1.875962975225978213e-01,1.329680236376679758e+00,-1.664380054218834504e+00,-4.137343240838826236e-02,5.448056804719677571e-01,3.939261652820378878e-01,1.451477456566047319e+00,-1.414494769796722284e+00,-9.230952197214750687e-02,1.252835175991888761e-01
-6.883032099120964808e-01,-1.536389231311518166e+00,8.976038823560785751e-01,-9.518949233857856296e-01,-3.821650040685576344e-01,-1.171193608221572091e-01,5.496183344144867089e-01,1.662331638162282355e+00,1.098637606523327648e+00,-6.786134845188672715e-01,1.287989111145201870e-01,5.007835835465230812e-01
-9.770739633222579323e-01,-2.123384849762556481e+00,-8.159287231376576299e-01,-6.349361226009884174e-01,-6.395500369875799507e-01,-2.511916539238795987e-01,1.650766197281774705e-01,4.403204432430587317e-02,-4.275068121088128059e-01,-1.956947599094148171e-01,5.492398225752374019e-01,-2.060170715353065729e-01
8.328596847561486882e-01,9.875798145053851229e-01,-1.790878520213107228e+00,-1.537293410143534267e+00,1.117432749946209336e+00,-4.865725201329630933e-01,4.247136532672002307e-02,8.244250064905305209e-01,1.243236122962629864e+00,-1.981877779023061059e+00,-7.767097757190644103e-01,-3.467324024559346185e-01
-5.487752231709105422e-01,1.377226910709439700e+00,-1.085210721931042288e+00,2.610093411679106565e-02,3.427849829248096336e-01,2.879104829260310527e-01,1.685146488173552282e-01,5.109059993402425004e-01,-1.899513344500070255e+00,-2.331449866790466174e+00,1.144697744004172096e-01,-3.590338514040074536e-01
-2.172320896466798865e-02,-5.666609348592326345e-01,-1.948180231427288911e+00,6.227142975252356605e-01,-2.017370374291735491e+00,1.338496681945425149e+00,-8.307337665497762647e-01,-4.183086735837454606e-01,-1.040641235917096896e+00,-1.875082798383855831e+00,6.407870277292591066e-01,-2.190677592148571051e+00
1.677584106348713799e+00,2.252434746784118591e+00,-2.896175342730484825e+00,1.987004407859695343e+00,-4.852086202061540732e+00,3.778535150653287378e+00,4.475242837618865210e-01,-7.172487020732504215e-01,1.020485713603620948e+00,-1.579260658123765149e+00,-1.569138394183693608e+00,2.027174954624638148e-01
-6.882598117946541194e-01,8.264650094474572661e-01,-2.104527903922987164e+00,-1.082429442163862054e+00,-1.670928915686498373e+00,2.323761936133919015e+00,1.682749253494581210e-01,-4.038921623491356083e-01,-2.487094842657450872e-02,-1.619319956960519891e+00,-1.548583336082527406e-01,6.301243258306556960e-01
4.983327935370618911e-01,-6.871041653456561038e-01,-4.515505496265135865e-01,-6.511827321882157626e-01,-1.108964347370096915e-01,1.301999084491866965e+00,1.192997697029865911e+00,1.304388226033626752e-01,-6.242258872057651880e-04,9.334075211565538988e-01,-1.478813650525611922e-01,-6.809506407132213113e-01
-1.163277901274144321e+00,1.311020742251520099e+00,-6.580727920219671401e-02,-2.299099489871020974e-01,-3.766670460764598438e-01,9.959763189883994450e-01,-1.403209058093078498e+00,9.155997348085953558e-01,9.510011851316031439e-01,-1.317445904715408123e+00,8.017715641509853830e-01,6.049841932102538733e-01
-3.489384997147482181e-01,-5.258377476702444930e-01,-2.389869252660362431e+00,-2.698917591977759711e-01,-1.934487114646455952e-01,-3.492346977010795106e-01,-2.119780899207854841e-01,5.213823434823520175e-01,2.138003083030757256e-01,3.970597815171657552e-01,-4.151350830290321814e-01,6.902250722229662516e-01
-1.259574397838603421e-01,1.043960706815684425e+00,3.317880690580409797e-01,1.033111887133878914e+00,2.338476945463517698e+00,3.473756417646636230e-01,7.899692189244660045e-02,2.441710533306491182e-01,-8.015628574732440725e-01,5.796626241507262245e-01,2.387833977345615033e-01,-1.224233339950257848e+00
-1.576376824814804956e-01,-3.209889133457294874e-01,1.683139705824969523e+00,2.247858722431460565e-01,9.317957447473815824e-01,-3.586256948164278646e-01,-5.997159582694897573e-01,1.824398569342170928e+00,1.468935069082550893e+00,9.305749083125292032e-01,-2.258681295852669746e-01,-1.281512742003980687e+00
1.392666496552957378e+00,8.091163928993004850e-01,4.370690753908907933e-01,-3.292388088658357304e-01,-1.495363711992307894e-02,-3.453381778800182489e-01,4.903231008548585845e-01,-6.362849899170587575e-02,1.435556898829091654e+00,-6.226168255207399360e-01,-8.182848993998547149e-01,-1.330896238969418777e+00
8.074659988795661603e-01,-1.248640267290438199e+00,3.675317741415488060e-01,-5.665147853675126521e-01,5.428488906448130091e-01,-6.408471156789582457e-01,-2.827630401697833751e-01,-9.719966682602914076e-01,-2.959660263101641098e-01,2.370850028985913294e-01,-2.064990795102151555e+00,2.750494751384284786e-01
1.064910400227679077e-01,-1.241248524159715566e-01,-1.247362693237209497e+00,-6.176339844630288622e-01,1.404474888883521899e+00,1.096123554135858935e+00,-9.215220930831796720e-01,-3.742177847616466879e-01,-4.276877347233303261e-01,2.446636311501217409e-01,-9.008573383241577082e-01,-7.176126421156832080e-01
-7.275512928490124320e-01,7.207884021901717064e-01,1.431090767619469739e+00,3.511401753882805177e-01,2.769420469012832786e+00,1.457935070047553294e+00,-4.601501764201323952e-01,2.686809785650474125e-01,3.627477794747726580e-01,-8.134018798156268382e-01,1.073924821471709201e+00,-1.725718386486667366e-01
-2.081061999136633034e-01,-6.645880032291076600e-02,-5.067496623480246543e-01,5.529425186913230483e-01,1.343955931938833892e+00,8.222065011131789447e-01,-4.711513176905526845e-01,1.280484121295219602e+00,-2.734760244493342762e-01,-4.255303289895696617e-01,3.172794683583440301e-01,1.041521434603314145e+00
-1.136577312776389181e+00,8.470961735374331336e-02,-4.082392592424272104e-01,1.182772382175749870e+00,1.527695459116807930e+00,-8.871415780780546045e-01,6.646510098190377969e-01,1.018208641735198094e+00,-9.640644812582477297e-01,-2.206973724819339289e+00,-1.657720771346533395e+00,-2.907565360203728244e-01
-6.159708536862404937e-01,1.895234201318987344e+00,-1.974765523188581007e+00,-5.793705357635605679e-01,-3.535012309961277910e-01,1.114906940754553100e+00,-9.253549584629047198e-01,-1.705709728237566170e+00,5.223269349356484126e-01,-9.626444133660794211e-01,2.634714390692662334e-01,-1.830733901896160754e-01
-5.570460932798120268e-01,-5.953179312323368944e-01,3.853933447090839848e-01,-3.530568695895099363e-01,-3.068630705933940717e-01,1.283438497334143280e+00,9.925727968576303351e-02,7.001607395001101519e-01,7.792918831303693450e-01,-1.076859505859841581e+00,-1.736488244384665758e-01,7.303486590520558153e-01
-1.194329546355603400e+00,-9.118159157455856256e-01,-2.096156115804242326e+00,3.141022396659157168e-01,1.105598286238107075e+00,-9.612294433234759294e-01,4.869868569792257934e-02,1.857847359043564017e+00,3.531149703449613098e-01,-9.470014792090203359e-01,-4.118179271291021876e-02,3.045865333786248463e-01
2.577428224664283229e-01,-3.106188506853670983e+00,-2.302809919241347814e+00,7.977218237764964748e-01,8.260991624332759686e-01,1.869662206932921900e-01,2.194359856789417640e-01,-8.648898243317021395e-01,1.786108285738772006e+00,-9.020423976163137736e-01,2.897713594188766617e-01,-6.799880249488161610e-01
-1.916968031116139004e+00,-2.032194992711349180e+00,-1.911392858800883277e+00,2.087302537122843304e+00,1.784961092949912675e+00,-8.960595182786350588e-01,-4.032832926591965045e-02,-4.547158791207058792e-01,-8.807645297860616784e-01,-2.667281512922600739e-01,-7.454028264758341127e-01,1.821810546693029664e+00
-8.433036137673716182e-01,-2.506382451391605759e+00,-8.835156328968838402e-01,1.944230039158445500e+00,8.822081534186888563e-01,-3.205418340004260735e-01,6.474878784950417465e-01,-8.412868829685641314e-01,3.860288839958776475e-01,-1.976237884644147735e+00,9.449899587888638264e-01,-9.465913480037431160e-01
-1.840099844415648889e+00,-4.855424093756401938e+00,-2.929481928788575384e-01,1.319886068704437143e+00,-3.938530812519268343e-02,2.438215070099692960e-01,3.729153158205250618e-01,1.524508096365649212e+00,9.459427011429117904e-01,8.158945085425299837e-01,1.203617947343751382e+00,-1.540986250299143101e-01
3.097273086064982750e-01,-2.917349952686746128e+00,8.566824042759085822e-01,1.281611464855103577e+00,-2.284438018884364041e+00,-6.794853720547792131e-01,9.268741160919724553e-01,2.891391848659064564e-03,1.329315640289167488e+00,-6.162618334230807182e-01,1.773627341072774755e+00,-1.094252218013049394e+00
-1.729734305475683076e+00,-3.210160273730990443e+00,-1.808861223520505712e+00,2.643110357857583192e+00,-5.270335882624441748e-01,3.525204882082318969e-01,-1.297328009043895669e+00,7.200246258031033353e-01,5.755173092343398578e-01,7.800664201048951307e-01,4.854043208256599851e-01,-5.286890488589622850e-01
-1.395846109017627956e+00,-3.147271439361136736e+00,-1.354348341834598068e+00,1.734464441574032900e+00,-2.523129765835689375e-01,-1.560437452581092121e-01,1.052375956130608303e+00,-1.707567549036483889e-01,8.526529308300603294e-01,-1.858944887474253127e+00,-7.897299425202366496e-01,-5.807442834609185534e-01
1.014332661143206860e-01,-1.721732887849042548e+00,-4.377177324264904246e-01,-1.434644718919981521e-01,-6.959916545885028727e-01,6.182592762549273813e-01,-2.223155158435778309e-02,1.149495492928842788e+00,3.721859881446311635e-01,-1.469754340866211262e+00,-7.831323528468525641e-01,-6.236216428808422085e-01
-1.458941523721287492e+00,-1.125979836783532306e+00,-1.766892243364362347e+00,-1.717271480068399692e+00,2.328486955568969563e+00,-2.864952891462576590e-01,1.133982165929710906e+00,-2.534316646372443138e-01,9.918953171145290515e-01,-1.590730859121443519e+00,-6.335774777585753137e-01,-1.043755970686465417e+00
1.216927237534388279e-01,-2.239717558552688725e+00,-1.945907800421290634e+00,-1.054697646969607883e+00,-3.211792884472706722e-01,1.774075745988405339e+00,-1.287792410691545042e+00,-2.299277262655515242e-01,-1.694913546202946875e-01,-2.777430834644836199e+00,5.763292189065184479e-01,-4.837255589620490515e-01
1.326888870853510038e+00,-2.063198394552279158e+00,8.646231562427781903e-01,2.409437187258995361e-01,-1.869535884452626862e+00,1.935804020391695301e+00,1.132763300508870863e+00,1.969306554170183188e-02,-8.709198281863221869e-01,-3.066930266762304402e+00,-4.746685022249507724e-01,1.018409078555266412e+00
-1.505823668896500100e+00,1.981650703494466148e+00,-1.294688234897436896e+00,-4.491456910694240912e-01,-1.086776495765639616e+00,-8.381743311052556322e-01,-5.670971505959652159e-01,6.118779720096242380e-01,1.722957380783950221e+00,-1.633760105326256484e+00,-2.013174269655728932e-01,6.329183599179899478e-01
-5.266529069693296483e-01,2.879565852207333077e-01,-2.172772220669494825e+00,-1.631085169322380013e+00,-2.853250548386011332e+00,1.683724763411000858e+00,-4.114414291779217026e-01,-6.356678110953655203e-01,-6.944210421473520078e-01,-2.472095118828433691e+00,1.733800452130638936e+00,2.099460299753165060e+00
-3.953851882338342560e-02,2.462605714426581827e+00,-3.398528697255223552e+00,-1.405696970760388576e+00,-3.622560520485444080e+00,3.355663632669865226e+00,-3.066585138332915683e-01,1.994299490922216922e+00,3.352968559902559931e-01,-1.409223469765703562e+00,-2.821016595678111916e+00,-2.581191386416866740e-01
-1.040012058431834197e+00,1.959564058493492300e-01,-1.029028859815966701e+00,-2.170609879197427441e-02,-1.157964974557942339e+00,2.966417223785234203e+00,-1.731842790602930338e+00,1.470911060357986466e+00,-1.397001141832521220e-01,-2.984831717590970879e+00,-1.721081151667862352e+00,1.188579560420329750e+00
2.516713060442861763e-02,7.668711211391623372e-01,-1.225262038959513022e+00,-9.268905085642756836e-01,1.289355040417083709e+00,2.466589494003147198e+00,-1.900199819399205348e+00,-3.769891962547386455e-01,-3.464872609322782182e-01,-2.511902452840401589e-01,4.935580751761777241e-01,-1.456050901969846212e+00
-6.108795112881598710e-02,1.601597976999377948e-01,-8.782762223976121607e-01,-6.253069417009923248e-01,-4.005725608078317679e-01,1.569712898994717998e+00,-1.168483022419707806e+00,-6.552373517366952838e-01,6.619839533919006369e-01,2.897400649202309109e-01,1.268800527168971515e+00,-8.934206990192782305e-01
-5.420066229370738009e-01,-1.031398240140054962e-01,-8.863093109031818795e-01,1.013219446380471123e+00,-8.097795166962843405e-01,-1.310917650137604751e+00,6.046049635693780955e-01,-9.967193026133593925e-01,-5.588863585362673359e-01,-3.645912412102872979e-01,-3.410335535333972740e-02,-1.289998102939641011e+00
-1.068524096044028093e+00,4.728592814817146606e-02,-7.601863668163262311e-01,6.778194412309579420e-01,-8.379208517967038361e-01,-9.614216307229901393e-01,-3.021386677794499764e-01,1.244360385536648295e+00,-2.787356919948983935e-01,4.043077837413883158e-01,2.172743120720570520e-01,-6.526682769322194044e-01
7.662183311607312364e-02,1.544913777130408616e-01,1.667512113740713398e+00,2.244876017127339640e-01,-8.395151582981066340e-01,-6.453840833224685491e-01,1.113273330171513198e+00,-1.583070878990123553e+00,1.445600543403615879e+00,2.671944310664913225e+00,1.577791891147448222e+00,2.723318584405179030e-02
-3.618810097368034828e-01,-8.949678000820253665e-01,-1.713691381374879086e+00,7.021606541175764438e-01,1.363978686788329009e+00,-8.164997757470272566e-01,-8.051554265415461487e-01,4.994657654343521158e-01,3.501489229061175573e-02,2.051840542393935429e+00,5.507794103333797375e-01,4.060983349904797035e-01
-3.624506016610949399e-01,3.321729265235748296e-01,-1.828991671758820159e+00,5.296525769720497046e-01,3.007294355865084867e+00,7.473755250167741782e-01,1.546986506297823194e+00,1.713874129807620328e+00,-4.513491169981113244e-02,8.343294934800005169e-01,-2.065659392259309612e+00,3.361936946152336292e-01
-2.090531475077925805e-01,4.689083237733305265e-01,-5.913147654938641917e-01,6.120611415316112858e-01,2.246351369221523786e+00,-1.144216209612216283e-02,-1.219604362632928263e+00,3.823494641177965780e-02,-2.385418007787433736e-01,-1.509715706744481079e+00,1.640659707323631755e-01,1.857236606947170188e+00
-1.909491854743112782e+00,8.804024769952555340e-01,1.768915107024853439e+00,-1.505661173203638903e+00,1.426183969148314912e+00,5.076523755707149643e-01,2.598668002605994953e-01,-4.241416402036246036e-01,-2.854028711276496710e-01,1.761402904116872101e-02,7.921244750114500577e-02,-1.472841583385967601e+00
-5.336275870240084762e-01,-8.542112093054744781e-02,7.217886772966021214e-01,-6.761938140149331700e-01,1.695790349917013495e+00,-2.263525157189680975e-02,1.378612362642995581e+00,8.889117752171802334e-01,6.918586468611805616e-03,1.581725090918684462e-01,-2.034201981713505969e+00,-1.707904425775670809e+00
-1.260596553016060106e+00,-4.923407520365083445e-01,9.442253986806100619e-01,-6.442851906757089964e-01,7.015339105220561589e-01,-9.492872023491669697e-01,1.261628336593600297e+00,5.925190107458209177e-01,-1.408273951729073437e+00,-6.341629305678864919e-04,-6.323436062843255101e-01,1.378290877778383994e+00
-3.697197850541889874e+00,-6.939569047711574568e-01,5.241972619970903802e-01,-1.479944329936447200e+00,-1.357445207389154362e-01,1.553314036145004406e+00,-2.378770951740148965e-01,4.128990714916449534e-01,1.200658179037155104e+00,-6.222378328555477900e-01,-1.041961536719914871e+00,-6.552646222341491633e-01
-1.703441115532094097e+00,-8.693346691485431821e-01,-9.305333760876576266e-01,1.741710766382541520e+00,9.398425861869266207e-01,-4.292662120897071110e-01,1.681291156064396441e-01,9.039470977101016214e-01,2.243149306039165847e+00,-2.326803032272171112e+00,-4.646382025411776584e-01,-8.768338059626187286e-01
-6.107262371330488548e-01,-9.724172443533698473e-01,-1.964832646026549945e+00,-2.818808642718110824e-01,-6.902886695926185867e-01,1.685508827483985991e-02,1.216933582718427755e-02,-3.702035287338893421e-01,2.093501558797883633e-01,-1.335999209881549854e+00,-6.126649378968561377e-02,-2.732445383428446783e-01
2.556814677393529633e-01,-2.531772872979773936e+00,-2.965939504645596636e-01,4.615374570612085781e-01,2.770718151161405185e+00,6.112863844673696034e-01,2.956745079395082798e-01,2.160784190531594540e+00,-3.329105164002542083e-01,-1.216929186233434601e+00,-4.440810623655994105e-01,-1.307989339957295272e+00
-4.842212573749111841e-03,-1.240471614715085824e+00,-1.418509783755392162e+00,-3.692035103963052789e-01,-4.405990161994998155e-01,-3.643922285781728831e-01,4.923650560970772028e-01,-2.645756207924148118e-01,9.207024111878309158e-01,-1.167033908847061596e-01,3.864302254019421068e-01,1.058001487750808156e+00
-2.609682348657903717e+00,-1.621206662291532208e+00,-7.056212198869589169e-01,-1.018394188365936204e+00,1.018653864587820035e+00,2.488556007522119418e-01,1.647151839164033404e+00,7.637868475582715311e-01,-8.913794850671182823e-01,-1.410922223526995367e+00,-1.643151582672130184e-01,3.288198003900236754e-01
-3.142204448143399165e-01,-1.951084175600545700e+00,-1.777451024389977707e+00,-1.337968085263229412e+00,1.996062737347307880e+00,1.674060186138678352e-01,-4.311679650854127743e-01,5.704968119210114263e-01,2.188589097407031669e+00,-1.296624435484322380e+00,1.872430945518714640e-01,-3.410998819537574556e-01
-1.836529365478071441e+00,-3.076342498179684970e+00,-2.463512482207442567e+00,-1.298765184106640547e+00,-5.799819728701089971e-01,-2.765421914251023350e-01,2.601838121184523733e-01,3.346986752004520449e-01,8.897065814366845737e-01,-8.800823586170062329e-01,8.730926287961187082e-01,-8.197609683939535152e-01
-2.812882501475701957e-01,-1.167121291757262425e+00,-2.326075804538855429e+00,9.043073448551531834e-01,1.514548678278060834e+00,-1.237725422822050891e+00,1.390125755691661302e+00,-5.246115298474171018e-01,2.693349353553388670e-01,-1.395164924681716156e+00,1.086848387340236116e-01,-1.011061116434539331e+00
-1.523351636722027447e+00,-1.315194793240576088e+00,5.538016557390755823e-01,2.817391808359655414e+00,1.561409706969102418e+00,1.028422053403358766e-01,6.712825224047993533e-01,-5.639861634157358194e-01,-1.236526748664480146e-01,-3.584303667199839172e+00,3.348993736267881771e-01,1.653714442133537603e-03
1.419593071919994509e+00,-2.218447197799001014e+00,1.641032244041607413e+00,-3.045071660568615113e-01,-4.177064653335468836e-01,6.236027971425036655e-03,-3.912577098184395752e-02,4.423052217954904219e-01,7.722752326837692416e-02,-4.860631403922528015e+00,1.000318130148622142e+00,7.521991032963400679e-03
-1.207755429270281233e+00,6.678606187541958894e-01,3.426962466429060439e-01,2.198600449489861164e-01,8.759521585739530325e-01,6.373131208058847585e-01,-7.649122065536245740e-01,-2.411785758414543568e-01,-2.600401301456609082e-01,-4.235126204029319830e+00,-1.159996887465652327e+00,5.460645351633069966e-01
-7.059378668338653906e-01,-5.148033650603808242e-01,-2.835022923153296404e-01,-2.118813279131324945e-02,-4.385889852533179645e-01,2.988416173689288913e-01,-2.496104690477888854e-01,5.614911826645023751e-01,5.157995658617733348e-01,-1.768635997786805802e+00,3.786552525125821411e-01,-6.924691041955310933e-01
-3.466071659111584768e-01,8.147355297158931364e-01,8.009117042952117460e-01,-1.582630848389948053e+00,-3.841396649021958098e-01,6.734705780343791526e-01,-1.873247793469335065e-01,8.822909944049092124e-01,-2.701659366897980058e-02,-3.255134871067223212e+00,4.585293456091959485e-01,-4.397857806042702600e-01
3.075226797738785378e-01,-4.656458590193489067e-01,-2.842957739572636200e+00,-1.733608839309521699e-01,-4.335277140467104218e+00,8.521343744461121750e-01,-7.728477616910810477e-01,-6.693300734624667570e-01,1.011610654161417960e-01,-2.468537361873957448e+00,-2.051397628292252140e+00,4.567249280886745977e-01
8.839567838759053095e-03,2.575416276828206286e+00,-3.251682201967272423e+00,-2.284745621469723709e+00,-4.705144233694449341e+00,3.780531359697288263e+00,7.115338194797106164e-01,7.376107364141175626e-01,9.887165359803786746e-01,1.114568785211261792e+00,-5.500058649312554726e-01,6.446167132328908256e-01
-1.219775777058533517e-01,8.189549618468714431e-01,-1.305456298375265112e+00,-1.228556887740391845e+00,-8.050432994649406870e-01,4.235895037133253105e+00,-5.107834888211956192e-01,-1.233165609011886987e+00,-1.559046534913160753e-01,-3.653647365431983429e-01,4.719337873017516727e-01,4.735756470405216856e-01
-8.150335318906051230e-01,3.871112375694675256e-01,-1.368354173168871535e+00,-7.511620132530408833e-01,2.316283039577916592e-01,-3.949387878455382639e-01,1.596344761607278562e+00,3.346266113554135502e-01,-4.444928267632840269e-04,1.011581746723045239e+00,-7.730990166366751293e-01,-1.504332181770348775e+00
-2.081951872952141624e-01,-7.553406542944059998e-01,1.066348245424562968e+00,-2.958680616849382328e-01,1.544257972371045895e-01,-9.849502924300082563e-02,-2.067245509505697409e+00,-1.158355282992045598e+00,-6.973895127599507582e-01,4.825042492801026039e-01,-8.274016512719202243e-01,1.219795356630049565e-01
-8.697527554237469705e-01,-1.425034376204753761e-01,-9.833797841956819497e-01,1.508455008598723168e+00,2.066624962618748729e+00,-1.211329711776826690e+00,-4.815863819654559452e-01,7.690205511757620682e-01,-2.734977963356400310e-01,-1.367589451607094997e+00,-3.973620824345364122e-01,1.000236053353445120e+00
-6.562387504915108138e-01,-1.136840342460984310e+00,-1.867087506996019552e+00,1.495310045272115751e-01,2.847247165047193107e+00,1.602606850121993942e-01,-5.499411119677579673e-01,-1.100242869905690077e-02,2.323252587855044737e+00,3.162531391418813009e-01,1.000121710260652552e+00,-1.446735936024547087e+00
2.239612856935801588e+00,5.911631592455032225e-01,-8.718454696008128835e-01,1.127907243076900212e-01,4.877351934225396257e-01,-1.302434281712886444e+00,2.146966581700808341e+00,9.046390313213099610e-01,-4.798643666780190165e-01,-1.441060826185844024e-01,-9.191096072486902857e-01,-1.555272689301597122e+00
8.629436633108823473e-01,-1.527783185840472013e+00,-2.377733528104570560e-01,1.923503676135745744e-01,1.564819987753742536e+00,-1.422614613892349555e-01,3.220956338392871321e-01,-1.160119347113539146e+00,-6.185319378028132364e-01,-6.708323823573651978e-01,4.902202578091275353e-01,-7.874074212481104729e-01
1.576994810038626627e+00,-1.389372085568123527e+00,1.180078975000065755e+00,-1.579965474172792816e-01,2.257461695830452086e+00,1.138462739011156355e+00,1.575673520898767554e+00,6.917649377327680371e-01,3.678615616980202268e-03,7.745369083889905859e-01,-1.178245191633856548e+00,1.861450576596964945e-01
-2.665088276796914735e-01,-6.678193899592677063e-01,3.832355369257985922e-01,3.533045113577920060e-01,1.269882708206044652e+00,-5.070366645426894747e-01,-8.840193969816484421e-01,-1.322070768540029473e+00,-3.111510725378028863e-01,-3.220036291584087856e-02,1.959390718820704091e-01,-1.567798053122234636e-01
-1.982815048659044121e+00,-1.950150058676620168e-01,1.593674654466334495e+00,-1.452478633510605466e+00,1.665307859144972813e+00,4.018076155167674829e-02,-1.101214607719974925e+00,-1.189056312060914111e+00,-1.479100067813469588e+00,-1.312108678022798181e+00,-1.366590589874959072e+00,-4.379088691138263156e-01
-6.072746534420789821e-01,-1.954463711508324097e-01,2.520150678604738292e+00,3.096637141724310482e-01,-1.228669186758736404e-01,1.195924778241012731e+00,1.327075428489723485e+00,6.151231873076641321e-01,-7.547736615307372166e-01,-1.252228164142719091e+00,5.671369650740834545e-02,6.210236597715839135e-01
-1.982889421809524322e+00,-6.513111635853330306e-02,1.131059650839693287e+00,-1.648580861705832179e+00,-1.690667000946064924e+00,-6.062157767628432170e-01,-9.906303227218331564e-01,5.801387604027767875e-01,5.306752074532092300e-02,-1.350793145056943034e+00,-1.135858636151320988e+00,3.334245590682008431e-01
-1.870543003882900956e+00,-2.425538699290663125e+00,-2.244871178384636734e-01,-3.623756224861924280e-01,-4.450829149597071432e-01,-1.603071628441199437e-01,8.898740902112735052e-01,7.359403617916675522e-01,-1.046536611833133401e+00,-2.048399638855600002e-01,6.308176097768034563e-01,1.864758341290151833e+00
-7.985479581775885016e-01,-3.650398563241750161e-01,-5.227941745896681758e-02,2.073536288847381392e+00,-1.457003023941116693e+00,-3.393214082053244707e-01,-7.507572123511637718e-01,2.897836625594632509e-01,2.580092710188575666e-01,-2.137942702517178439e+00,-7.919108877692566661e-01,-4.410787071089872224e-01
1.396739207424901597e-01,-1.230552445531453598e+00,-1.741487194738049749e-01,3.982379774635923519e-01,-4.226735107126782687e+00,-2.657140041989937140e-01,1.521372828153548129e+00,1.920782764088624139e+00,9.923449858757550368e-01,6.591644860438065079e-01,-8.112875366857819071e-01,9.625806800068186231e-01
-1.746750620980213053e-01,-1.474197131619277235e+00,-1.510389401361215134e+00,1.810001637627169702e+00,-2.444969230928370152e+00,-1.027822542491614977e+00,8.012795511478791252e-03,-8.602991405416883230e-01,9.753949443155649490e-01,-7.772803276094805147e-01,-1.755740913800218558e-02,1.173762188001350321e-01
-3.050229742409460432e-01,-3.198809479833706337e+00,-2.650405858127959036e+00,-4.098861751219629035e-02,-1.684926674502034372e+00,-2.770189237676599636e-01,-6.372488961685464082e-01,-1.082765354104693323e+00,-5.191210409507482915e-01,-3.914283009223836762e-01,-1.575747682940855876e+00,-2.672472588104744529e-01
2.190159291963586163e+00,-2.008789078996294108e+00,-1.509948454400618978e+00,1.903015711835472357e-01,3.369210164453059431e+00,1.535383060773637121e-01,1.455490818079456128e+00,6.137068164069690024e-01,1.116479785803130786e+00,-5.920573159056973234e-01,-2.920570948865514049e-01,1.030961097023347595e+00
1.018015520570656696e+00,-2.564954984320275244e+00,-1.471380053831939927e+00,1.899652330275025391e-01,1.460868810095520498e+00,-1.211187212021169080e+00,9.284142207441172800e-01,4.879942661487475797e-01,-6.188289886987102806e-01,-1.067768245522649373e+00,-1.108981330327659443e+00,-1.071137773991668873e-01
2.325303543914487014e-01,-6.970435777990414694e-01,-8.884928197250544502e-01,1.061765379868065295e+00,1.728197404081315725e+00,-2.259118302824340493e-02,7.315435668160178428e-01,5.754334223754192790e-01,-2.267665768533533299e+00,-2.581373625251970783e+00,-6.988077258176239592e-01,5.963863938528776026e-02
-3.112482201809786964e-01,-5.642972824511046648e-01,-1.420985687623832705e+00,1.354190537187176246e-01,9.128328711701877429e-01,1.974466791341810412e-01,4.962022701966010696e-01,-5.057952343078067070e-01,1.022108557580813759e+00,-5.131172192964362999e+00,-1.694578614743443179e+00,1.274464756310499658e-01
2.939139126626605925e-01,-6.299312673829510212e-02,-9.326767854851819584e-01,-1.909450355117388032e-01,1.231138959547161127e+00,-6.825887176842117265e-02,4.590006283394054698e-01,1.721068892042422416e+00,-7.707280639826183943e-01,-3.631755524987399841e+00,-4.600127463239947478e-01,4.521587304802714424e-01
-1.830803031591280883e+00,-6.053925210884879282e-02,-1.523376499760539904e+00,1.843530423414513564e+00,9.720307435507976115e-03,2.207278765137979382e-01,-1.025129887483465563e+00,2.866382363742007167e-01,5.493877897761493267e-01,-3.239308997487020392e+00,-1.021200556131929282e+00,1.421121555662682834e+00
-8.211625265048427824e-01,7.494213081847255209e-01,-2.232638587364729421e+00,-3.801858986504405569e-01,1.273606113954160346e+00,-7.956301634957675395e-01,1.885567303106841397e+00,-3.518653148622864490e-01,-3.639148330058540326e-01,-2.340133577792754327e+00,-5.794558827130040779e-01,-8.781348933071200236e-01
-1.060854511257039168e-01,9.955381097146864811e-01,-5.417579232332995209e-01,-1.952608972146590571e-01,1.251846243895414545e+00,2.043722739811811184e+00,7.908641210019813350e-01,1.365121800385578732e+00,3.866958730021268775e-01,-3.069166443797911814e+00,4.011132494937403314e-01,-1.654212538728741522e-01
-4.734890148370401453e-01,-5.532863601527335806e-01,-6.980846204793461629e-01,-1.057144960639531117e+00,-9.158783737906941447e-01,1.629046019010485846e+00,-5.707553144132528899e-01,1.654908840134565295e+00,4.645384068422831469e-01,-1.354064581738212425e+00,-2.313988832989096078e+00,1.165948353156934125e+00
8.284004825871408295e-01,-5.802597852344514306e-01,-4.902939687486985720e-01,-7.957644529413859802e-02,-2.548410479216897340e+00,1.412725204969129233e+00,-1.216849708166626964e+00,1.160529488253706720e+00,-6.194198425926448204e-01,-4.074243303332214516e+00,4.228214674807325713e-01,-8.083181799813401458e-01
2.284850189665013631e-01,-8.735191350135624866e-01,-2.522497650007772485e+00,-1.520473070673679317e+00,-4.849234847373214308e+00,3.152386147288578133e+00,2.544148616495182313e+00,3.518898960067658455e-01,1.295948965199972269e+00,-3.435753131749185396e+00,-1.769382770866584798e+00,1.715844404816126545e+00
3.956736998555840379e-01,1.015044995837730335e+00,-4.819287516187933385e-01,-2.128733885335037268e+00,7.607866213592959781e-01,2.068750875554156377e+00,8.021449564315595859e-01,1.730491392570548292e+00,5.196414754386466939e-01,-4.610045199699800422e-01,-1.902289483151460514e+00,1.211100841935815325e-01
-4.054246370644138953e-01,4.434986976694326732e-01,1.404669411138796287e+00,1.099492539437925798e+00,-6.555632534184381577e-02,3.326457478996616146e-01,1.318079630662678525e+00,-1.111560721644804683e+00,-2.179315743110251113e-01,1.333578765871207272e-01,1.105490333297564520e+00,9.328835489378077828e-01
1.996798165788626206e-02,-2.808445883091401085e-01,-1.215034300517995325e+00,-1.096703180660248134e-01,-9.401394853270488294e-01,-6.402992923363918232e-01,1.222367116827544897e-01,-2.386651677419218132e-01,1.199809571844767109e-01,4.721528501680730683e-01,3.576321801564888436e-01,8.220580511730871676e-01
-1.151121035616829325e+00,1.653394805794965228e+00,8.586316316782362235e-02,-7.824850142683484888e-01,-1.647713436260918596e-01,3.718195804300798435e-01,9.230142369176435047e-01,4.954165143334951504e-01,-6.943533008380542437e-01,-1.576611843596073870e+00,-7.054937906319938556e-02,2.112952098986516258e+00
-4.488071436179539853e-01,4.103248683208787773e-01,6.422940217670904950e-01,7.977429963955787739e-01,4.385906846724488273e-01,-6.364666092396570329e-01,-9.519670975892903231e-01,-8.757134351139840289e-01,1.774823984170319058e+00,-2.672813077771761803e-01,-1.731303513008890238e-01,-1.137213817764169688e-01
-6.526188402710406677e-01,-9.098791302574318340e-01,-5.939948434972281976e-01,-3.788115949789611081e-01,3.638371938582261600e-01,2.520617535325859748e+00,-1.927761659612895029e+00,-1.475852893873834004e+00,-1.009433182908098664e-01,-1.169937576770642806e+00,4.006144808786522016e-01,8.718456758257185912e-01
-2.079937196496187468e+00,-7.509581120432355927e-01,5.805175118323050443e-01,6.771817125768103685e-01,4.748131795946138323e-01,8.510587683281743976e-01,-4.528699317692827520e-01,-1.148246517138014733e+00,1.195892357599205980e+00,-9.669164291755914797e-02,1.243337405964327180e+00,1.753302865466326965e+00
2.582951500750238494e-01,2.049372130221282229e-01,-7.766663260685262582e-01,8.434381875967532638e-01,2.489375475665090320e+00,7.625914255954790999e-01,-7.207691916200844595e-01,-8.065424416307442890e-01,-4.454052118548442185e-01,6.427898285947126755e-01,-1.180953322213631029e+00,-2.442694379369340307e+00
-9.138034956658471764e-01,-1.622708625565236540e+00,-1.052049532956362388e+00,2.409211096631296289e-01,1.085878713304305743e+00,-5.825547636312097266e-01,-4.949379284341310359e-01,5.723818323089253646e-01,1.493161152615580904e-02,4.425861645493612273e-01,-2.284112670774387510e+00,7.010671784224884462e-01
-7.264774226195591655e-01,-2.192944599540707085e+00,1.615845739056144481e+00,9.377846038905356396e-01,-2.459530051550649965e+00,1.858308672909352977e+00,2.463805246535704652e-01,7.299384750407178490e-01,1.778206517052649760e+00,-2.165187270422280985e+00,-1.670539093603715441e+00,1.403277667326584988e+00
5.529322162520936557e-01,-3.906700316583685550e-01,1.819968979463364722e-01,2.274092963356680208e+00,-3.859471331458079746e+00,-1.427837574088075372e-02,-1.832589532153679590e+00,-1.040000699414215024e+00,2.326258923357501729e+00,-1.131662981452564498e+00,9.764269664095912571e-01,-1.322526377359122263e+00
-1.647520689269160954e+00,-6.769531624678292170e-01,-9.450321926715662402e-01,8.957639458459170090e-01,-4.250643882455607425e+00,1.413941574745430474e+00,-5.093749390080815065e-01,-1.254238468477369278e-02,1.879947519978336645e-02,8.459477939736379515e-01,2.446738104893873000e-01,-8.366059926906973532e-01
1.236331683380606783e-01,-8.236455830572923797e-02,1.451898296867808025e+00,1.240495859197015438e+00,-7.467238118314865503e+00,9.643428298051119896e-01,8.943312447577036473e-01,-8.028616192952205965e-01,-3.262080593508416282e-01,-8.247857618059931673e-01,-2.139184429750691230e+00,1.537773284496359305e-01
-5.736549332102893750e-01,-6.108621169398203987e-01,2.228988330140263541e-01,4.983186497273839333e-01,-7.006826539720877989e+00,1.058079555595852428e+00,-6.628574540455846043e-01,-6.016366001901484184e-01,1.229402214019956308e+00,7.676750376419535504e-01,1.747234913004026557e-01,8.364262923015052253e-01
-9.649047520750267948e-01,-6.758848135145768543e-01,2.968534198763703863e-02,3.875633278036563767e-01,-6.015427163323828097e+00,1.589983631490176741e+00,-1.568043885708107821e+00,1.722912061860322752e-01,-1.156999782411955557e+00,-1.689383151300374752e+00,-2.103246086352955402e+00,3.829278054812806920e-01
5.257602201085244398e-02,-6.116999110829379749e-01,-2.721148131721616292e-01,3.172958182032466823e+00,-4.319931368963501050e+00,7.779296779230913117e-01,1.815986714858164042e-01,5.274723411335138223e-01,-1.268831349130992159e-01,-1.089469893214836116e+00,-7.932375730346225007e-02,-1.239330417893389047e+00
6.775231635592759982e-01,-3.349001746586240280e+00,-3.879089213511174528e+00,2.140782509379187015e+00,-3.953809845388367439e+00,-2.325745421965345339e-01,3.249336278692580016e-02,4.463132119033491607e-01,7.152972198241548396e-01,9.340332536531833485e-01,-5.413140608919816410e-01,1.000602865734977059e-01
1.047324315222254443e+00,-1.284164040236827731e+00,-1.553467769353592542e+00,1.681154364114365807e+00,2.398116740294290672e+00,-6.693919103442382834e-01,5.096634074077789345e-01,9.820614717033357977e-01,1.114207097595586671e+00,1.897978802238543983e+00,-8.164191607995586741e-01,1.904538202974587896e-02
9.706236815004665175e-01,-8.221995991312061047e-01,-1.039932966006363868e+00,1.789732712416406857e+00,4.661909636517616917e+00,-5.648530660190730357e-01,2.997776852502054279e-01,-1.084569920651215158e+00,1.147191641425178987e-01,-1.054467545996474964e+00,-9.622153135814380809e-01,6.017096488095697859e-01
-5.018851814352567886e-02,-2.073859369365045335e+00,1.740710481595603598e+00,1.903908880794616509e+00,2.573786436816499545e+00,-1.047563323314121719e+00,1.629523783335485421e+00,1.684027025581936454e-01,6.269402673523892799e-01,-1.885343139379017652e+00,-1.266455094817333649e+00,-3.275345841692431370e-01
1.938564345393964938e-01,3.656300504375714633e-01,-5.955998315066578508e-01,1.688264372539373337e+00,2.030877852920732529e+00,1.549378145881158686e-01,7.666431742721195874e-01,1.356177759525104276e-01,-4.865513603144083071e-02,-7.766332591293876320e-01,3.296548263833811165e-01,2.085330317346808515e-01
-5.021497664893744828e-01,-1.155396447894537548e+00,1.307802409400870558e-01,7.429972763354408816e-01,2.064799712107623808e+00,-1.702068012891731152e+00,5.945513439724479099e-01,3.430104508633946558e-01,-3.973505843970258633e-01,-1.405114903054298425e+00,-2.510808776144620169e-01,1.426241372570806187e-01
9.597725269751193611e-02,1.133945252994312147e+00,1.456501155117184254e+00,1.195540818047321707e+00,5.536824728544059715e-01,1.899058577258277980e-02,-4.481824953781687881e-02,6.603889156936648686e-01,3.048447224662592103e-01,-1.936745076592642167e+00,-4.843612356899118510e-01,1.839891427121569667e-01
-8.176882538163583458e-01,-3.164374845942804271e+00,-7.608205382777183390e-01,7.828025847823497640e-01,-2.589308915105767439e-01,-5.719291281125541415e-01,1.561683818234230525e+00,-1.057460638081456183e+00,1.237223539394457283e+00,-6.009304432377762240e-01,-1.500548639974373488e+00,1.339461852095278571e+00
-5.674499829766964654e-01,-1.663312196106060403e+00,2.195100207606324183e+00,1.835874381614338302e-01,2.017442272268803460e+00,1.781479097303964310e-01,2.723636837520292953e-01,-4.001702560078523180e-02,-2.556731022912566154e+00,-2.481694867693300388e+00,-1.917422686839795887e+00,1.898760092951790046e-01
-6.034210914896894762e-01,1.204381035735526018e+00,3.070005760580237220e-01,-8.184511959011614435e-01,-1.338951863341303117e+00,4.050847166225203522e-02,-7.650996391950528608e-01,7.363368762188986505e-01,-5.223020801042822514e-01,-9.352169223627685435e-01,2.310080269057053215e-01,-1.220568956451208553e+00
-1.163701807142011102e+00,-1.672401543721309947e-01,-6.366286149016735507e-01,-1.835815371251058536e+00,-4.117942936524980446e+00,2.598067859217115805e-01,6.848464933378514141e-01,1.172462735871433459e+00,1.383525013146253091e+00,-2.724206648028235644e+00,-2.467650497818125732e+00,-1.763222055973492630e-01
2.160986780396672580e-01,6.817743626665351275e-01,-1.038629924929548753e+00,-1.121538653954032405e+00,-2.447286651865579810e+00,2.773602385212554644e+00,-5.842594047918219236e-01,1.331366905611404805e+00,1.089950798432452350e+00,-4.680150558391087401e-01,2.529164957153729465e-01,3.034368218971787989e-01
-3.638508249368319070e-01,-1.261870835568646099e+00,6.320773833233574168e-02,-1.725230554082219481e+00,-1.358612180679176662e+00,3.822331001766698932e+00,-2.160698679850031889e-01,1.712079471332759395e+00,9.464089707422064512e-02,-1.177820515952099134e+00,-1.919133553109020340e+00,1.903008817754478610e+00
-3.757079766685469391e-01,1.366890686330567650e+00,-1.903140855564698364e-01,6.701118150656506511e-01,-3.839505106949061553e-01,-9.882989800260340296e-02,1.924486386751705358e-01,-2.084528863343019373e-02,-4.815975444313128628e-01,-3.653348363502754159e-01,-6.837728347280211949e-01,2.621976916070615449e+00
4.536151653383483917e-01,2.535590114211285773e-01,-1.746908209623746974e-02,9.616328305779948682e-01,-6.959506556712614644e-01,2.137848507444018775e+00,-8.029615087883895663e-01,9.728183785618663704e-01,-6.341107954007103864e-02,-1.184728539804089431e+00,-9.428260748304597705e-01,7.623148122538145888e-01
2.340696520740403741e-01,4.012058483675858822e-01,8.047229715775359171e-01,-1.128697534438944869e-02,1.309241931387030711e-01,-7.301985843378760999e-02,1.369596881845603908e+00,5.740955712111499992e-02,-1.648128600306140445e-01,-1.611740354716580059e+00,-1.499130973590655724e+00,-6.033177529240973946e-01
1.744329245555005681e+00,2.329925216534675769e+00,2.693946486560162334e+00,-3.247937930116909788e-01,1.793832298622602961e+00,6.496820123619929666e-01,1.136366852548886586e+00,6.040452817878304570e-01,1.234389227368866582e+00,-1.861223265650957803e-01,9.681406921356663364e-01,1.312392499796544709e-01
-1.075626223815860261e+00,1.105399041553354555e+00,2.950253784743758767e-01,-7.578210582572691978e-02,-1.670153739613495336e+00,-2.667390707915678894e-01,-6.909903767710103839e-01,-8.626746149853906087e-02,2.238797508280419568e-01,2.707084525929502258e-02,3.770596021625962080e-01,-1.243947660961560731e+00
-1.631847255257741436e+00,9.319165053790234854e-01,4.291661176538260070e-01,2.504377533663512345e+00,9.500690567576006718e-01,-5.425675128318860896e-01,2.458227975237289531e+00,1.083036370744885485e-01,3.910430043242598130e-01,3.182308107960212795e-01,8.274681101260007443e-01,4.434528306107038409e-01
-1.432062278843989400e+00,1.229505966022535368e+00,9.143590640469273501e-02,4.664504130705176554e-01,5.498552741050533044e-01,4.369361837083582389e-01,-1.304165860118924991e+00,-5.062500142600308006e-01,-3.528109437592880093e-03,1.584446299487824783e+00,-9.412910321049652307e-01,1.147659687810258511e+00
-1.177963273471551719e+00,-2.240985262622345875e+00,-1.667113860166159922e+00,3.184511369217822851e-01,-2.607157095788051659e+00,-7.782035071889020772e-01,-5.072617278402644647e-01,1.077652976930252526e+00,1.438885805996143130e+00,-9.114105654202279139e-01,-7.327947406925161555e-01,2.196259843849197035e-01
-9.986391443006745749e-01,-1.336517394357130906e+00,6.254311308788896850e-01,2.954940774843484164e+00,-6.037138698539697756e+00,1.586845862237983518e+00,3.071021578170389787e+00,-6.350675445807600905e-01,-1.919265373937423025e+00,9.665644346034851786e-02,3.976326891873601110e-01,-2.813588438352679244e+00
-1.246130372263884345e+00,-1.835528217880121771e+00,6.839762145795521553e-01,-3.766981372989079979e-01,-5.455365109534175083e+00,-8.557328207535971343e-01,1.204931912331780319e+00,1.473550956321134198e+00,4.006031180001847769e-01,1.385691031761397296e+00,-1.736202100790252612e+00,-1.547397137390867927e+00
-4.936159143825419315e-01,-2.957532342619706989e-01,6.307462247945415657e-01,1.261790319251728798e+00,-8.797062407605064749e+00,-2.421526990869376783e-01,7.753790142420341480e-01,2.470619754947604163e-01,-5.632744380781963267e-01,-1.519499389733985018e+00,1.784455252386611512e+00,-2.320412216400620231e+00
8.253312139008940340e-01,-6.337898244019701810e-01,-1.008045603602699902e+00,1.625332144456974048e-01,-7.765490586155944008e+00,1.890391369831029955e+00,-9.242456899077350352e-03,-1.254566187316557835e-01,5.223216881941055156e-01,-8.554524615712811864e-01,7.347103452325511874e-01,-1.453641720916314162e+00
-1.125666911808515858e+00,-2.542586193152660545e-01,-1.501135742152119201e+00,8.810452169398725886e-01,-4.473534008127666439e+00,7.703798285434422244e-01,1.593286176943939036e+00,-3.286814528311429728e-01,-3.191983237705516285e-01,-6.105492414406173962e-01,2.766885412675914035e-01,-8.811009074435300903e-01
-9.957608459475003615e-01,-3.541930165167036515e-01,-9.412470959467489351e-01,3.004662606735065467e+00,-5.308811700202864081e+00,1.365124302162189940e+00,6.156284612056661665e-01,-1.392202259008565035e-01,1.972496787476623714e+00,3.027048721150613075e-01,7.134203701590994262e-01,-1.223489884757712920e+00
-4.957097515112992014e-01,-9.698424359124743210e-01,-2.831174598985064073e+00,-4.149294495834909835e-01,-4.455196795502045504e+00,2.320942102262659734e+00,-6.217029528133228844e-01,7.943264180324768331e-01,-2.109934308295138838e-01,5.556126710718679584e-01,-2.541085841541967372e-01,-4.935427364803282591e-01
7.254604641728072956e-01,-3.614870435008889160e+00,-1.216030222107361336e+00,-7.777982328722311545e-01,-4.963852560180529672e+00,2.919739487382465359e+00,1.690379314203233507e+00,1.600656828536879406e+00,8.521095507544766967e-01,1.193403860200488831e+00,-1.050025707022063770e+00,-2.727940463639687341e+00
2.741542597384061697e+00,-1.438573730315560795e+00,8.493826926192896698e-01,-2.394957618727246995e-01,2.243108759936102981e-01,2.376076395259575591e+00,1.236794116273230888e-02,1.147765280747220284e+00,-5.470490655752183740e-01,1.466331049262017405e+00,4.371608258538623448e-01,-2.086175411618352016e-01
-2.849503807994726023e-01,-1.513606856400032674e+00,2.554731608819917899e+00,2.554660397098236224e+00,3.849268361843054542e+00,1.193780298917879845e+00,7.516743742651229576e-01,1.038257204403900680e+00,1.272775508405949330e+00,-1.476636837504113897e+00,-2.555071539607084441e-01,-7.799256313944941121e-01
1.467691790325549528e+00,7.641241053500809066e-01,1.956630558132558928e+00,2.506709667450344181e+00,1.216267421277423377e+00,9.914071120986888142e-01,7.567778878819384492e-01,-9.489807063817298216e-01,7.813522576472129444e-01,-1.212934610891550191e+00,3.346656127096901412e-01,9.088533282036400651e-01
1.083390951075101916e-01,-1.568172462655230470e+00,2.534148909363657332e+00,1.933134845917985123e+00,1.724590781251429117e-01,9.626088012327886911e-01,-1.784312739012473781e+00,1.611496042777937676e+00,-1.344358858398122747e+00,-3.278251193840039934e-02,-3.142486396804295978e-01,-3.906593089816720599e-01
