-2.392658258524154868e-01,-2.077528275980066841e+00,-9.028363051839984055e-02,-7.665601361191893837e-01,-7.908683984936484279e-01,2.814754053989573235e-01,-1.823868504364771104e+00,-8.982838961015994217e-01,-3.466907244341516092e-01,-3.860497861884422399e-02,-3.765780773691186356e-01,-1.528928201164366119e+00
-2.730926231864466480e+00,-6.022522070833069563e-01,-3.818476549723186508e-01,-1.732890812575114570e+00,-1.780848515278798255e-02,7.109198477221743973e-02,6.694226271677023998e-01,-5.969218324100753481e-01,1.899639478506939039e+00,4.106221847923711699e-01,-1.197277535450757130e-01,-2.880805423183023795e-01
4.540880054240441499e-01,-8.385562720497830025e-01,-8.412897555425558060e-01,9.602150150886352709e-01,1.110413269151230425e-01,2.143298269997083505e+00,-4.293474550957999125e-01,-1.780769570761768117e+00,9.139602906480902567e-01,4.532052864807227799e-01,1.664309328700242618e+00,-9.358167682092826123e-01
-3.920750435716138238e-01,-1.266785985427841599e+00,2.991392922014461941e+00,-2.219346153192628179e+00,1.416255013301887633e+00,4.930616647042508904e-01,9.223191326401206647e-01,-1.474552507588855255e+00,1.008364364419650910e-01,1.331023459198980241e+00,-7.209542170013896190e-01,4.024802367837445605e-01
2.039416160207321305e+00,2.027069952105648110e+00,-7.889770990880534685e-01,-5.753351821956649292e-01,1.513287725593583266e+00,1.482901905475664528e-01,1.059412370679423399e-01,-2.024648709352726339e+00,7.039427840831194993e-01,1.107578810730027286e+00,3.398889946782023275e-01,8.506660802928486254e-01
-9.147097381337525590e-01,-1.630238518083931831e+00,2.537031628851210141e-01,5.100864579922602671e-01,-1.340680343530717966e+00,1.361439004150136522e+00,-2.489724089363387904e-01,-1.627488765256556169e+00,-3.643786423249031209e-02,-1.767488105546843602e-01,2.844012395308275765e-01,1.535909938836260147e-01
-1.890769148419592982e+00,2.710266671815915629e+00,1.275208865175553985e+00,5.534967163883333097e-01,-1.430612670863076419e+00,-1.206077446938967457e+00,7.572096119577169659e-01,-2.890203118321624243e-01,1.436029507034335129e-01,8.414645348562275196e-01,-1.450756653091056725e+00,-2.016804681505134922e-01
1.717137739736956492e+00,7.239485406460303973e-02,5.387650559256819127e-01,4.509981877867184075e-01,-6.397784362064511295e-03,-7.747110876257903289e-01,9.294450963155446166e-01,-7.016121837119039251e-01,-3.839701716656482300e-01,1.005112936518387512e+00,-8.483548502945927883e-01,-2.752248080975259192e-01
-3.296146701824210212e-01,2.141961384636509869e-01,-4.115981735382653883e-01,7.632594062847054550e-01,7.756052027311017838e-01,-3.474091462990598900e-01,9.936605776965856673e-01,-1.536022809627714647e+00,1.861843689155646409e-01,-1.844364508645305115e-02,2.145208667756375032e-01,2.607502181348925752e-01
8.237134547097653137e-01,1.044191705764255934e-02,-7.830225124055494312e-01,-1.402029239625031565e+00,-8.840471029019003613e-01,7.643758397293091145e-01,1.040525568448061322e-01,2.572185464110840480e-01,5.326521729087984047e-01,-6.737747172636012749e-01,3.238625294148005929e-01,-5.190985349279176875e-01
-9.065939167941643451e-01,1.951830897566111389e-01,1.056544908079317890e+00,-7.257055233101981084e-01,6.991734146534209771e-01,-1.022314671718176221e-01,-7.336471110499152015e-01,5.032623453308933126e-01,-1.099738214493615418e+00,8.090613938054248555e-01,-7.427099478713442560e-01,-1.212074683306482603e+00
4.076676366370198257e-01,7.702911611240486067e-01,3.651897315384047271e-01,-1.043276874199998261e+00,4.675255229007753699e-01,-2.123743209385935860e+00,8.685234683582487847e-02,6.314463054849343004e-01,7.971908255040677238e-01,-3.111416952408607717e-01,-3.134723451256050120e-01,5.192729287199375765e-01
-5.956247260923437370e-01,-1.825824548384481771e-01,2.200215701981959704e+00,6.441573188901970060e-01,4.217703017615145322e-01,6.629229824210719491e-01,-1.610391153339780335e+00,3.721662373967391524e-01,1.688535122913611408e+00,-4.530101966893729237e-01,-1.247330396364003224e+00,-1.650308432393118308e+00
5.758275256220364291e-01,-1.174521528353240640e+00,7.854281239199236708e-01,-1.607699351149755387e-02,9.958162660133714761e-01,-1.317472442595837512e+00,1.956756206097862716e-01,6.797173453414642186e-01,-1.518690993642416887e+00,-9.021106762699344639e-01,4.309542665796070593e-01,-4.847226704196306857e-01
-5.141067462490258588e-01,-7.773821518370379602e-01,-2.210595834234501122e+00,-9.517727854757320749e-01,1.860423983867181830e-01,-9.676728856896549269e-01,7.791325646720491660e-01,7.871723194646599309e-01,-1.918465337720442809e+00,-3.143715318396165248e-01,-6.730492451676696186e-01,7.611377524453556420e-01
-9.776792075140499083e-01,-7.512853715721860004e-01,1.393525316592897356e-01,1.521435404400208746e+00,-3.141018578253124138e-01,7.012492532536453993e-01,2.527884332503618214e-01,1.235948374546653961e+00,1.030722450090808318e+00,-7.179222218529127675e-01,-1.049263328811544271e+00,-1.161816291830215286e+00
-4.089446254050021490e-01,-1.410561735699830566e+00,3.317675797267988225e-01,-1.560750484088229362e+00,3.782532323870780866e-01,-7.574200527228522883e-01,1.667554510150670022e-01,-1.074287752015546715e+00,6.774513475162607934e-01,2.237798087740631714e-01,5.841436611234269299e-02,4.581853572354973592e-01
-1.018652148496528298e-01,1.768624214446882448e+00,-3.789329079765227926e-01,-4.352514746573588611e-01,2.954080417996393093e-01,-1.600412566082237698e-01,4.152192160991598491e-01,-1.421787313871385461e+00,9.764268499042829674e-01,9.157110285433196772e-02,-2.092553987239353930e+00,1.826059749393589282e-01
9.578800738233618217e-01,-1.265060516866154172e+00,4.476492355147507207e-01,1.302266083118974294e+00,2.140819047835864630e+00,3.950832110190595214e-01,-5.270337220270728817e-01,1.030494650292177017e+00,-1.702247798087409558e+00,-9.121888737767059885e-01,2.280255489720147688e-01,-1.494191137795146229e+00
-7.502843520466331295e-01,1.013747219123148247e+00,-5.651118503325167769e-02,3.966069806287191302e-01,-1.475110673259429073e-01,3.583682753431082224e-01,6.116978004284484571e-01,5.646399147199784863e-02,1.519770961154336131e-01,-1.553100209815030608e+00,7.941308155164228388e-01,1.245194786040189516e+00
-2.351774241069445534e-02,-4.225871603773912466e-01,8.069567794597400923e-01,1.709564545526301438e-01,-1.071261118727478756e+00,-1.581613790551103849e+00,7.719546983690153130e-01,-4.589631399272430246e-01,2.784916239356875489e-01,-1.845222020470294322e-01,-6.881346676621262759e-01,5.500595192472210737e-01
1.259919008127222462e+00,-3.457210938387566546e-01,-1.780718246110552405e+00,-7.331495065779976283e-02,2.018908835987719641e+00,7.434806603642579725e-01,2.240615062158048953e+00,1.540746485345060979e+00,8.919561693472376858e-04,6.646637527800934864e-01,-9.267065302900019397e-01,6.769699449473031150e-01
-2.314434921753590224e+00,3.763182274028213925e-01,6.405978252046260479e-01,1.499300506273445022e+00,-1.992067602696774853e-01,-4.911133271190743499e-01,-6.405334799244177812e-01,-1.331139780116259441e+00,-5.528265849546938338e-01,-1.463980359738298986e+00,3.415496935285614044e-01,-1.663057807820698564e+00
-2.993068389045418498e-01,7.066504822407908559e-01,8.128961584262266449e-01,7.811266243785548458e-01,5.740695510933986334e-01,1.578731843885168851e-01,7.403983349634375433e-01,-1.029080098989995501e-01,-1.665436928955911500e-02,-5.113291455925026430e-01,4.086052068417082017e-01,-1.197156527672452064e+00
-1.441881764294705937e+00,1.503129825381549711e+00,9.920459970826182028e-01,-1.189778418245737379e+00,-9.595136561451538260e-01,5.869279323155477401e-01,-4.146591557593982680e-01,7.539292334429347209e-01,1.733355488331510985e+00,1.430436433631337989e+00,-1.105792351827987074e+00,1.629080853024866382e+00
-1.339378469869199728e+00,-5.521773764070224688e-01,-1.209902596210226555e+00,-2.632277729581146142e-01,-7.897186529629635077e-01,7.477565991712797899e-01,2.855795743321353775e-01,-2.796504498477773160e-01,8.642097858609821825e-01,5.156257798948407078e-01,5.883063117178068957e-01,5.548827643393529074e-01
-2.877532966171368958e-03,8.088680114315104364e-01,-8.375269376430048984e-01,-7.239185881543902523e-01,-1.336121892504103181e+00,-3.183122358851395717e-01,-7.934810756880574800e-01,-1.317190832295488390e-01,-3.245715784512147040e-01,1.482897169006215599e+00,-8.130204214304276311e-01,1.530151230767617943e-01
-1.059447402773300961e+00,-9.501419257604829527e-01,6.394176670650703054e-01,-1.658947073705999142e-01,8.728623464570827162e-01,3.347296937446873066e-01,2.021015416920509955e-01,-1.371074003042854761e+00,6.003912836392561597e-02,5.268921152608229547e-02,-4.122785336929552513e-01,-9.153259732534989590e-01
1.701145916618314269e+00,4.330682039007254236e-01,-3.611833052552176904e-01,1.855619623793703710e+00,1.025987602358265249e+00,8.680821132433248488e-01,-1.652747357983783916e+00,5.522931253294882659e-01,1.160542502622717409e+00,-1.162762078804225663e+00,-1.769253119632617333e+00,-1.262014310080881163e+00
1.247937857571850051e+00,-7.198849607945962022e-03,-1.848756969988504251e+00,9.927851224041370770e-01,-6.108158961584775337e-01,-1.339751856843734101e+00,-2.040747484164617265e-01,3.901144241942147706e-01,-6.956239718963492802e-01,-3.592690731801030934e-01,8.498588805597965257e-01,-2.441357262091523872e-01
-7.163939529078754143e-03,-9.076331747693096308e-02,-1.699451996177062219e+00,-8.062352925002580495e-01,3.375415603340204962e-01,-7.942927516287741074e-01,1.334350706450801116e+00,-5.934977749053172991e-01,1.453540713921652738e-01,2.697221042106954791e-01,1.014081916215435974e+00,-7.051623869245926546e-01
-6.236072876069500559e-01,-6.350764264685603289e-01,-2.424371358796916009e+00,1.052155109050038950e+00,-2.948911845911328822e+00,-1.049580770140540853e+00,3.396715479567736784e-01,6.512650331877455068e-02,2.868476848535571055e-01,-7.960282683123133529e-03,7.879891206110970492e-01,-2.753270521250759995e+00
-5.737909523810277301e-01,3.785284067974263866e-01,-1.616441290571974942e+00,6.323365258771828090e-01,3.495638809286774618e-01,1.052432793125996024e+00,-3.890630119121262775e-01,-2.767592013096386028e-01,-5.872850265166752459e-01,4.485913023522410115e-02,1.451577369112752258e+00,2.080959866209580067e+00
-8.840326137971206422e-03,1.204344284357424105e-01,5.907174307634506238e-01,-2.812208649989197395e-01,1.927144292173756379e-01,-1.738922495736755280e+00,-1.282736583220365434e+00,1.239366731214857076e+00,-2.602679536026179630e+00,4.880679915685153247e-01,1.160011088263009471e+00,1.360070856368344350e+00
-2.872901361189486580e-01,1.263991570159088473e+00,-5.158696439589764982e-01,7.033757312485876545e-01,7.114111444284422214e-01,-3.319967713411978716e-01,2.167443289103158643e-01,3.600215294221436602e-01,-5.193845020425387204e-01,1.384522045558277625e+00,-2.668713639489984080e-01,1.716600519742267572e+00
9.348933783487130000e-01,-6.339166358526358014e-01,1.251125204470876939e+00,-1.177838447605910055e-01,1.519079640537766007e+00,-6.531800918621381014e-01,1.521564127291376911e+00,2.197487192591445204e-01,-3.475528322479032872e-01,6.034487254262286271e-01,4.838686529335673447e-01,-5.481472505373359283e-01
-1.310162914716820559e+00,8.959967206677756923e-01,-9.828155983202538915e-01,8.857304595392077873e-02,-4.643979731459529914e-01,-6.475841071285205752e-02,-3.570013236112038690e+00,-4.625436561357622045e-01,-1.845893909603032013e+00,1.915432116386676986e+00,-3.774009977290311846e-01,-1.511015590550641274e+00
8.105373251415608493e-01,7.058013046532691792e-01,-1.228197523955573134e+00,3.483532474960664149e-02,-1.442065066099053494e+00,-2.162177863197989325e-02,-1.737073696783488996e+00,-5.581219708451947564e-02,7.693591433294413306e-01,-2.758773177205756100e-01,1.252899352318343817e+00,4.065040422948326335e-03
2.019242449930050753e+00,9.889253724099954512e-01,-5.794267400671826440e-02,-7.092957553099633605e-01,1.090883272721377972e+00,-2.831913984566422071e-01,-5.674031894367344009e-01,3.854693604809155683e-01,-1.213363688190495671e+00,2.751683090544772003e-01,-1.467407596533939929e+00,1.370176569711146763e-01
1.759443905527694960e-02,1.094064490312675497e+00,-2.087024632591387263e+00,6.880294133751441166e-01,-8.957389385904420687e-01,1.862315208047909731e+00,-4.899515185791527561e-01,-1.290045213692117276e-01,7.995609223725510528e-01,3.040753893406659136e-01,1.231800534374781542e+00,-3.103236787219071369e-01
4.016581670209631305e-01,-7.198464133898966333e-01,-4.853983542383715766e-01,8.217451098107571295e-02,-1.010315896020600235e+00,-2.495083189631046305e-01,3.381780547835829820e-01,-1.812588501310074429e+00,-1.822244481935997529e+00,3.356278393421558426e-01,6.106003580003550590e-01,3.336802050619215310e-01
-1.157346848975232323e+00,3.317817766832656390e-01,-2.336787096767091176e-01,-2.415618456984520712e-01,9.658222632606792146e-01,5.332780463978030738e-01,-5.415960270480398853e-01,1.415341606261551477e-01,1.987045160203634309e+00,9.807001416913262437e-01,-1.728647527248366456e-01,4.213308419885827272e-01
-7.793182424630188398e-01,1.794446354664645860e+00,-1.603036651848951610e+00,-1.939077277565492752e+00,-4.880778973106291718e-01,9.192493749295687078e-01,1.280629415309960217e+00,-3.156287951538173098e-01,5.318427194415213943e-01,5.341342500567317630e-01,-1.315389779327785336e+00,1.459171374852639633e-02
1.027196261812194332e-02,1.846728793495997056e+00,1.793899307637655482e+00,1.413142258629654924e+00,-1.881075087733423468e+00,8.884717682411577000e-01,2.869130923550055612e-01,1.074458746718609525e+00,-1.211145799423880565e+00,1.402925565144933495e+00,7.275219445116228867e-01,-1.598874136246619115e-01
-9.883395935501914087e-01,-1.236778535448449651e-01,1.384749638583776088e+00,-1.219860945427961418e+00,-7.830617250829710052e-01,-1.056559702182694904e+00,-1.167707078309581786e-01,-8.276514297163680700e-01,-1.044780046597395318e+00,-7.173942982179049022e-01,-3.242870790715647322e-01,1.045115509198301096e+00
1.945728252778756717e-01,-1.834544905342250787e-01,-1.427081819334226953e+00,2.096406566369474866e+00,-2.994190888017978641e-02,1.990831943917066582e-01,1.538335069301734137e+00,1.339066804298895796e+00,1.657212498178928517e-01,-4.199731241366985723e-01,3.999687313955791468e-01,4.528461872850849668e-01
1.812887575784324357e-01,1.036267336065024747e+00,-6.574580940512053662e-01,9.284962669401249924e-01,-1.575239594048512215e+00,6.195187085088719181e-01,-1.715905665218852905e+00,1.079892905513597512e+00,-1.531686624638237647e-02,-3.504276490624549933e-01,7.674541185786675213e-01,-1.305142858001491879e+00
1.065014021352447715e+00,1.204760799350794276e+00,-3.099352967275273429e-01,-5.432883924648810314e-01,7.900075389971136230e-01,-1.295946184143574209e+00,2.227486536789839988e-01,-1.140571519950533963e+00,-1.977343641706741817e+00,-4.553776123702735767e-01,2.273218090484238729e+00,-6.949483862908324705e-02
2.038595746222896243e-01,1.184171476955586000e+00,-4.932975332331481222e-01,1.017382260949843964e-01,-1.215455035150493357e+00,9.325645616994147069e-01,-1.047211761723242818e+00,1.380629379454709760e-01,4.936038183536889945e-01,-4.399743751785317736e-01,-1.523950411512508651e+00,-3.466564022360087427e-01
1.614951026829310465e-01,-3.971909320226401086e-01,-2.621957640336661233e-01,8.343994268318680740e-01,-4.011057967816795133e-01,-5.671538801745262814e-01,-1.501764563590593182e+00,1.597716747126769032e+00,5.154413491102705080e-01,-8.278016787073073646e-01,-1.173248504605341802e+00,5.931797815468031754e-01
-5.958065903905676031e-01,1.497530312549461007e+00,-1.627297254415972505e+00,5.984783155232273888e-01,6.095447682670452894e-01,7.230822688857203584e-01,1.706379636572029845e+00,-1.557053700700447241e+00,-1.170508586357770220e+00,-5.760923488072189347e-01,-2.233197734720513417e+00,1.630105303175178877e+00
1.763945143834612928e-01,-1.502052627225450576e-01,1.368313760765430098e+00,-7.206184028737355751e-01,-1.372083075735603730e+00,6.625009416895888403e-01,-5.869098145955196077e-01,4.239655613543384383e-01,-3.415827844880094943e-01,7.675821112480775144e-01,1.448625135269574482e+00,3.667681728149368436e-01
-1.302867668824995384e+00,1.805487327215735904e+00,-6.838312590690077686e-01,-1.459209299847982200e+00,2.495319543140313900e+00,2.762974336213763205e-01,9.633179450585628301e-01,2.289154910746562521e-01,2.935637080602375160e-01,-1.085147944884748972e+00,8.253181672533058677e-01,-2.412060991676059085e-01
-1.116180577197318780e+00,-2.883753801812437012e-01,-6.808756796594872540e-01,1.193928396040491835e+00,-2.851137256291252919e-01,9.112686026969810671e-01,2.123797235314840659e+00,-4.128556401886459004e-01,-6.710439886751496941e-01,-5.946962205608117280e-01,1.346647052919219156e+00,-8.026854767683083702e-01
-4.831192306464114350e-01,1.159238460459757619e-01,5.462770302599037064e-01,-4.298048265079020269e-01,-1.764349768063094404e+00,1.700198197738936656e+00,-3.345195395468174571e-01,-1.574600771441217795e+00,-1.306735593543193241e+00,1.321155885416684383e-01,-1.277129756508176284e-01,1.495002288420045122e+00
1.844439506037426124e+00,1.394942282656890908e+00,-1.651325939594182834e+00,-3.441906991369526603e-01,-1.216181427112508345e-01,-2.102041859349742303e+00,2.036502066419765278e-01,-1.596613762524549340e+00,-1.775815590121143428e+00,-3.177190715531145737e-01,3.215258492227906495e-01,-5.280420812650272744e-01
6.043606585683579668e-01,-8.434697213548284500e-01,1.168036161860950717e+00,6.771459960673101471e-03,-3.333604673878872576e-02,1.318792914888749612e+00,1.458925685819359552e+00,-7.862157455685837570e-01,-1.777299011803486151e+00,-4.758765392797822402e-01,-1.339402082713659459e+00,2.356975437210927282e+00
-1.511943231374783370e+00,9.967856740816457561e-01,-6.971358420253990218e-01,1.099822399485330671e+00,-1.361239728276443017e+00,2.888848570641939784e-01,-6.599356728829486318e-01,5.541474056297828188e-01,4.488825317667753390e-01,-1.322831916018877951e+00,-5.592697648328132792e-02,1.005471652406631083e-01
-4.610641703535449110e-01,-1.661099145939770150e+00,-8.119779445245263461e-02,6.451681832791896776e-01,9.971074326565705359e-01,1.452169079066121471e+00,6.874785297808457818e-01,-4.862299309756378668e-02,-1.897215561890764068e-01,4.891504241023424404e-01,1.194511083371478488e+00,3.176633383415300438e-01
-2.158897989525812924e-02,-7.108072092074655401e-01,3.889100232233849708e-01,-8.835873090714014833e-01,-2.122353127017927166e-02,-1.669637835627829914e-01,-3.020959667495768386e-01,1.844731445198801931e-02,-1.473021378940072290e-01,-1.481079845530915540e+00,1.930649895471139577e-01,8.485370229365787331e-01
-3.840850345122147624e-01,-1.276898449155483561e-01,5.415117124455144371e-01,2.578672236276052798e-01,-2.085323823594698922e+00,4.959073888490556081e-01,1.334063869895448562e+00,2.835952826897125134e-01,-1.510598563299143215e+00,-1.756071368256641119e+00,-7.735063422028032321e-02,2.605975465368383648e-01
1.398595290566402971e+00,6.129600387210075718e-01,-9.883171251673004143e-01,1.055610453922139619e-01,-9.797343524351662669e-01,-4.528662889342514597e-01,1.369214452534052162e+00,1.726615957476906882e-02,-4.278529969333321747e-01,7.604227931226593684e-01,1.803980183019803452e+00,7.114562067202420126e-01
2.002053546989471522e-01,-8.816291389913447629e-01,-5.075437083692379003e-01,1.186583715608181322e+00,-1.260316741382536243e+00,-1.568147157007895753e+00,-4.923670568006693893e-01,-1.040150425044112925e-01,5.097605051705579315e-01,-1.262754423523664959e+00,-9.780374059849088475e-01,8.061946926397930424e-01
2.272999250872171639e-01,-1.158564429699360909e+00,7.228610292656542091e-01,-2.554359763061627153e-01,2.908768708444861018e-01,6.218065581573831713e-01,1.835953938063989155e-01,6.631565839622669545e-01,9.349998649910092885e-01,-1.595482195600785191e+00,9.307580166230731145e-01,1.944707048711171282e+00
-4.784900466827138876e-01,-3.102167711913524362e-01,6.290575129188256120e-01,-4.282544653999764139e-01,-1.134705804096553861e+00,6.768153809273235177e-01,-1.201915137094588193e+00,-1.981906931415285733e+00,-7.063384028927859326e-01,-1.063901085470998042e+00,5.238841840767411995e-01,3.853491999222750652e-01
-4.226892721412323084e-01,-1.331786423194556646e+00,-3.391951799818627711e-01,9.048102212197275396e-01,1.159095948239013962e-01,-1.323812117231496222e-01,6.057634357131602004e-02,-2.528550913699367797e-01,8.699980807919562853e-01,2.493555553434172456e-01,-2.962982945279387104e-01,-3.395311716613992337e-01
8.327005922154788742e-01,-7.911866908270771548e-01,1.681986198849958480e-01,-5.515366315677434628e-01,-5.596136426845015333e-01,2.099618074142802548e+00,-1.968525655954740383e-01,-6.382716009904672028e-01,-3.265125115811822187e-01,1.204544587217946106e+00,2.534597477906993523e-01,-6.688491967608168887e-01
1.133193559623359770e+00,3.316550093241697805e+00,4.709892734586441643e-01,1.398380333393284825e-01,4.173559367988809998e-01,5.564936014740161641e-01,1.832147220095992624e-01,7.305152510327590498e-01,-1.367475593693964653e+00,-4.883385890211829339e-01,4.629565725972704104e-01,1.190715288043977971e+00
-2.466851239121566064e-01,-1.893418519658173649e+00,-7.611456325275027801e-01,-1.650978929940868145e+00,7.197458510881115101e-01,-1.092290041217415464e+00,-4.908293972379608738e-01,-3.245176240103735815e-02,1.597064917022282593e+00,7.969955669402497556e-01,-1.510563630171792293e-01,-1.194988925708252436e+00
2.398049139885525260e-01,2.391536518394768718e-01,-2.262832488572614764e+00,1.296324628279934832e-01,-2.749767240042414684e+00,-6.452692128442901742e-01,1.241665483150483640e+00,-5.610666803934291069e-01,5.631991148164652294e-01,2.351475039979395928e-02,-3.481218623488104846e-01,3.020332739064200411e-01
-9.740018320100963800e-01,1.047196759537733168e+00,-1.009996635051986225e+00,1.267957803218268120e+00,-1.989136975809367769e+00,-6.139911549960697101e-01,-9.915000636818588342e-01,7.583023806820249346e-01,1.431617969281295144e+00,6.651348276241313418e-01,1.009285575104870381e+00,4.126319058136435070e-01
-8.174793146351518880e-01,1.203708934173290279e+00,-8.236946858589564435e-01,-2.246025796795777796e-01,3.450816448562152305e-01,1.686019255818261398e+00,2.804756319682745747e-01,-1.438284437956491579e-01,7.066084537357579798e-01,-1.551240338896882287e+00,-1.658710142454021375e+00,7.459050380488406740e-01
-1.612571505781060344e+00,-3.647037330307512093e-01,4.720525696395516113e-01,1.325764329587129531e+00,-2.330430325523643820e+00,-1.949247053289842935e+00,4.724201545192301954e-01,3.576010464188786320e-01,-5.214007450532045507e-01,-4.965790043869444115e-01,7.859026043776904391e-01,-2.876099463085518559e-01
-1.331107406989189501e+00,-1.192427060249573456e+00,-8.452916433663795193e-01,4.083810813430157616e-01,7.633080353661819695e-01,-4.850313826233518810e-01,2.364867243894949844e+00,-4.299820080952704987e-02,7.027701755192965194e-02,3.371197390779931413e-01,-9.880359876498601146e-01,2.185974418562480759e-01
-1.234959958346997011e+00,6.237513420885798521e-01,5.081679463965759203e-01,-1.713384231197854435e+00,-5.431066283575541886e-01,1.369285833743645986e+00,3.969815214588371388e-01,5.699249935880575102e-02,-3.661262433369810165e-01,1.339852956566348174e+00,4.230770473873680659e-01,-5.600814649315957183e-01
-7.550352479538074979e-02,-7.906441823544159142e-01,8.404751040617089997e-01,1.874887620797330845e+00,1.735432385621088258e+00,1.152213011210894145e+00,1.449587298593981721e+00,1.817192680243895631e-01,-1.796054997488186755e+00,-7.767056897258841630e-01,3.241920317471601032e-01,-5.806363096663166301e-01
1.201122923123845831e+00,1.787829844124673606e+00,-8.652128178605585918e-01,4.468082351840396704e-01,7.237686116064638853e-01,1.657855774581761532e-01,2.084355561270607657e-03,7.213936951884956095e-01,9.127792912882967125e-01,-4.255921596448018762e-03,-7.134423358831102346e-01,1.948502313075632930e+00
1.286700351584269875e+00,1.241571278275770851e+00,1.570753942711741180e+00,-6.767046363489604976e-01,4.968424997239555552e-01,1.264627069892595435e-01,1.414409126799452132e-01,1.125538517413273570e-01,3.190902107732746518e-01,-5.795278047499218266e-01,1.774175261128701220e-01,1.654335234849780623e+00
-1.375937714795033129e+00,-6.276499204195837844e-01,4.513487835763835276e-02,-1.074198514557000328e+00,1.052657613064122089e+00,2.839541121036522897e-01,6.923497001045522126e-01,-4.006872410996416972e-02,8.491686367886673859e-01,-3.844515995054106350e-01,8.294654259546123676e-01,-4.157162730262285444e-01
5.947686845962287805e-01,5.312440263565751941e-01,2.846754980813266320e-02,-9.170189010090112891e-01,-1.543192616092213587e+00,-2.562194317737788718e-01,1.345509857814176424e+00,-4.547370592226077646e-01,7.400962438550826583e-01,-9.317816080897316500e-01,-5.077182261356920356e-02,6.895241772046271922e-02
4.629174152189750591e-01,-9.450593561117074382e-01,1.611462823359590457e+00,8.019931213838703554e-01,-4.134462054266770936e-01,1.014027004310122271e+00,-9.745062330375150461e-01,-7.749693700905868621e-01,-2.382577909472613498e-01,3.024567872290912507e-01,6.858091832689053868e-01,-6.417616871036752046e-01
-2.883567953470404510e-01,4.991715525137681020e-01,8.130487574653698646e-01,6.481849234832181006e-01,-1.208627938018154380e+00,8.238146209135983611e-01,-7.011724898804102546e-01,8.938650275379630417e-01,-4.727846986560382270e-01,-6.261116035641708377e-01,-5.353865123530748837e-01,2.399452597059056613e-01
1.631123212012433266e+00,-3.099683499332030467e-01,-9.734747116072991480e-01,2.719395016036115220e-01,3.199757063945193325e-01,1.793075491156445933e+00,-9.411859557161021961e-01,-5.260252108301931573e-01,7.237111823915338693e-01,2.955817686332432359e+00,5.935479551097683215e-01,-1.426839439319702141e+00
1.206312017402722328e-02,5.042575199392753671e-01,-7.969163835255809181e-01,-2.698736030253137574e+00,5.388442185552908548e-01,-1.752471710483742007e-01,-9.367270562375247522e-02,5.200078616352500349e-01,-1.828733332828003655e-01,-1.523501855610233768e+00,1.565817810445755409e+00,6.570748157518220556e-02
-1.267767102013004354e+00,1.645026528254564524e-01,1.111358902794298720e+00,-5.972988079750980450e-01,7.846641066173160386e-03,1.080147657492027458e+00,3.674673978042402589e-01,-1.408561130365989067e+00,2.422797978392343954e-01,3.175877515388191297e-01,-2.647715925110099427e-02,-4.741645326187950982e-01
1.232835312062116051e+00,-5.421308988050585476e-03,-2.650922573440419150e+00,1.529679380265613231e+00,1.965299333486614897e+00,-8.925935765250042619e-02,7.361861723932154877e-01,-2.857326542744191289e-01,-1.121332775374258572e+00,-1.987380687159981729e+00,-1.258813608284776731e+00,-1.275574951019480929e+00
-4.868204842170134605e-01,2.149039544275690716e-01,1.804615941947158575e+00,-6.450358428994333870e-01,1.137966865371148328e+00,1.417416555060703187e+00,-5.327023681056292093e-01,-4.584351176575469089e-01,-1.054260697469049969e-03,-1.297102251701617748e+00,-1.172537464811387986e+00,6.756053117258441487e-01
1.014945273608434784e+00,6.208350437174809944e-01,1.320625115521238291e+00,6.752005358652080069e-01,-3.671260782496664765e-01,4.009973933023407433e-01,-1.547119915938310539e-02,1.288357340519888039e+00,1.024757519393472982e-01,4.763160061859569860e-02,1.826651578152366784e-01,-1.154713497949244605e+00
-1.157078590861705836e+00,-2.668919304758623698e-02,-3.040200968569171103e-01,1.176932599307473515e+00,7.641628075055008074e-01,-2.402157893090293150e-01,-5.209621108272820544e-01,7.369080413187776291e-01,-1.788673556954409438e+00,-1.734908692948046616e+00,-1.486616796209092817e+00,-2.081913979279492177e-01
-3.324590314850046080e-01,-5.550138785468559099e-01,8.261102279802752246e-01,1.045845251985471069e+00,3.045568233360420152e+00,7.880111254563391121e-01,-2.690018198849619235e+00,-1.533577851755791199e+00,-1.285677133276197370e-01,5.332718968673676452e-01,-5.524350154237640531e-01,5.828495455571702788e-01
5.428856392120299246e-01,-1.537695841949330289e+00,3.543660807800185220e-01,-6.545805765639389762e-01,1.668870601367965945e+00,7.956742945871911887e-01,-6.438629617380692283e-01,6.109164635615799144e-01,-4.025107936124764363e-01,-1.376520187225271030e+00,-4.395811063834039190e-01,1.002931173885526439e+00
-1.967166896576451274e+00,1.562550716049693866e+00,4.965660004403737449e-01,2.764118637984752103e-01,3.612362132408440396e-01,2.037129760957395952e+00,-8.396451043882130483e-01,-7.892408970972693283e-02,9.070529138943327352e-01,-3.262366087276626359e-01,8.554442936337662839e-01,-1.224430396545220567e+00
-7.386819799118153895e-01,4.875230728754784693e-01,-1.276461161523036181e-01,-1.610982464851701268e+00,1.120334553627189700e-01,5.283632894488594633e-01,-9.636686983908407944e-01,-3.426427439099916095e-01,-2.105650152787615248e+00,-5.241188628649255943e-01,-2.903407913925875050e-01,4.356025551747472191e-01
2.285622353790164873e-01,7.285857042929863026e-01,-1.537415816313190131e+00,7.396023340461708173e-01,-1.066365739053615203e+00,5.519764155571295072e-01,-8.203781521980565428e-01,6.946758054545646432e-01,-6.845020057115178691e-01,8.928451303424161933e-01,3.110460264886558690e-01,-3.962808688693463255e-01
9.584509230128661628e-01,4.646311091134829319e-01,-7.320971479406930271e-01,1.968032517200745790e+00,5.383553016093689525e-01,1.036923151964695089e+00,-4.891398274776440069e-02,-2.139107786867665784e+00,9.528188625568136116e-02,1.125808870919944527e+00,1.110904034282210295e+00,-2.228641832986685278e-01
8.268257709593859750e-02,-1.049441808532151743e+00,2.764959912597668157e-01,-6.698337274685284282e-01,-6.789599157731971424e-01,9.276770637156783739e-01,-1.642453968932432229e+00,1.418981630749987843e+00,8.725576448936960272e-01,8.651625268046153616e-01,1.622005175136900901e+00,-8.907922122470814941e-01
2.352342641514856836e-01,-1.431742013642331779e+00,-8.962943955054653022e-01,1.665825555037448558e+00,4.333141633408733873e-02,-1.982993874129818757e+00,8.277955121704337893e-01,4.328887865711725791e-01,-3.632320750756313776e-01,-1.200801373087784674e+00,-1.896160146478181208e+00,2.416152396014265569e-01
6.836981292952837297e-01,1.398680060146034965e+00,-1.383718238064479911e+00,-4.151541118775349259e-01,2.252308855773679230e-01,1.545089560078236168e+00,-1.843555872325752576e+00,-3.909015834092773867e-01,1.773346243240239373e+00,2.680912793858895693e+00,-1.339266205871806559e+00,5.456151376681608323e-01
2.114536695681566991e-01,4.056895278507023916e-01,-4.713748112120197398e-01,-2.909781732504200802e-01,-1.484101329523217494e-01,1.135762177739250145e+00,1.156256983290101958e+00,-3.632191953974366894e-01,-6.135206370200139148e-01,1.760039170640243650e-02,1.379559752504175174e+00,1.294034918086369279e+00
-2.083026265339909422e+00,-1.004236263052781908e+00,5.658518670744634438e-01,1.657800744658803893e-01,-6.830950083747677759e-01,-3.846858821079375823e-01,-5.530151585118562307e-01,7.056373128157891195e-01,4.456146331926283399e-01,-1.397889095630161282e+00,1.596208271947844759e+00,1.082296393371763310e+00
5.624355686696640155e-02,-1.141906215967674054e+00,-2.351776200543100881e-01,-2.597626780217525688e-01,-3.195691684315018349e-03,-1.813372454826863711e+00,3.724042586788312570e-01,7.372574353043273021e-01,-5.197299813108814670e-02,2.907622381072170192e-01,-1.445056987194433207e+00,4.293362567423125165e-01
-6.065225456211245092e-01,2.645446910188144901e-02,2.771598199059569501e-01,3.018436888835684395e-01,9.601443632312005594e-01,1.836835039341210507e+00,-6.189075764196794172e-01,-3.680374716669395085e-01,-2.747810598664626736e-01,1.255136801401003366e+00,-1.471157057241912813e+00,7.637988245581422975e-01
-1.178836554713245111e+00,5.971583577339660831e-01,-7.889881212203240235e-01,-6.541717807127046536e-01,4.434045891700454933e-01,-2.307431528259134002e+00,5.815510419910674411e-01,1.288787060243747451e+00,2.055534735089930010e+00,6.164676426858438640e-01,-1.786441466668624578e-01,6.722293141550277074e-02
2.404270319041684201e-01,-5.185374450462943985e-01,-2.696004937059054071e-02,9.142049478696091802e-02,1.569250934379072593e+00,8.665262430335943789e-01,-4.044905946865030022e-01,-3.767093208061653847e-02,1.446048441725650502e+00,7.051217787346423238e-01,3.299888649207173064e+00,-1.887411570174894193e-01
-5.463189281131590747e-01,1.034920193292404589e+00,6.021690215663053625e-01,-6.894623327324590489e-01,8.381520108219114862e-01,1.181542674302541007e+00,1.344343380069444427e+00,3.277313484466976012e-02,-2.187277680074592723e-01,2.576956190567222804e-01,8.661057327224108704e-01,-2.001712570008131742e+00
-2.919076503110323156e-02,-1.839945697356624166e+00,2.298022505318702557e-01,4.087455210877988798e-01,-1.700255406189768725e-01,-1.680109982596134366e-01,-1.179152777095562765e+00,-1.322466373567149578e+00,9.450856038808606030e-01,-1.264950534181874087e+00,3.739808528933027953e-01,-7.974718254958057528e-01
1.724284381772593244e+00,1.749763410456867563e+00,1.565465299491607398e+00,7.629737823689400900e-01,-4.066187289847085773e-01,-4.447393442455714885e-01,8.416961339912710782e-01,-1.309464694622568759e+00,-6.429147772464820221e-02,3.397546821561409081e-01,-3.114286777049215527e-01,-8.235735427731040170e-01
-1.571622114614632082e+00,-3.097175313688822484e-01,1.078280854065263972e+00,8.065737326132487173e-01,6.323490784220326955e-01,1.531055673316125798e+00,-1.288949731163035461e-01,3.729416187244047887e-01,7.929918101264097352e-01,-9.758886201166465657e-01,5.653195918618306726e-01,-3.805951756121347951e-01
6.219373932770612123e-01,-4.416773428176623550e-01,-1.925536814122546625e+00,-1.252671265414390556e+00,1.159320791748919000e+00,1.885764689726595389e+00,-9.580196905246388672e-01,2.475780228634573810e+00,1.296748042652422939e+00,-3.749196433217938385e-01,-4.736827856513533413e-02,9.697948000324900786e-01
-1.099650691542542580e+00,-2.836524935915702428e-01,-1.076106061050054574e+00,1.716063829627035298e-01,-1.581442241213046052e-01,-6.295661278346309508e-01,7.258574306943451626e-01,-1.537649463032072061e+00,-1.137001760277020379e+00,-1.147339163611767576e+00,1.080119735279732263e+00,2.811901838126625308e-01
-1.999887139314992401e+00,-1.216066419499527207e+00,7.209923270222315939e-01,8.096609910588220549e-01,-2.048638513028451791e-01,8.822569610628961945e-01,1.699954765518076449e+00,-6.091293962962164299e-01,-2.031687064065363035e+00,2.148001632892392543e+00,6.696840841195551841e-02,-1.602979545999068042e-02
1.213899794973003932e+00,-8.771269872212155150e-01,-3.106792245405490260e-01,1.680636787441718516e+00,-3.316034277962880417e-01,-1.041301666581016638e+00,-1.795054853437306308e+00,3.421507396461717643e-02,-7.926005816628055589e-01,2.982016159534972011e-01,-8.183619664822208151e-01,2.062412332441682095e-01
-6.300277702653375167e-01,-8.544499231699729247e-01,3.892452284157853215e-02,1.005579876221026625e+00,2.499830815344207813e-01,-4.537041725838496520e-01,-9.277713918109232738e-01,-6.369333299239292590e-01,7.361357269095629707e-01,1.156643645428357736e+00,-2.363636776098394954e+00,1.311177395066396613e-02
-1.309696305520919868e+00,1.216823156182628374e+00,-6.693700976172062278e-01,-8.675219010847200485e-01,-1.927651272508990932e+00,6.837274387745825299e-01,-1.013557525113460756e+00,4.796126404056719889e-02,1.145425247164821414e+00,-7.210021552823165925e-01,-1.463587283319278953e-01,1.348708535858512136e-01
1.679911476865811437e+00,-3.047467456473862968e-01,-8.888077132374506695e-01,1.668944024990065902e-02,-1.091018268366133609e-01,-2.135760338790520407e+00,1.568084580555607899e-01,9.088818969090382005e-01,3.587923448069550436e-01,2.119621123601702184e+00,8.415545319997819185e-01,5.065070808572180727e-01
1.230381043986309653e+00,-1.151108420819788591e-01,-6.524689721789441732e-01,-8.828152059360411252e-01,1.563369404306426125e+00,4.179260379141010867e-02,1.022615212422528952e+00,-8.919340821747592241e-01,1.729080406491241284e+00,1.418734028781674983e+00,-2.300694175687797660e+00,-5.147200639149259738e-01
-7.734979121047641515e-01,1.239527957767122324e+00,-8.380285325494578608e-01,-5.467959683502263690e-01,7.314170700462204744e-01,-4.254630041329282575e-01,7.296768534497193315e-01,-6.273917196930416385e-01,5.217094801909477608e-01,1.101261895607390962e+00,-1.964520067009787763e+00,4.986058019393870278e-01
-1.029511467267800462e-01,1.233413102870847933e+00,-1.686855642106654063e+00,-2.008473386030333596e-01,6.347867713038526372e-01,-3.105011853609077402e-02,8.986353860697189611e-03,-5.856288852767829178e-01,-9.606766878266345122e-01,1.227869822312892267e-01,-9.450220853433511925e-01,1.477071769794456868e+00
8.247857737447373827e-01,-9.999914868071047014e-01,-3.599098617174951165e-01,1.700796674283688636e+00,5.170334697278810600e-03,1.794831134504430548e+00,-2.752784588247370601e-01,1.429638987086422564e+00,8.053910972070994490e-01,-2.141129687592564501e-01,1.740986038069183950e+00,7.659582912191882365e-01
-3.648462303309238375e-01,6.139623443459230057e-01,-1.754712031895778179e-01,4.391084750584339225e-01,3.958499298246692666e-01,1.962300303410495106e+00,5.900525949829852346e-01,-2.111611236493859678e-01,1.552076705431463477e+00,-1.177263346061363958e+00,2.308021510256510755e-01,1.670846334781958820e-01
-3.392216511568890702e-01,1.660186356970522496e-03,-1.665233935851774816e-01,-3.039219670210874802e-01,-7.149534090704906530e-01,1.986544302269400708e+00,-1.227576926494328147e+00,-6.535158713006040676e-01,2.081545087107988523e-01,1.039245636288129937e+00,1.359893153660365339e+00,-8.575957586739425542e-01
-8.830812360620555745e-01,-1.165177659730061599e+00,-1.158667763693500108e+00,2.773333424763413935e-01,6.085044714188311277e-01,1.056494298253266795e+00,1.989137972111448383e+00,6.360408199553119202e-02,2.695426360466138260e-01,2.142110574615058827e+00,9.350116765647730199e-01,-1.752762182119415924e+00
4.290752652967401437e-02,1.810590812517352821e-01,-8.922258047346380838e-01,-3.361411583878670672e-01,6.951389836903756336e-01,5.297148826936410870e-01,-7.791443647853535381e-01,4.399654415660463752e-02,4.323572364566435899e-01,-9.895276494690028457e-01,1.841321762852509147e+00,5.654519091009637677e-01
8.084508290424163857e-01,-1.200711632833045606e+00,-8.604799315922726510e-01,1.713392748996149351e+00,9.289804643436219700e-02,-5.332559685049226283e-01,-9.952005060140105552e-01,-1.012794960302361158e+00,-5.633507926707862490e-01,1.076389864496958282e+00,2.004306310940858538e+00,-1.056813314247947888e+00
-1.465425208375937371e+00,3.183711788267093445e-01,-1.263496520822471769e+00,-5.755707269065671872e-01,4.865689343570931968e-01,-1.853107704714679893e-01,1.786365120683424346e+00,7.215707755311413507e-01,8.573375871249191427e-01,1.058241849766470510e+00,1.464242289782458739e+00,-7.269515894947252699e-01
2.189823272509819618e-01,1.020143190969083458e+00,-2.049948479677685467e-02,-1.458136490744872671e-01,-4.234661108781263561e-01,4.657603957832868735e-01,-6.018359945003761563e-02,-4.424684735648298783e-01,4.529191739209483258e-01,1.101126380470730526e+00,-4.495005449438266298e-01,-1.063140629932251668e+00
-3.668891211422670683e-03,-1.978362908327941649e-01,-9.844339213785195941e-01,-9.513094968323514145e-02,6.098863364515267893e-01,-2.745992081005923513e-01,7.838711468989952719e-03,-4.523831039487037908e-01,1.358497929793968773e+00,-1.265047614210452975e+00,-6.933747364148112879e-01,1.770648487655545056e+00
6.123879923109826207e-01,-4.001810901126478526e-01,5.746993402418166808e-01,1.526909333916192379e-01,-5.924201302288936155e-01,-8.076791401767127176e-01,1.278547963003537236e+00,-1.397429586878159880e+00,-5.294955942637120661e-01,6.283093746803369850e-01,4.696015821289119263e-02,-1.371951508299810607e+00
1.364243854086926833e+00,5.316671138263762142e-02,9.267027582138632757e-01,1.737923564903400553e-01,-8.556112734340193260e-01,7.275873438497033885e-02,-8.115666949352232651e-01,8.346717048626458579e-01,-1.278395658622545894e-01,8.312795660117494601e-01,7.832445507946857177e-02,7.320811898096287740e-01
6.832391329416170889e-01,-1.381248045288310689e+00,-2.884427339915640043e-01,1.463924402646373801e+00,1.273834552916662144e+00,1.313559621414921663e+00,1.237279918406352319e+00,4.195875001954882388e-01,5.168219290485920325e-01,8.792640005608087783e-01,-8.785018607691625903e-01,-1.230344335994961069e+00
3.309016595754992740e-01,7.702091353601739909e-01,1.988437800926857735e-01,5.514165911205747284e-01,4.160458192844729980e-02,-1.717678960340129207e-02,7.922177068339991690e-01,1.790109910929139403e+00,-1.096810319218154639e+00,-3.418573785866620834e-02,-8.721446216929820139e-01,-8.876034215055841337e-01
2.106846456018716396e-01,-9.570104624199834431e-01,-1.791860892123127713e-01,5.414162148389457530e-01,1.782723356160268002e+00,1.870906411263997482e+00,-3.432556599687697219e-02,-1.474705774775048273e+00,-1.934802959539710043e+00,7.102569481030385212e-01,8.650149895811325429e-01,-1.123593238070967615e-01
1.113386200249487423e+00,1.119946736038275326e+00,6.478435645302622614e-01,-1.112319591245614081e+00,-3.837117864306150428e-01,-1.754300560830656996e+00,4.244761931132901012e-01,-1.350083017010192288e+00,1.261602706753554293e-01,9.261474237576183821e-01,-7.283677589347620218e-01,1.317326701451876358e+00
-6.220043128569654467e-01,6.050920898598204367e-01,7.954551104177235432e-01,-8.600502009842029283e-01,1.340596608787035127e+00,1.088316370333150429e+00,2.603223510707597943e-01,1.018201487718985554e+00,-3.898826059740353456e-01,-1.747512108147004861e+00,-9.089236127512730912e-01,-1.166720003915396431e+00
-6.919740196849161196e-01,1.057085010521862101e+00,-1.014564078697832494e+00,4.293679728175347488e-01,3.353097603018530548e-01,-3.714764766297685705e-01,-1.426099977337891733e+00,8.245098757383160226e-01,1.582457819844789837e+00,-2.830056224409708276e-01,-1.488843819905438237e-01,-1.787320628221981567e+00
-1.911474288623955298e+00,2.127477887582470473e+00,-8.890020041711353960e-01,-7.200355541154201955e-01,-1.028920990411456293e-01,-1.028028839320232812e+00,-1.336273767811868352e+00,7.200788260350167169e-01,1.407771560965824564e+00,-2.013982350389068032e-01,-1.872097368570878162e+00,-4.778830957993056572e-01
7.463730662820015072e-01,-9.158672299084530399e-01,2.104302364738026010e-01,5.410282722323043331e-02,-1.127577032484697428e+00,2.902092575788071116e+00,-1.150277197803456719e+00,3.317514199721194879e-01,-3.617304711273018891e-01,3.463696525859065178e-01,4.636451819800596064e-01,2.219052323314642527e-01
-9.598850645447021268e-01,1.585556217309758820e+00,-8.882554268176877654e-01,-1.145187311921636475e+00,2.974286104632119510e-01,-1.947735485993276616e-01,-1.426971410673712359e+00,-2.808719360707576107e-01,-3.855895287084060152e-01,-1.688869680633209303e+00,-9.594250400964173808e-01,-1.166663500217691996e-02
-1.380332188012823647e+00,8.835125025261027221e-02,-9.585921561208872177e-01,-1.784759167189234663e+00,8.158253746846961807e-01,-2.356646891944834399e-01,-2.474787018274189065e-01,5.296192231009068108e-01,1.201842412133629967e+00,5.709794968699367645e-01,-9.933115304744084550e-01,1.051837785420242088e+00
-2.264021887335236460e+00,6.080831401990810514e-01,2.357016150284548528e-01,-1.104109333239748636e-01,-5.212273535921442269e-01,4.334887826495735785e-01,4.267608890700383406e-02,-1.140462746561101137e-01,-7.859832451707456924e-01,-1.740206236690872155e+00,1.645020704757119145e-01,-7.510870349998599593e-01
-4.816222949491337224e-01,1.903529943998239604e+00,-2.788378063144181795e-01,-2.059693681759122708e+00,-2.125340497994241407e+00,1.654231466632425651e-01,-1.330778955179300893e-01,-1.656511390664932026e+00,-1.183739846251028599e-01,1.315054591582341503e+00,3.017204909312007910e-01,-3.162744975131726588e-01
-1.320206163792551513e+00,-7.604457071487470410e-01,-1.161594929442360646e+00,2.562103781769473065e-01,5.860712763119334534e-01,1.261429805365325674e+00,5.717482667256116313e-01,1.058817132998726152e+00,2.456308500905240721e-01,1.301872525265517888e+00,-1.043470313900210833e+00,2.796515729537669137e-01
6.161366607849807497e-01,1.340091143655476769e+00,-7.156960064990973702e-01,-1.142037436098923164e+00,-3.706742551595832991e-01,-1.492075108874368450e+00,-1.018582747347602235e-01,-2.836530441779928635e-01,3.030109639104008878e-01,-1.162383130855812352e+00,9.624681525208247379e-01,3.597327677612530694e-01
6.865570542093112349e-01,9.766168080427009013e-01,4.166569193044216690e-01,-3.212849498179146113e-01,-1.083921663215440034e+00,9.881735738490361465e-01,-1.547524541130499975e-01,2.173918643199580725e+00,-4.326610133405668357e-01,2.660693086598221457e-01,-6.906755002312747749e-01,8.745937668832177991e-02
1.510846931933050308e-01,5.584198927766040876e-01,4.155226910925736705e-01,-2.198114084310824889e-01,-3.056658196972469987e+00,-3.501988149955457819e-01,-3.186156142810954162e-01,6.877552506318300729e-01,1.650993483580665000e+00,-1.259162870256305133e+00,7.748264796835340196e-01,1.291420090875276205e+00
-4.799221979625104689e-02,1.182963478633384691e+00,-1.352558214701108152e+00,2.534712981882633609e-01,2.918431500015871150e-01,1.144214203655192552e+00,8.014932493792554791e-01,1.367338009115703468e+00,-1.281041043230138454e+00,3.945041637158004377e-01,1.645245335315973945e+00,6.269253294121578390e-01
1.119643483631849401e+00,-1.551452884816624800e-01,-6.995223521825003621e-01,4.499892535135166516e-01,1.045816354368971801e+00,6.478043750613604601e-01,1.916457019399160133e+00,-2.166905948027844087e+00,5.813042325472986827e-01,9.015053417347729248e-01,4.062509396630920033e-01,-3.126749561909043518e-01
-8.043347778300187212e-01,-2.982084370289908581e-01,-5.954144351200509888e-01,-8.427162676154601462e-01,1.414088078891255207e-01,-1.289632941076186867e+00,1.943467000990588833e-01,9.170028737295553567e-01,-1.338085161045338811e+00,1.734567092772814956e+00,-1.065151289854714634e+00,1.168539999982714628e+00
-2.408335728628746564e-01,3.504454278749786766e-01,3.251698804498356909e-01,1.557284592278725677e-01,2.240982374985465153e+00,-8.774663443561668830e-01,-2.499739158674680439e+00,-4.478406573322836204e-01,3.448629370568090380e-01,-3.100423901482036726e-01,-2.062747744326629828e-01,1.719170507120079405e-01
8.502519328135387244e-01,2.332780393482927650e+00,2.030467387784606448e+00,-6.924912447507846069e-01,-6.967677251735959754e-01,9.630445454891266577e-01,-4.368948089549048452e-01,-7.393699267931075347e-01,-5.145187091868284046e-01,1.407855703429010952e-01,-2.098060769052553898e+00,-1.456150271780990435e+00
4.208198163597262620e-02,-2.598548226655088556e-01,-2.265151848253769695e-01,-1.633287764314997670e+00,2.067375463944820080e+00,1.046481295253326005e+00,2.385630178078165020e+00,1.331818362250291043e+00,-3.878664780628103270e-01,3.067795357457299699e-01,-1.893850494624090552e-01,-1.262653155259327309e-01
-1.705795750832144464e-01,-1.273913064107744797e-01,2.923671541070604341e-01,9.445184333064864102e-02,9.819054277264623876e-01,1.462605507488718981e+00,-5.114513191860625696e-01,-5.196506999491624645e-01,1.890551027618898816e+00,1.093201781772394687e+00,-5.749996566158385169e-01,6.443479514886203408e-01
5.467925041959182525e-02,7.788287842112214809e-01,2.878942951638385761e+00,5.213296662148109162e-01,9.987596703200141146e-01,-3.497392868087070283e-01,-9.992565398653117104e-01,4.166684518699173556e-01,4.242237963122085787e-01,6.926962014553120772e-01,6.473491516257159906e-02,-1.017039647373953359e+00
1.027195008584803171e+00,1.628497002319179154e-01,7.866220573077509215e-01,-1.651163243506201805e+00,-1.510476012488383979e-01,1.845454763386279007e+00,4.520792659669932712e-01,-1.457465255894811573e+00,-6.880534723467900404e-01,5.206943233493498413e-01,1.085670646270290030e-01,-1.580379766528766217e+00
-1.235602080081005472e+00,-4.643403917912923839e-01,1.499399564437081223e+00,4.474148807445139098e-01,-1.011139361764894939e+00,6.761238076859164003e-01,-7.913633829746058446e-02,-3.048070160543916440e-01,1.424491329256586170e+00,-1.407155791735853922e+00,-7.056925743911042215e-01,6.067655221062466797e-01
8.360337247260571925e-01,6.585590053379666298e-01,3.092827902616166469e-01,-2.020034799804556247e+00,-7.087894610115018645e-01,1.258915301666392761e+00,2.687733297966069662e-02,-1.986409244688964293e+00,-1.558441279420872405e+00,-1.776815841869083812e+00,-4.524231421567267986e-01,-8.233314215410522108e-01
1.906079247696816636e-01,-1.648012683345356222e-01,3.394674913725069243e-01,7.105288798861414401e-01,-4.293205736965255426e-01,1.391125774167452089e-01,1.757528379796959028e-01,8.993897835505439975e-01,-1.543703844983550788e-01,-1.176612518591524381e+00,9.223644798432628633e-01,-1.174651664443316701e+00
-1.492838676775549711e-01,1.075627484657842636e+00,-5.754726929945340741e-01,-1.101613575522536914e+00,-1.257859670092640991e+00,1.785619706135250784e+00,1.047529620112681359e+00,-2.389097829052142796e-01,-2.567864135011916016e+00,-2.406983259405880704e-01,-1.101637639767550692e+00,8.223491182041324787e-01
1.648241454675766882e+00,4.556238022900419016e-01,-5.349607039851435042e-01,1.505994715534396899e+00,1.768688724449668737e+00,-4.033283840714052548e-01,5.382446599291634826e-01,1.029465085333898910e+00,-1.909154167770453547e+00,-1.740069450837287812e+00,-1.600960504915459826e+00,-3.762417418763041033e-01
-9.075085818239506663e-01,-1.294843089402577752e+00,-7.738948063866499805e-01,-5.707210898495786999e-01,8.773738988485771939e-01,1.838280844214638665e-01,1.723780011772756138e-01,8.623567315622783225e-01,-1.917908097651471189e-01,-1.021835333542847835e+00,1.287875092212614092e+00,-5.065108490774687944e-01
-5.096421247790261511e-01,-4.617711810806711392e-02,-2.728509243814186691e-01,-4.041630623421926805e-01,-1.798324840062668351e+00,-2.820003280953684022e-01,4.330188132670324541e-01,9.874013972044053122e-02,-8.067467602482853994e-01,1.620436246848523318e-02,5.063672663127194440e-01,1.406655705231729669e+00
-5.581310587509507037e-01,4.686550388608787254e-01,-3.758034806061016919e-02,-5.917360876471698949e-01,-3.312413058885380623e-01,4.330424028088264987e-01,3.111035692444674705e-01,2.475028792739754346e-01,-3.338954336999871431e-01,-6.768945893308075945e-01,1.106663910820391838e-01,2.728420102284122573e-01
-6.155023152195202574e-01,2.453551490160741810e+00,-1.096584993256752627e+00,-1.477185052140250310e+00,-1.148044687523597895e+00,1.369108436809164608e+00,-1.950292388982007630e+00,8.885172395973239823e-01,-5.110134061701097213e-02,-7.024437865705933648e-01,1.863861895193376014e-02,-1.139850566427692335e+00
7.895891438596238654e-01,-1.078696715606667356e+00,5.966792949114473332e-01,1.521037616674870474e+00,1.285780067491390177e+00,-2.285420806706284225e-01,1.366556957055143462e+00,-3.210419976298255901e-02,1.136513336411995589e-01,1.005810813993470054e+00,1.416302401425589608e+00,1.733886045492863071e+00
8.436247857038322584e-01,-2.966030145964999032e-01,1.851087743159695598e-01,-2.686103777014891003e-01,-8.061581905817153393e-01,1.186739244540049310e+00,8.398418566482188652e-01,1.029628534996652744e+00,-5.689015402449888043e-02,4.163145826600724853e-01,-3.378634645647057289e-01,-1.262072022398456950e+00
7.101019086194101382e-01,8.436480290806031013e-02,-1.389344350187799115e+00,2.692768978212247255e+00,-1.250982571309110059e+00,2.009266585016498574e+00,-4.155732869078565539e-01,1.204991819055412083e+00,-1.216247361187357656e+00,6.697151162719021389e-02,9.116566442959537220e-01,-6.425667835471587930e-01
-9.986086954184908437e-01,-9.402112895135119608e-01,-1.243936053826145249e+00,2.079111866742818115e+00,-7.394952759412269927e-01,8.586990078790937009e-01,4.912000710216475330e-01,-2.257860149677791028e+00,-1.037557200238073074e+00,-9.854240897382955389e-01,1.866753205812879124e-01,-7.440470579120126438e-01
-2.218612546351581699e-02,1.209212025765237453e+00,2.394927890220607924e+00,2.162797460584444220e+00,4.936335364039052820e-01,6.161839114446923116e-01,-1.100211852854793726e+00,1.294764238749784635e+00,1.118981251064774751e+00,-7.068569661501279411e-01,-9.483847402915458469e-01,5.625246394752704028e-03
6.430215523172214676e-01,1.372260415414472134e-01,7.213453268607937785e-01,3.935604487065121893e-01,-6.341704795581381005e-01,7.701470555201911372e-01,-1.077428895296248301e+00,-1.019505558421680780e+00,1.611523643815668594e+00,7.938856079912199881e-01,-3.051222061593394375e-01,1.448536883561932331e+00
-1.052457031572767043e+00,5.770192837289080806e-02,8.754194074952177662e-02,1.080064358852445894e+00,2.078732653367570682e-01,3.433773476703919081e-01,-4.943182788526005456e-01,-1.305416400743101280e+00,-2.127166410754468551e+00,1.388141793871214835e-01,-3.973521889770801896e-01,5.111415436043379446e-01
-9.486131906941160929e-01,1.009306856337946479e-01,2.013358652209544797e+00,-6.135458278360852447e-01,6.063088378968505276e-01,1.011123556053275196e+00,6.549359909056475804e-01,-1.141997429038026812e+00,-7.989892921300967288e-01,1.614189406271376304e-01,-7.240376918211725021e-01,-1.200927685265264389e+00
8.237788835482877658e-01,6.884237374979439439e-01,2.678170589013753600e-01,1.091098871316156238e+00,1.149875092595319170e+00,-9.676048022146649386e-01,1.289880185020790604e+00,9.141800247668314672e-01,2.797875252118571243e-01,6.059614255944423267e-02,1.696035807093874581e+00,-7.648528369984546327e-01
-3.966250308939390790e-01,-1.587238645705768558e+00,2.211983374415163794e+00,1.141524652511397342e+00,-7.288825807019275183e-02,-1.411309937083504995e-01,1.177468068731616579e+00,1.090737425234630908e+00,5.981903267533773549e-01,3.867227257487014791e-01,5.167718456687858675e-01,3.039323824574174382e-01
8.657032723673938612e-01,-1.239438643800574585e-01,-1.859079944994613820e-01,6.404031406439648633e-01,1.246735812005462352e+00,-6.765112401024824251e-01,-9.996444396711090530e-01,7.215632769161964832e-01,-1.310262526720948006e+00,8.556310165244713772e-01,-8.703594928956014110e-02,-1.648605385346024077e+00
-6.248558115690769910e-01,3.640540312356324582e-01,5.049355739168103624e-02,6.786170027518815262e-01,-1.540177692520198871e+00,-8.818212705805157370e-01,-4.113896945907816183e-01,-8.451741924813451767e-01,-3.096127201662162154e-01,3.205728650560555337e-01,5.261609349746428910e-01,1.386803538611388387e+00
5.469564334732550659e-01,-1.799450437762733168e+00,-2.442400019352617135e-01,8.091917668941475128e-01,1.232770106388236142e+00,5.057863888487691417e-01,-8.189530854401248783e-02,-1.914373605062051897e+00,-7.294178564966358191e-02,-1.217415225635161580e+00,2.816010360963330239e-01,-1.382176479360345045e+00
-1.531444126947217210e+00,-1.031157759956724984e+00,3.309143339912916371e-02,-1.256011108447788960e+00,1.842660039296020624e+00,1.090466095120771417e+00,1.021161219589139302e+00,5.231780865869066766e-01,-1.286631179866184249e+00,-8.603560411191341073e-01,2.666457537854655113e-01,8.614286927221342927e-01
8.473847110831501661e-01,-6.753975874988229489e-01,3.824620246901892784e-02,-8.735198893669569031e-01,-6.308749067523476972e-01,4.017528479977579003e-01,3.712287248227899017e-01,1.277137679202203502e-01,-6.932301314209170506e-01,2.467168810865283390e+00,3.215395553692226849e-01,-2.206429902436527701e+00
-1.608710982455069161e+00,3.224382701484575509e-01,-1.923011703077751822e+00,-1.398261058798004219e+00,-1.370453322811469254e+00,1.421262998222832863e+00,4.361761889639392820e-01,1.079554979007274262e+00,1.230386000523105566e-01,1.209399567699490224e-01,1.220575237983640982e+00,-4.423948554628521768e-01
2.466861472585506476e+00,1.434174540101430750e+00,-5.967305983391348878e-01,9.210128032671396348e-01,-6.073603241113353368e-01,4.389005040957972836e-01,-8.339608487470080433e-01,-3.452711970005838404e-01,-8.926218047330500838e-01,-5.856193828085304309e-01,2.925403054664615365e-01,-6.618309003769343724e-01
-3.899342843594600927e-01,9.117093796722425258e-01,9.552739703818898809e-01,-6.688976331452786139e-01,7.467253265022656405e-01,1.317445303771268283e-01,5.461463548625736797e-01,2.230013111451666585e+00,-2.250858471244761017e+00,-3.699937056732921503e-01,2.326720053866493387e-02,5.107711246744476297e-01
7.070223475825059278e-01,-1.648136634830574543e-01,-1.401041778543949512e+00,-6.005850450014144082e-01,9.238376176786013971e-01,-1.977093871802390712e+00,-8.142413857391778143e-01,6.765494664373851164e-01,6.853551971688164324e-01,-1.260744112045427967e-01,3.295696266418651765e-01,-4.045708586668025353e-01
-6.102162828299214636e-01,7.622575021012155672e-01,7.894991532516437704e-02,-1.433963781751548039e+00,-1.743529105957509984e+00,1.902185373694383896e+00,-6.896586629229932430e-02,-1.660174808451139392e-02,-8.660049232163208321e-02,-7.823407656980111424e-01,1.213760223400019433e-01,-4.122939797233602377e-01
-1.342429697794314647e+00,-3.044470739294358186e-01,-8.500282123083287289e-02,-1.190712667443208916e+00,-1.420024585266400852e+00,-4.548906469909753669e-01,7.401472474430089710e-01,-2.524177631938648303e-01,4.056794546166722082e-01,-3.712361840278108338e-01,-2.816299916429349515e-01,6.167775894631495615e-02
5.725802950093699106e-01,1.345790645573970157e-01,7.340726600713221028e-02,-5.610665333028292956e-01,-3.296330439540350321e-01,-1.195206909593609090e+00,-1.902307335861567472e-01,-2.758940992102793532e-01,-1.609233744048806439e-02,-1.413148869204797098e+00,-6.852698689841189017e-01,1.955840475900719744e-01
7.154985791903241132e-01,4.452660372427292845e-01,8.486764144639799001e-01,-1.701747688857254914e+00,-9.911208371763380320e-01,-1.723955827899203319e+00,-1.397190131369962618e+00,-2.278527206763794610e-01,-5.018987279755106057e-01,2.224047346444313344e+00,-6.826296189635523426e-01,2.593277712195579676e-01
2.118890351512674464e+00,-2.550862424763302161e-01,-6.416815936484425442e-02,-6.858005550240953152e-01,-1.158958231719027010e+00,4.778627283980516616e-01,-7.992551697603549332e-01,8.692716450984111498e-01,-4.111207021633698222e-01,3.113598455549648758e-01,-3.414638731966492813e-01,1.403137807142943894e+00
1.949275426727761218e+00,-1.377605410971928013e+00,-9.120047613990175384e-01,9.392546550953193574e-01,-1.421655057503958153e+00,1.400961702940648756e-01,1.837821688679983190e+00,1.668990074590290362e+00,1.248043179025438487e+00,2.071221662237066885e-01,-9.968637098202166591e-01,2.364288056053651804e-02
2.763202844966102245e-01,1.396993075591620226e+00,-7.617706579950185297e-01,-5.878945450865964428e-01,4.289612637791814787e-01,6.210586832211477670e-01,2.746030715271995382e-01,7.005189136220495438e-01,-2.354855951371321310e-01,-6.515110827423787887e-01,2.760487316825537718e+00,1.222306223282809912e+00
-1.490707606848667321e+00,-1.672003017106436618e+00,5.863527908647317988e-01,-2.849624225373573183e-01,-1.526293808956581954e-01,1.900390677747980206e+00,-9.896727249063732579e-01,-5.847414751428139379e-01,1.072288757236271151e+00,9.493506514533753826e-01,4.194787344103298454e-01,-6.785595520887101051e-01
1.482374721210295287e-01,7.679983147573785640e-01,-1.164328883717228091e+00,-2.284395028246573922e+00,1.291460686900087473e-01,2.219153176107052095e-01,4.273287929506057181e-01,-1.800613157983025625e-01,8.630005701487647451e-01,1.918804407763977427e+00,1.061110867248327011e-01,-1.606035245584667981e-02
-9.765111651207570853e-01,2.457355211547672391e-01,-2.212228524569397614e-01,1.765779567988597920e-01,-2.935486272688485609e-01,5.811253774575464437e-01,1.410610567803924020e+00,-7.135586284926435929e-02,-1.226182028811942493e+00,1.432436623012467658e+00,9.359371360671209228e-01,-2.879480740737312416e-01
1.048094449724448651e+00,1.773437114047145657e+00,-2.192304639039329928e+00,8.065742947440576183e-01,-8.088485260436968360e-01,-3.900571851876449836e-01,1.231608787535599658e+00,1.947187942567218277e+00,1.218716152744649506e+00,2.407657397872138283e+00,1.024011246216952165e+00,2.194336116190341301e-01
-1.144563535828144518e+00,1.907033056741014976e+00,1.332337437561606386e+00,-1.074034960980059017e+00,-9.390427976226795037e-01,-4.868916098670229009e-01,1.090061087514746063e+00,1.092843333819922380e+00,1.607054143911432531e+00,-9.375748636297933647e-01,1.616506010376674851e-01,-1.505109091849603509e+00
2.817642857003267443e-01,2.866753700504574565e-01,-1.813223498411789258e-01,-2.444882689494620287e+00,1.232563565427148067e+00,6.731984507482509095e-01,-7.971279853460271347e-01,-8.116737730788162741e-01,-1.216752739101532699e+00,5.843340480293593986e-01,-1.748464005693163015e-01,1.078920657781431980e-01
-1.634038548006989944e-01,-1.222748431716875972e+00,-1.373092745114888602e-01,-8.166816822926536990e-01,2.080707517936632112e+00,-7.565140811562302003e-01,1.180815314522392079e-01,9.462299532732444396e-01,-6.008582108177761005e-02,-9.541022455444133632e-01,-7.752950844942393394e-01,-8.101107870680938905e-02
3.529244284372586860e-01,-2.824286105853148765e-01,1.257858914107286112e-02,-2.666775854647158717e+00,1.667230196932458330e+00,-7.855389907509342795e-02,-1.169669164884828971e-01,1.378495848477756747e+00,-2.595201734096924895e+00,1.826265419660767220e-01,9.233166586967012091e-01,-1.012628870845376117e+00
-3.016974563898316974e-01,-9.338198074016116346e-01,2.405832388185809301e-01,-2.169877036893014033e+00,-1.015468637066182511e+00,3.281663051292868505e-01,1.081175642275923998e+00,6.259787447141400285e-02,1.317307998852317752e+00,4.907915901595372721e-01,-1.106736220823843597e+00,9.752138688132038213e-01
-5.061463150736980610e-02,1.076621006732670915e+00,-1.724126589691165057e-01,1.384290568517688280e+00,-1.401737487597626952e+00,-1.941141102679221131e+00,-1.551669191231438871e+00,2.755081556806301957e-01,-5.640106165361244983e-01,6.222816969919259256e-01,5.870515908447593301e-01,-1.395892018880500407e+00
-5.873548139654296563e-01,6.358021985216671945e-01,1.915630231165310893e-01,2.116580438854072932e-01,-2.858834340940618612e-01,-1.217171052546505428e-01,-9.700369792609186970e-01,1.460188612105429717e+00,6.497064755209145392e-01,-2.346910580224760845e-01,-6.675322318776820696e-01,-1.313426883977319548e+00
1.226504727806199818e-01,-1.108083027299651413e-01,-8.651133373751308531e-01,4.659781032128905709e-01,3.150155430969538428e-01,1.646550358972980188e+00,6.533676796048278890e-01,-6.981327203494980260e-01,1.290530071291566029e-02,-4.999494748579583203e-01,-3.443067030185227306e-01,-9.338828619137696796e-01
6.374046487690592233e-01,-1.992404660093651803e-01,-2.274519921408718393e+00,-9.225560176229290477e-01,-1.287509013418693060e+00,8.789907607913975962e-01,4.511137691515023640e-01,1.672754225664593530e+00,-3.527272031668772234e-01,-1.746197884902966624e-01,9.842702324891942078e-01,-5.146835784030701078e-01
1.285191381196435279e+00,-2.953534204621152681e-01,-7.802226467013801958e-01,-4.052878747348725441e-01,-2.150686458958242842e+00,-4.015366789444294593e-01,-8.755359300993754701e-01,-2.236250352761540508e-02,5.731356565961243099e-01,-6.911236129806945794e-01,1.375212670560695516e+00,-4.697318812856791648e-01
1.378028561043277644e+00,-1.066855757590749798e+00,-7.735002739637411029e-01,-1.729230342917923657e+00,2.935058545934645657e-01,-5.505500518729070092e-02,-5.086121161952985581e-01,5.727685745496964298e-01,-2.810898373862802391e-01,-5.643641757088655453e-01,6.599004896247895324e-01,2.079596775311063794e+00
2.038694395253715930e-01,-8.030964605499044673e-01,-4.010452265692420193e-01,9.654724992845306053e-01,-3.880976274936300818e-01,-9.613657299166123993e-01,-4.656012282838071226e-01,-9.173262945464636386e-01,-3.979190429626157099e-01,-5.382854654125099891e-01,-5.947177023071553714e-01,4.095974702957352331e-01
5.017513016884744825e-01,-1.385333540935027585e-01,-1.006875836998539109e+00,-5.703677505427028754e-02,-6.371766056562178093e-02,-1.563915164093572785e-01,-1.633481333309391159e+00,6.736151436379748114e-01,4.079822605970682692e-01,1.286421569372373286e+00,-4.451959625535433229e-01,-1.504337338887795195e+00
8.356568135723879687e-01,8.147367355547265044e-02,-6.015487117229855601e-02,5.381277824337490356e-01,6.430935599340125153e-01,1.475235172365400860e-01,3.152298447994331676e-01,-5.965983069092516411e-01,1.078731705444234912e+00,5.196913952517890900e-01,-4.570617999915249086e-01,1.549142418548002498e+00
-1.830297284304041261e+00,4.398535800035157650e-01,-5.180981285930013058e-01,3.154115725331104181e-01,-8.596900116701112760e-01,-2.467135569237596804e-01,-4.392182344061539845e-01,6.627268567578694647e-01,1.760528649157817871e-01,1.827555172251957405e+00,-1.024256235336283405e+00,1.705624942424509016e-01
-2.652859788303979505e-01,2.841095090766533326e-01,-1.283909694409404612e+00,1.723994819210014628e-01,1.573531286264800100e+00,2.600759447072707453e-01,8.987678880865235254e-01,-6.375168687817632796e-01,-1.176778878846817866e+00,1.063037058190218875e+00,4.547147913679536191e-02,-6.804303393095608721e-01
1.456921123131023510e+00,-2.652601537799736398e-01,1.386075324099515615e+00,-4.772970834964244680e-01,6.962812801669686635e-01,1.726061780078834262e+00,-3.204450755403155382e-01,1.475030944742894645e+00,3.381517280330771369e-01,-1.634393996068247867e+00,1.011987162961418829e-01,-2.892870462872449422e-01
-2.184785572108436658e-01,-3.717044701710749965e-01,4.890968441711895376e-01,2.428816206356902013e-02,4.337154899839295585e-01,9.756020695978208368e-02,-2.915302765954193465e+00,-5.376079507341368080e-01,4.609198437129988224e-01,-1.131245873206454089e+00,-3.816991984093971446e-01,-1.226655357755639164e+00
-2.810512309911167850e-01,-9.940965396758062456e-01,2.508029080122747834e-01,-8.422725964704399493e-01,-8.277595966880150202e-01,4.378425322298273303e-01,-5.797172572931101886e-01,-7.962935792179410832e-01,-1.826517121660209186e+00,5.748651029059880235e-01,-1.207999072828372045e+00,-7.950051435543735723e-01
1.107906975932173133e+00,2.611301550814012717e+00,-3.797052585599598462e-01,1.021722810602305076e+00,-2.758500479704740771e-01,-2.003613353164203303e+00,-1.517327523587664595e-01,-2.071988189169994499e+00,5.375000669212917082e-01,6.605702465563090264e-01,1.997167787890760660e-01,6.096897471583144767e-01
-1.105440518870827588e-01,1.204016023875029706e+00,6.703566000375587031e-01,-6.660413508324622978e-01,-2.839913038013101576e-01,1.253657416961533766e+00,-2.040605002386319811e-01,1.310445354000689955e+00,3.671309324430010346e+00,2.576044614017037326e-01,-1.017588891999811729e+00,3.585084177673961703e-01
-1.108290102363687302e+00,3.751186038978464588e-01,5.299017202616369548e-01,-3.023760307456834200e-03,8.084579666812791165e-01,1.994466363096883077e+00,8.078085260507636978e-01,1.812462613641745879e+00,-2.949604856225326310e-01,1.231016886119514320e+00,9.525709650809257578e-01,-1.541120855923241821e-02
1.230081064336171759e-01,5.749690233968188791e-01,1.247999037030961045e+00,-5.508052612722409008e-02,3.078264705917247435e-01,-1.843145978088732484e+00,6.644783458142506927e-01,-6.485484988782731774e-02,-4.497202586706577215e-02,7.300670860158082753e-01,-1.433198143370138178e+00,2.353157192590769053e-01
1.599533579912054915e+00,-2.717550839125419948e+00,7.007212222457132045e-02,1.516736193028441093e+00,3.926570884244086623e-01,6.370843460788877533e-01,-9.404585944357912730e-02,-3.377804374428838297e-01,7.941233400752045757e-01,-6.961892972147876169e-02,-1.078251627221501918e+00,-9.555233896449837061e-02
-1.802155017655116265e-01,-2.760697641297437110e-01,-1.251848538419461754e+00,1.131574988912134455e-01,-8.042914298802393558e-02,-6.832470834156458006e-02,2.106232926405694705e+00,1.213692701819627073e+00,1.105715133651600651e-01,4.917320760711940686e-01,1.904777466231058147e+00,1.641283387520359183e+00
7.875376016307124305e-02,-1.251837922638879164e+00,-1.877368999561134899e+00,1.676874445715313966e-01,6.598991966003683318e-01,-3.557365487533636350e-01,5.183324571930639779e-01,3.270097610425221069e-01,1.811720043743272335e-01,-9.371479418550267004e-01,-7.269800920074477590e-02,2.992598832398937203e-01
-1.141918649120724272e+00,9.315191607345432168e-01,-2.399310266779501252e-02,-1.237222863399641382e+00,4.299328072684172608e-01,6.086579369037163900e-01,-1.670416066628150675e+00,-7.993390811475350466e-01,-1.129858499350483436e+00,-1.014458179529507120e+00,1.846805360383042827e-01,-6.825710883368012460e-01
3.875555742611487640e-04,-1.388411109151323153e+00,8.079166732098148618e-01,5.833793398472308933e-01,-2.295189220112791584e-01,2.869395367132774322e-01,1.693340600319675593e+00,3.825176515588582515e-01,2.126208115160489243e+00,-8.591174288030826167e-01,5.488971658132170139e-01,-1.686479097350085943e-01
3.409699651076278926e-01,1.788287423985857938e+00,1.250612221273544357e-02,-2.481244869756527915e+00,7.555102922288323697e-01,-1.216974192566128821e+00,-7.796626595023443684e-01,1.054650122132591905e+00,-1.929065812705408889e-01,-4.393120791952506154e-01,5.494627769884601358e-04,-7.380887691913227133e-01
2.906596983515209454e-01,7.565330467425668282e-02,1.856780857308745425e+00,2.926414790452777637e-01,-1.747762786138157942e+00,2.430698463170213874e-01,9.636459989881679400e-01,-5.805361387361401837e-01,-1.150990354932056592e+00,-1.470234814478400820e-02,1.102604560676497369e+00,-8.969926002138945975e-01
3.447004784613972861e-01,-7.361731344259871967e-01,-5.062386232534530350e-01,-9.545595201586503098e-01,6.570582712229526834e-01,-1.472521963163791192e-01,5.161588584029962457e-01,9.494727323380818262e-01,1.010897809586704499e+00,-2.508844576124099612e-01,1.040887860465434356e+00,1.197555076720765888e+00
-4.265448376731028612e-01,6.641819049715447232e-01,-2.002795520909978200e-01,1.094859742625719390e+00,2.153001803855466800e+00,-5.223604794188482225e-01,-8.077034062561400107e-01,9.051098206646496225e-02,-8.878961294759953049e-02,-8.286119492929917563e-01,3.532879215517353289e-01,7.398745304901940267e-01
1.027386906754045981e+00,4.219143615934416447e-01,1.197348629481761323e-01,-5.362490710909293412e-01,-1.208473692339819605e+00,-1.035508591828537384e+00,2.737813296890233283e-03,-5.333105742704237207e-01,9.456016459111266093e-01,-1.887934760349836427e+00,1.936872108501337397e+00,5.204080629292201499e-01
-6.537536274404646131e-01,8.625974107030283111e-01,3.223066156590683184e-01,-1.346111280492130025e+00,-4.762503389492239170e-01,1.897397064451460613e+00,4.472471020699795852e-01,-7.773934724834383747e-01,-5.940298208915241185e-01,1.293713588285115623e+00,-3.916849631191123837e-01,-1.218221734829698505e-01
9.261711601511452008e-01,-6.946378066559051323e-01,-8.721857573587911139e-01,-3.464096677938353630e-01,-3.311144241100474339e-01,-1.285872678334223140e+00,-9.469880508172552336e-01,5.895617859213586609e-02,-2.614294472708219019e-01,-4.635143066381480770e-01,-4.907378111906965379e-01,2.949079385118680841e-01
5.707460829734862795e-01,-1.870639825897666420e+00,8.524383941477468030e-01,1.560716267600409379e+00,-6.019181420073264066e-01,-7.561192507715822630e-01,1.237571435403491016e+00,-9.596348973915365121e-01,-1.253412313673949452e+00,-4.388827615838645224e-01,-2.265146030707102798e-01,-8.754839994858374386e-01
4.830040409077628882e-01,1.959415230465358111e-03,1.110864832699962168e+00,-3.943178974823269844e-01,-2.411267428217504227e-01,1.127276763821444483e+00,-9.821121598035462696e-01,2.325534911636395752e-01,-8.533792975859036956e-01,-1.798267471314380153e-02,2.711098651059097975e+00,-4.696071312477258508e-01
2.233768848492308390e+00,1.055506472503038862e-01,8.072481167116386525e-01,1.016171316608674019e-01,1.548331001786502403e+00,-1.207300327719668998e+00,7.203723072823168261e-01,-1.501754098536988602e+00,-4.455923116302338283e-01,3.524546533788578961e-01,2.725383184897918754e-01,1.358754251130606105e-01
9.695443455423706780e-01,-1.036285638025741918e+00,1.261025803351942143e+00,1.517499674613904670e+00,-4.445570320896763405e-01,-4.910502632647854582e-01,5.327117745897286261e-01,8.762012070513887363e-02,-4.413616035196842313e-01,1.038737660729095236e+00,5.558103368386132365e-02,-1.183226552082394356e+00
-8.781870500631964171e-01,8.783933481451733361e-01,2.470253741526904079e-01,1.174833123812342839e+00,1.755006938601022304e+00,-8.939884023577986394e-01,-2.027923978030556906e+00,1.308455240406823705e+00,3.909754669552240602e-01,-7.251656641992478836e-01,2.206937826237076461e-01,-6.097689691215486540e-01
-7.863908201287422850e-02,1.314772705072327685e+00,4.145132326932113309e-01,1.348560703272136674e-01,-1.371014156899057201e-01,-1.623808900647196185e-01,1.239721790965287340e+00,-1.077207051678999328e+00,1.173489096566969758e+00,-7.695001177152357430e-01,4.282484989919752016e-01,8.493017156318973804e-01
-1.122103140591551140e+00,-1.002257903155722829e+00,4.674210407655777777e-01,6.128783572604276086e-01,2.211642027782428688e+00,-6.720612599964223000e-01,-1.560512764433496624e+00,1.535354641835267930e+00,-1.417761676428671125e+00,2.632721125932751538e-01,-1.136458328289647879e+00,1.090569928557590496e+00
-8.972716247877435825e-01,-1.044126192651553486e+00,3.171384334886649392e-01,2.491501016098094101e-01,2.410144990098707307e+00,-9.046082882806497638e-01,1.819651551085664565e+00,6.283594611880685132e-01,-6.307694064249177446e-01,1.265432394385313186e+00,-1.223325159376988491e+00,3.010440548181909648e-01
-1.148025500342717109e+00,-4.904124888920426972e-01,7.227433925782186241e-01,1.543277473287427703e+00,-9.019090687755079161e-01,-8.973907398949859671e-01,-1.394986334726057375e+00,-1.922550973884985082e+00,1.127209815053979103e+00,1.831539962357334073e+00,-9.189243259878804304e-01,-7.751317828116746078e-01
-7.160994275503483886e-01,2.223421316453581542e-01,-1.918317613085644864e-03,-2.516916984465333407e+00,4.435421576901172336e-01,1.706226475464202030e-01,1.609826414926605276e+00,9.754379114980379351e-01,1.278906020113335318e+00,-7.593206644102008518e-01,7.457568053496186344e-01,1.449394974914509360e-01
8.528536803537993816e-01,1.675712966620946043e+00,1.025416796017141641e+00,3.130899960441591023e-01,-5.707609834614074673e-01,4.087630425379771837e-01,-3.106504933213560249e-01,1.429698091155144235e+00,9.615547332767293565e-01,-3.799222288684139803e-02,6.466312508004143922e-01,-1.788316795830147132e-01
1.072526350002983353e+00,-6.777826207515853518e-01,2.905044568864796894e-01,-1.773769929538405454e-01,9.310687791060059393e-01,7.961191674424230591e-01,2.420640153184200116e+00,-5.465454180779310001e-01,-2.415184690308873894e-01,-1.505802657544842715e-01,-2.035578764814409691e+00,9.926754857429338497e-01
-6.098571881682205431e-01,-1.223295986240640731e+00,-5.697436563622169103e-01,-5.970398763045543095e-02,1.034193397463640807e+00,8.483310041853535655e-01,2.968188119128358296e-02,8.730055761834187855e-01,-2.712525094185746499e-01,1.461686500237482367e+00,-1.525760074762929186e+00,-1.698875232080694631e-01
3.906773834420850799e-01,1.015145184007252510e+00,-5.763760805590812941e-01,3.267695543266210256e-01,1.897066574955068585e-01,-9.242163682561129745e-01,-9.841269790546746110e-01,2.476484163144491824e+00,-4.643039191754588235e-01,-7.597278868891387260e-01,-9.645649089614956040e-01,1.106353558986126639e+00
4.452494548642247918e-01,1.308327952180939058e-01,5.562431817573630921e-01,2.982840223172684713e-01,-1.214074003497990661e+00,-6.989283581829845993e-01,-3.724896306769089338e-01,-8.603952568299302883e-02,-1.570483157781712880e+00,1.014678971413658815e+00,-3.860218628755060499e-01,-2.441189859356349245e+00
8.892411186161546244e-01,6.147072020005751591e-01,1.095693684915984845e+00,5.104170145532015423e-01,1.005673896316494342e-01,-1.068795606151035082e+00,-1.453737829587690378e+00,4.412668339496367831e-01,-1.168335977069414611e+00,-2.081309149636280331e+00,-1.248194231249895703e+00,6.684779338736187571e-01
4.793853971187965191e-01,2.043211204207313170e+00,-1.206781533993267708e+00,-8.934106098765655091e-01,1.850916606959781330e+00,-8.362206659724092939e-01,4.979376978189110070e-01,-1.093869939912308631e+00,2.329512878746571758e+00,-1.305217463045369453e+00,2.516999271563461482e-01,-1.175232891107247823e+00
-1.367328404898575211e+00,1.498081499547456286e+00,-1.164408859045387157e+00,6.488631452077745498e-01,2.699002767557099336e-01,9.498848654968348182e-01,4.891057811056040427e-01,4.675817838177627472e-02,3.202117208258144498e-01,-3.927585346024191626e-01,-1.549294784907072342e-01,-4.046340758000188109e-01
7.681240862593454732e-01,-3.111121184044549626e-01,-6.082452847799225681e-01,4.049860683444053699e-01,2.221950061958805067e-02,-1.008853081953173247e-01,-7.256424675451980111e-01,2.643053610144605742e-02,4.502406178841587003e-01,-6.185885773695841694e-01,7.429512163950559023e-01,-1.897419300832271949e+00
1.146419406531167473e+00,1.589848418496746296e+00,7.101674252862160142e-01,4.809727244884429709e-01,2.116534334297151543e-02,9.026835737742692212e-01,6.723371217929018373e-01,1.625699292871861434e+00,1.042379829209288955e-01,-1.170873203163979248e+00,-4.591380011706039932e-01,1.579347644243293214e+00
8.523104996449758497e-01,-2.010792379237644756e+00,-4.889777711757827272e-01,-5.780809064532165253e-01,7.754694049390759014e-01,1.067697255368048159e+00,7.374969043699756144e-01,8.024413186342963522e-01,9.086029812229888536e-02,-1.196778082120770303e+00,1.703143376635818829e+00,1.122116893939446136e+00
-2.580448865425936655e-01,1.183805418743867355e+00,4.697364970942654039e-01,2.482759866082748790e+00,-1.268906119309675340e+00,-1.535142251692049431e+00,-1.202251364028686709e+00,-1.624755230317144417e+00,1.543086837094152619e+00,-4.879729833763842839e-01,-4.194249376151535924e-01,9.148283064139972609e-01
5.309401586792755756e-01,8.263862351215707502e-02,5.718886485564028677e-01,5.731097269185981835e-01,-6.307532816513743423e-01,7.413361194773794294e-01,-5.796894496203802705e-01,-3.772066781088699861e-01,-5.841578848415023284e-01,1.269120191738814851e+00,4.867843980628567269e-01,-7.604319240837709160e-01
1.320131408590289324e+00,-3.414886618572347543e-01,-3.801535934902217084e-02,1.387178564028133554e+00,1.070936584960234583e+00,-6.001902752568089028e-01,-1.369523291511575147e-01,5.568807695682507219e-01,-1.117057195006558645e+00,-1.816381838509105062e+00,-9.191845680386785400e-01,-1.162297168446801088e+00
-1.159159175833284872e+00,9.133234868642616799e-01,5.893468039780491718e-01,-1.945110435979564567e-01,7.300710871905373711e-01,-3.017418273649788429e-01,3.040871480450165976e+00,-2.218434957038794675e+00,-2.403073520589927625e+00,1.972706684311137937e-01,-1.041725231719001110e+00,-2.086032175385384158e-01
-8.727879703624344954e-01,2.900054725885009912e-02,-6.728988662004684040e-02,1.535490526083153506e+00,-1.975837541568512823e-01,-3.096436698011214017e-01,-6.033512552930719863e-01,-7.688273780079157849e-02,1.696707271569226849e+00,2.857011004575402691e-01,9.030231018362193662e-01,-1.133178867762540953e-01
-1.826327838930314362e+00,1.262380071242644508e+00,-7.548747385022646084e-01,-1.157011336132145463e+00,1.451232647050046398e-01,4.643890704978044237e-01,1.115668766773948717e-01,1.808989221230082656e+00,8.143474515252925316e-01,9.495241897389414265e-02,-3.596478236196874456e-01,-2.578743354900158824e+00
-3.623021966957978846e-01,-6.941648468565182473e-01,5.029809111193999510e-02,1.515413446452797297e+00,1.600681343202120077e+00,7.046758917488941121e-01,1.835296098192680914e+00,1.485001817294367088e+00,5.986578289747718218e-01,2.851352027237874509e-01,-1.554029366284716218e+00,-8.360062116494565432e-01
-1.683148849676890269e+00,6.228707803180272284e-01,-1.191783542066487678e-01,4.591784240373681936e-01,2.834890260661301342e-01,-5.940823233795469172e-01,4.390116211838243077e-01,4.497245876386052679e-03,6.180009107465711526e-01,-1.139500752822760976e+00,1.097706916606628891e+00,1.271526393987871151e+00
-2.171928030422904943e-01,-7.700716103581592975e-01,2.806806737313651379e+00,1.291687666004216473e-01,-2.726705740012329571e-01,-1.416223651848741660e+00,-1.161794869922032403e+00,-1.366373775205186047e-01,2.758765192624120788e-01,-3.477421940380031051e-01,1.572593296072160252e+00,-9.518109014476609786e-02
-1.131865322621574133e-01,1.492048497886742542e+00,5.602170257342020676e-01,-5.175878162386703396e-01,-3.982963627436328369e-02,1.169949429998020429e+00,-7.233835469552147845e-01,1.466517709514597145e+00,-1.533947245786788649e+00,5.285309571931547101e-02,4.813559285789485442e-01,5.388432704226042702e-01
-7.665969023755729583e-02,6.782965603549537814e-01,1.066250620212293443e+00,1.415734340826211857e-01,2.293495896968316683e-01,3.251292701871409951e-01,9.996315903628038013e-01,1.590626698553607499e+00,-6.868606468933698972e-01,1.071731662360305926e+00,7.514590994879473129e-01,2.110764821902420818e-01
-1.143116039477234835e+00,1.517020438655270587e+00,2.674055339097203832e-01,1.255555901448289546e+00,-8.192677566539914302e-01,-3.438002298991883476e-01,1.529956189464502625e+00,-1.520204228071223129e+00,-1.420642889115549590e+00,-7.117372747470621652e-01,-1.973310464589880686e+00,-3.634839504347007755e-01
-6.513513966098045671e-01,9.613011976763523314e-02,2.187272938011531886e-01,-1.018442199480456223e+00,2.096214646463100129e-01,9.674564194807439010e-01,1.252896078268167512e-01,-1.482089130923024412e-01,8.976726860968035904e-02,1.519574133521989001e+00,3.227600082350262078e-01,3.171775221500903186e+00
-7.892337982856005574e-02,7.477452461279063267e-02,4.437510181963031375e-01,1.817473045715515545e-01,1.105877803929942393e+00,6.221553072700205522e-01,6.235657175422770759e-01,-5.318171346196752802e-01,1.007005377606101426e+00,4.516100412716376189e-01,-3.105600319277780352e-01,-3.859378230926768794e-01
7.368792566856302573e-01,-5.009051908983715995e-01,9.119930299768329585e-01,-4.626306698738390233e-02,5.427740907921953240e-02,1.294943913349087539e-01,3.035181420337508262e-01,5.207819135857754134e-01,-5.782587847333621189e-01,-7.737507091209461230e-01,7.364179056123633105e-01,2.060404750126647144e+00
2.324811292971199761e-01,-1.122842451429114652e+00,3.236098008596863251e-01,9.023589805792064933e-01,1.913877534442410544e-01,-2.531406468742403715e-01,1.017456619368704240e+00,6.160349337157783323e-01,-3.845475027695708509e-02,5.125918489207133000e-01,9.035705627933092732e-01,-1.007183690859500658e+00
1.499592950959863558e+00,2.443137692385993487e-01,-1.513675375443363169e+00,-3.314715637898021927e-01,9.255598779178486613e-01,-7.617026777989338582e-01,7.729442620104920447e-01,1.357309976279933994e-01,-2.455572506796262211e-01,1.919932573419745603e-01,1.463234023910599424e+00,-1.088109775871851870e+00
1.438344717642650261e+00,1.332097131766844855e+00,-3.447498041353732612e-01,-1.756702468280109120e+00,-2.829706155707042425e-01,-1.450352462935356357e+00,-1.347010354723528147e+00,4.650440675005671487e-01,1.228306808608964795e+00,-5.544561028867217578e-01,6.762096580346285135e-01,-1.173334424202636894e+00
-5.627325712277357894e-01,-6.016628621282338329e-01,-2.668320501927560207e-01,1.521958099488381011e+00,-8.482441222250224344e-01,2.205539121845274675e+00,-3.206625060703358066e-01,-1.107387183786946672e+00,-1.059413644384011727e-01,7.436110008634453372e-01,8.370524555560276969e-01,-1.064767548205447945e+00
2.816018822556809020e+00,-1.353274914380916960e-01,7.988792722086604514e-02,-1.760543584314417265e+00,-6.244769900494784309e-01,4.215500093454260244e-01,8.597042920168845859e-01,-9.480772873119689415e-01,-4.506912867990886529e-01,-6.531224005370517283e-01,1.579737041874742787e-01,5.601923499742545998e-01
4.826715863550060104e-01,1.133315125685499192e+00,7.309282009467644725e-01,-3.959312725084018769e-01,-8.374143796443568322e-01,1.407188940503610430e+00,1.829491179761569969e-02,3.999593504704906932e-01,1.029492698060038292e+00,1.177314045301887990e+00,-5.873069316232064629e-01,1.527021872747309217e-01
5.446528537791847091e-01,9.559441502922852996e-01,2.094278679048137359e+00,-1.713157767717192470e-01,3.741359538978598631e-01,1.975109321309769905e+00,8.630446531360569384e-02,-1.251421840485049231e+00,-1.193961291181821371e+00,-5.640258935047488542e-01,8.748168586846600814e-01,4.518495759035277559e-01
2.435308216209590773e-03,4.471689802303729921e-01,-2.331310566191309164e+00,7.161391002180409471e-01,-1.093204829472296247e+00,-1.256315293925218013e+00,4.438112253701083643e-01,4.298110213430906823e-01,2.440397738958152013e-02,1.374166705837829294e+00,-7.523454516780744283e-01,-9.924730394064744665e-01
1.865124816068088665e+00,1.512095675014672458e-01,-1.456346879436101638e+00,7.065827129663996287e-01,-5.732732291427016236e-01,1.702101681187922377e+00,3.353931624774201259e-01,1.971462914676465505e+00,4.785130871023020593e-01,6.524586970079500059e-01,-9.314697536547846338e-03,1.417106035899341032e+00
-5.909304852219212645e-01,4.500473393611785222e-01,-4.691948010714195316e-01,6.656621132858447920e-01,4.237239323445027295e-01,-2.761758845135405815e-01,-2.611026045201528811e-01,-1.474568546102319022e+00,9.726897599368701242e-01,-1.213699955277143472e+00,-9.129320282697366284e-01,9.810389767551305207e-01
1.073175544662449132e+00,-8.847242366692836812e-01,-7.851242004211939074e-01,-3.429936486971493226e-01,-3.599247292963314582e-01,-1.345004738169417458e+00,5.530875804749260105e-01,1.732919911676156222e+00,5.360401966939146723e-01,-1.124648498967822041e+00,9.879715288229379277e-01,-4.021387571930637450e-02
1.848234877651492303e-01,-9.885949582878536535e-02,1.479100673388130949e-01,-6.313378971205567680e-01,3.154621994101191707e+00,1.397855151194012713e+00,5.531818466821734059e-01,-4.943400640179210770e-01,1.354667032358619405e+00,-2.215016811526742957e-01,1.290193200954183050e-01,1.216152096373055658e+00
6.870534432637429578e-01,7.076865535126735107e-01,-1.476078934434774004e+00,-8.826375626468611901e-02,-8.713700639564838646e-01,-7.840067014521633348e-01,-9.549511745921522854e-01,-1.075238658892959887e+00,6.945911970729240492e-02,-1.761322840161481329e+00,-3.106650213499951296e-01,-1.386297732367886004e+00
-1.522106096348306625e+00,2.250917911690954565e+00,1.894029779656832169e+00,-5.359335793466353248e-01,3.615954686224818748e-01,-5.744392834560909655e-01,1.231753040983649239e+00,-3.872014186916056255e-01,-8.562500425792367587e-01,5.555641711608694244e-01,2.159308935876385338e-01,-5.528143531076908923e-01
-3.015827907469267322e-01,-1.045289673059950353e+00,6.126703035676039910e-01,1.436791147869139973e+00,-1.019288341630060213e-01,-9.608044275748307550e-01,5.411303205842307174e-01,8.384069236437967643e-01,5.386465065839346478e-01,1.734600465400223612e+00,-9.574523015236199308e-01,4.837285023249054960e-02
7.933780216525156970e-01,-3.366813361456208464e-01,2.171950537282307803e+00,1.648181775536811333e+00,-1.405082112727735089e+00,1.711234257778032897e-01,9.751009213101891060e-01,4.418418449873613985e-01,9.970830251841801550e-02,9.896210690661518816e-01,4.696198545965806770e-01,8.002118862490303908e-02
5.843562600755083380e-01,3.516757567848072807e-01,8.426069719140221181e-01,-1.870242319012397569e+00,-2.148894284362509399e+00,-1.848598279191041582e+00,-3.078083971879378433e-01,4.979076823903880733e-01,1.013095303780154666e+00,-4.316630876523481208e-01,-6.624615467610969199e-01,-3.481385888896303404e-01
5.539398621317825899e-01,1.049731743789004135e+00,-1.032140551048901456e+00,-1.315880467276161481e-01,7.046862259533994699e-01,-6.506990396772126539e-01,3.259728616847296090e-01,-2.300766602083428591e-01,-2.321883009131548548e+00,-3.817890528555612506e-01,7.235690332673043734e-01,-9.667071846089326792e-01
3.891897996797095138e-01,-2.289534113147162764e-01,1.349983665662614962e+00,-1.134131503773167848e+00,-7.687221531866040847e-01,-1.868070032332241448e+00,1.746645072547116095e+00,-6.054574140398788495e-01,-1.004492235367479669e+00,9.081822278350830668e-01,2.169968875659977238e-03,-6.417726599243589458e-01
1.301520169567112362e+00,4.409645691920587307e-01,-1.408764114602123030e+00,4.799296872300229944e-01,-3.493014494091459254e-01,-8.967040109712727247e-01,-7.074900548131162203e-01,7.855332072404925814e-01,7.344400272381369499e-01,-6.738538693960861581e-01,5.838351306374015559e-01,-1.540724213907473716e+00
1.103300596615199858e+00,8.125382968013594720e-01,4.665852226254557644e-01,-6.569264658225695275e-01,-7.580558442197904423e-01,2.520888269109031743e-01,1.219489303936891478e+00,-2.368699829940633383e-01,5.901077872919132661e-01,9.599898439908442771e-02,3.141666298893252551e-01,1.166307838156361631e+00
-5.704267678683607734e-01,-1.994288923554631721e+00,-1.705639648874440972e+00,-8.468485435639083736e-02,-1.353385922185567636e-01,1.125430953768195463e+00,3.122932099746287826e-01,-6.933579096456540247e-01,-1.307134313990175656e+00,1.061349493376643416e+00,-1.050076673466388888e+00,1.749179701684203669e+00
2.320333320296693036e-01,6.223758547022935073e-01,-3.165278722026445002e-01,1.382560036747028542e+00,1.097289465733660929e+00,2.970748472257690731e-02,-5.626648097895969175e-02,1.443194549854730058e+00,-8.343390161598942534e-01,-5.916290146603024880e-01,-1.952859150236585517e-01,1.801163627203859585e+00
1.458265101462213886e+00,4.590540949002013815e-01,-2.236287451622570810e+00,-1.775689066856589671e+00,4.088584877052678368e-01,9.148677999671668282e-01,4.362577812985010128e-01,6.131275270079600270e-01,-1.574926188594055754e+00,2.291907591746784600e-01,1.238779454569740590e-01,1.027071515551320063e-01
2.252343650614252457e+00,2.997903995963189031e-02,-9.734555369450605955e-01,-1.781267558517147132e+00,-1.022937506250868767e+00,1.122040995992171997e+00,6.888159207461757028e-01,-2.414468541222294234e-02,-3.004287888663028649e-01,6.082502622364696077e-01,-7.448416934843086201e-01,7.017756229082221242e-02
-2.219393491234840088e-01,-2.283149335864037011e-01,-9.419833199393031764e-01,-1.958097787369378562e+00,6.191364311788170038e-01,-9.176241299647860394e-01,-3.239159628352467624e-01,-5.522401729500526768e-01,-1.466945906505873864e+00,-1.174545805995435677e+00,2.933865751485710827e-01,7.074870418650275328e-01
5.506815670372932070e-01,-8.273671402219628934e-01,-1.412387282819857148e+00,-2.391181009642501021e+00,1.852360372438436875e-01,-8.154217796433540499e-01,-6.193503969160041311e-01,2.008624790166084306e+00,-5.344477537306166481e-02,-1.499963246803956762e+00,7.749123340051048414e-01,8.861759486054267276e-02
-4.583519122846450577e-01,-1.249807279985937880e+00,-2.957558351559646526e-01,5.141889542005366465e-02,-2.383890903962300745e-01,-2.465510310885935752e+00,-6.261458563743436123e-01,-3.966786983978483616e-01,1.148359372199808659e+00,-9.120213829766021796e-02,3.161911003409839105e-01,-3.164723799129177118e-01
4.123417533757573472e-01,1.050948983775725321e+00,-2.372687896436524113e+00,-6.264956091521452219e-02,9.070456716401501529e-01,1.529077705106841822e+00,-1.048752829159798894e-01,4.959363864613096085e-01,4.237069676592731399e-02,8.347815640424250949e-01,-1.395641317437831472e-02,1.329672772736193220e+00
1.083715239647779160e+00,8.199216541381808276e-02,9.816504457636052727e-01,-2.019236579842406787e+00,2.369781556783231213e+00,-4.299448922144781804e-01,-2.675293219116362309e+00,-1.897884005414895991e-01,-3.298637408691224016e-01,-2.379014599089792348e-01,1.949674014237108843e-01,-7.754984490988886536e-01
-1.721647395732315844e-01,-3.054117294700356422e-01,1.184692590802056134e-01,-6.685017185165470499e-01,-5.026573611072472636e-02,-2.334107766119912331e+00,8.906434529002881240e-01,1.255680224838790493e-01,3.812940699115945076e-02,1.349267236879382104e+00,1.416224080613406322e+00,5.163898023271232818e-01
-1.535434945714872823e+00,2.246131811718757032e-01,7.658947863705424242e-01,8.692411129488553101e-01,7.764174300051848165e-01,1.544039968889101277e-01,6.993500509611663141e-01,1.148409232760027265e+00,9.338645090158883555e-01,1.045972047044809061e+00,6.003600905089759854e-01,-2.480191907672802953e-01
-1.080527500334049318e+00,-7.536154683463311965e-01,-2.441305700850140981e-01,-1.255708725999393316e+00,3.559136801153685581e-01,-1.035999708695775956e+00,-8.034934853013497857e-02,-4.402237869515653323e-01,-1.473739697184189845e-01,-1.705754042493573763e+00,-7.004430296513405318e-01,-7.038460876215510975e-01
7.094806859840561142e-01,7.984419079933297372e-03,4.838704115503228431e-01,-4.183057766183747583e-01,-1.446952902833951837e+00,-8.538625005587618944e-01,-1.142047534504649076e-01,-4.248798894517896198e-03,-1.194192732108837030e+00,-8.893569457833374603e-01,-1.196106614815197533e+00,3.398011278517132361e-01
2.490119822516167480e-01,8.927449733900126860e-01,1.068992411297200018e+00,6.055891355745788296e-01,8.707180538081836785e-01,-5.255063244094407837e-01,1.426147957962015378e-01,-7.407823907400702401e-01,-5.570431519875876925e-01,-1.222139575270891204e-01,-8.753359216941934973e-01,-2.260408961517056392e-01
8.599409207279482548e-01,-3.178681068757015504e-01,2.377507992933222403e-01,1.039268783274714503e+00,1.034338536156194976e+00,-7.477718438063907236e-02,-6.897784199527999816e-01,1.266959887075878033e+00,1.664311449187148295e-01,-1.851793620855546330e+00,1.250290293028561539e+00,8.866551800691795104e-02
-1.051763817076586394e+00,-1.191723294537261113e+00,-1.967982576457962818e-01,9.590407875162885176e-01,-1.616107673218174223e-01,-1.105246949848122773e+00,-1.301787509046042901e-02,4.883824169309532448e-01,-6.024458362910189643e-03,-1.506709110509588889e+00,2.930319907707452654e-01,-5.569587391081060046e-02
-1.027360794513759057e+00,4.525382995777883499e-01,1.848406581574634500e-01,-1.385021488778687360e+00,-1.406892009227721285e+00,-1.647753337425845288e+00,-6.180036533332683435e-01,-3.371879164925348227e-02,1.487430611757858401e+00,1.302770901542781523e+00,-8.223960310539824015e-01,-2.211862782857817455e-01
-5.495491832356519391e-01,-7.899553922641578962e-01,-1.081724762102344695e+00,5.513912043376065913e-02,1.711417970250649900e-01,6.736677411949458794e-01,-4.526412904816389804e-01,-2.273458878750794554e+00,-2.289773855942761061e-01,1.710237088330117894e+00,1.902531892530803903e+00,-7.242084394947723158e-01
-1.041661386578629500e+00,-2.277222981874177932e-01,-2.120166161515505632e+00,2.147552984948072063e-01,-1.614433183827364005e+00,-9.258234120421295898e-01,-4.209224950812633370e-01,-1.021814476279869988e+00,-9.786865097185309947e-01,5.254278129655320928e-01,-8.387013955789027753e-01,-5.740513844496256818e-02
-8.854109267691615548e-01,5.145198382269884629e-02,6.254451168466970135e-01,1.493496180448043165e-01,3.893046210746110014e-01,-8.228120378316353678e-01,1.504880333570858042e+00,2.067972737562555618e+00,-8.446542482889382031e-01,-2.903906807941925572e-01,-1.571171562671104249e+00,-1.806912344892600553e-01
-8.133940063724428571e-01,5.316830933083256661e-02,-3.968272874376915227e-01,-6.826553443556535039e-02,-1.066437175799736931e-01,-4.762995367208280872e-01,5.620658133269851309e-01,1.495245396505193503e+00,-3.185281867693787183e-01,-2.268504308449474649e-01,1.786500762926921837e+00,5.376293891867292007e-01
6.268474541484022611e-01,-5.885636591543669249e-02,9.014361123581836610e-01,1.976619171512038253e+00,-1.049151407206966730e-01,-1.383082737285509012e+00,-3.869169028073548011e-01,1.774046155742573072e+00,-1.767011610600188742e-01,-9.031075417946731188e-01,1.212559467661324941e+00,1.200933960174289661e-01
3.979568785253541074e-01,5.257830572948497538e-01,-4.412324163981415359e-01,-7.869558210322733505e-01,-6.484770539369150155e-01,4.015067069954608714e-01,-6.690925899465334503e-02,-5.482289140778512371e-01,8.566604381207454377e-01,-4.653139216022686986e-01,-2.645388283783038030e+00,-1.407516669362739004e+00
1.311512831059426232e-01,5.970228461612269166e-01,2.485877538659580013e-02,-1.015348644872129613e+00,4.620704249797671914e-01,1.035564851929861252e+00,1.219832753776454837e+00,-1.182168999970519163e+00,-1.066621971043905548e+00,8.234431051611640351e-01,9.216335548387325979e-03,2.965537578815793940e-01
-1.073362985181160800e+00,2.113936423694356970e-01,-2.528997542263801690e-01,-1.621317096451355466e+00,1.794304665625153339e+00,-8.181291419583328617e-01,-4.474315738470798776e-01,1.241512890715621653e+00,1.192141506898004799e+00,8.883920947006653801e-01,6.002041899995560481e-01,-3.892283591103472551e-01
-2.874612506143675583e-01,2.464935779131495419e+00,-3.697359827215078165e-01,-1.160598730731856376e+00,-6.280740149030523689e-01,-3.324193445758565901e-01,2.117191310074069577e+00,-1.093511545965780485e+00,-6.859380851557930203e-01,-4.784397377787036332e-01,2.950149684479733692e-01,4.125689582076549899e-01
8.373364605220707801e-01,2.078123500612110153e-01,1.863698077657750751e+00,9.816044284052816149e-01,1.097003331069463794e+00,-2.178435175381927269e-01,-1.719971437360603206e+00,1.819368835267516638e-01,1.862495464906414933e+00,-8.867048969152752091e-02,8.049599675417253852e-01,-5.570699827723801789e-01
-1.665823518051360863e-01,-1.213637903741707991e+00,-6.058574888918243362e-01,-2.894800675647794641e+00,-1.857895015895177915e-01,-8.351118639044399217e-01,-1.220199710368838203e-01,3.359166478570036474e-01,-1.441130090604547387e-01,4.934729203979761336e-01,1.170834871186651194e-01,-4.812343790143810973e-01
5.607341202008727654e-01,8.037328147895979047e-01,1.387565114579077941e-01,1.742494056647805101e+00,-9.564235122475761575e-02,-1.813131672598058963e-01,-5.035734748741947930e-01,-1.210075595709027896e+00,-1.021950589265307130e+00,3.101675855969937001e-01,2.546192775898268312e+00,2.819089289367393558e-01
8.635156248503879084e-01,5.275028287837324470e-01,-1.436361972407735221e+00,-9.352337342128466124e-01,-1.133236767687342716e+00,2.709372118123676634e-02,-1.669020180353002036e+00,1.005547873506308143e+00,-1.175220337031582796e+00,2.296213166088891366e+00,1.939973874221659234e+00,-1.775095956500003735e+00
-2.342707821104900168e-01,2.596841844386047260e+00,4.862445875646877469e-01,6.078685531131639008e-01,-9.224760864594006016e-01,-4.178718459254429640e-01,-9.614693764785436914e-01,7.287655091071725266e-01,-9.072504418053348729e-01,-9.954872375418536423e-01,3.104829914614359310e-01,-2.415218861182099053e-01
-2.111935246287700352e+00,7.460835536777159493e-01,-8.941758313827609383e-02,-5.984858993647835801e-01,-3.619350114260977413e-01,7.111579057056345299e-01,-7.095749204451397008e-01,-1.961952389399805041e-01,1.926959588346966123e+00,-4.737716280051001982e-01,-2.228124736675481721e+00,-9.546143273209101165e-01
1.210707656192280490e+00,-4.843392701048875870e-01,-6.348475673590510127e-01,2.302647007042956662e-01,1.623990242754013602e+00,2.058345843097280081e-01,1.803830869120152558e+00,9.899232118390199897e-01,9.283588622599561191e-01,6.344316817345911907e-01,-2.196164441292579372e+00,-9.200737007297696834e-01
-7.550701682700562412e-01,8.202042293946987250e-01,6.513098272136046418e-01,3.691477131215177843e-01,-1.629709745692159706e-01,-1.038633620661729928e+00,-4.535971060174665559e-01,-7.741075077660487802e-02,-9.500905834034972797e-01,3.810967525533614508e-01,-4.852542678387470332e-01,-1.171048286858816567e+00
1.047920682282054816e+00,-7.357803760435713825e-01,4.861123694201275880e-01,-6.278667589919159076e-01,7.597165451019373128e-01,-1.249034655056539211e+00,6.967476468239518494e-01,1.618025661799730397e+00,8.261462893131538143e-01,-8.763523004446875930e-01,5.337263365337522325e-01,-5.219245576579790713e-01
-7.124934635700209962e-02,-3.722487932071462668e-01,-1.060239723256281991e-01,8.021180404400451991e-01,8.182268590243207962e-01,1.474569249481489097e-01,1.228495116496642892e+00,8.742878953789712249e-01,-6.403371715264767339e-01,-1.316244142298534703e+00,-1.863636668713637867e+00,-3.264486358181353798e-01
-5.824354181051446533e-01,-2.597000687785884776e-01,-6.120315044156150464e-01,-2.630111328251623082e-01,-1.948300454898750922e-01,5.069019150172326960e-02,2.461860875656703973e-01,2.893868105073311991e-02,5.275590541829513480e-01,8.773836720163199487e-01,-1.431395310546349775e-01,5.422350088016449077e-02
-2.476471879081493022e+00,-4.770925866361658829e-01,-9.527107436125403783e-01,9.473381288269729916e-01,-7.068156727561462072e-01,1.732074053033488825e-02,-1.000712136755044890e+00,-5.351080501674423395e-01,-1.208181306507335018e+00,8.237057382793142035e-02,7.652357851373704778e-02,3.158485820213360884e-01
-2.911594924518980942e-01,5.139775533814415764e-01,1.138782500298855638e+00,-1.451093218496661397e+00,-1.136650199551505258e+00,-5.464118193981775118e-01,1.749339604032509321e-01,1.744317844962529396e+00,-3.224393210120660158e-01,-4.256543909787409707e-01,6.800827544747205522e-01,1.328394892188183629e+00
-2.490735686029579496e-02,-1.082227733918568857e+00,-7.492510914020673596e-01,1.589158569197632875e-01,-1.119167408387341967e+00,8.112419876438927702e-01,-8.834345330058631651e-01,-1.772838823616589843e-01,5.175476568346580875e-01,-1.393541805966371783e+00,6.582496591738643543e-01,6.916292604243766684e-01
-5.771409201956059776e-02,-4.742565474368012207e-02,2.450782057652190205e-01,4.987622802438430591e-01,-2.945563017058269173e-01,4.366403841734878971e-02,1.697256155983216386e-01,-1.834397999665434223e-02,1.843097700503852909e-01,-5.597207453055178528e-01,2.931628116525745176e-01,6.513944357691411335e-01
